svm_type c_svc
kernel_type linear
nr_class 7
total_sv 849
rho -1.0935666048618553 0.5890528465722716 -1.5426667325078376 -0.35358154190629765 -0.6599119569816534 -2.55587708407173 1.935001018332769 0.37234909038649455 1.9467872401008601 -1.285120735916804 0.6496135324250627 -2.4142226977240053 -1.2712368781253036 -1.323531713676219 -1.9575355889481632 1.1078807430735103 -0.49463912971168683 -0.6582259546136616 -3.4948608697782895 -1.2857052043544186 0.2509275733421645
label 1 2 3 4 5 6 7
nr_sv 96 130 110 137 124 125 127
SV
0.05577913343896421 0.0 0.0 0.0 0.06641622080364717 0.0 1:0.280939 2:0.049338 3:0.282581 4:0.035242 5:0.74359 6:0.25836 7:0.562238 8:0.323685 9:0.099388 10:0.326273 11:1.170604 12:0.166409 13:0.390035 14:0.410269 15:0.521612 16:0.430556 17:0.639706 18:0.261881 19:0.427558 20:0.4574 21:0.272554 22:0.287876 23:0.633755 24:0.26927 25:0.396822 26:0.499007 27:0.47741 28:0.272727 29:0.461268 30:0.530021 31:0.596627 32:0.522906 33:0.159318 34:0.235652 35:0.537446 36:0.422475 37:0.807274 38:0.344304 39:0.817337 40:0.715328 41:0.433071 42:0.703723 43:0.665252 44:0.444598 45:0.531391 46:0.653907 47:0.391016 48:0.304733 49:0.338746 50:0.410303 51:0.586285 52:0.869231 53:0.722656 54:0.35904 55:0.828987 56:0.180133 57:0.543984 58:0.628433 59:0.455887 60:0.037711 61:0.795173 62:0.827185 63:0.513764 64:0.437063 65:0.16318 66:0.782874 67:0.594963 68:0.560692 69:0.257978 70:0.461919 71:0.659559 72:0.335911 73:0.412166 74:0.360161 75:0.506858 76:0.795775 77:0.51269 78:0.550456 79:0.609734 80:0.362773 81:0.359839 82:0.438821 83:0.416788 84:0.338202 85:0.514714 86:0.531484 87:0.500651 88:0.758741 89:0.45935 90:0.548355 91:0.764 92:0.286923 93:0.39034 94:0.569504 95:0.605255 96:0.152876 97:0.234287 98:0.676029 99:0.167297 100:0.358362 101:0.239496 102:0.580304 103:0.742599 104:0.312817 105:0.121774 106:0.215837 107:0.316649 108:0.168152 109:0.149958 110:0.301976 111:0.352153 112:0.553633 113:0.362869 114:0.293662 115:0.751816 116:0.127476 117:0.214389 118:0.381234 119:0.334826 120:0.213647 121:0.755476 122:0.592782 123:0.655833 124:0.425606 125:0.296578 126:0.799145 127:0.66963 128:0.664828 129:0.729248 130:0.795557 131:0.607123 132:0.315856 133:0.254242 134:0.363948 135:0.396102 136:0.0 137:0.445344 138:0.386751 139:0.547589 140:0.259489 141:0.284822 142:0.443443 143:0.299328 144:0.201905 145:0.268157 146:0.696132 147:0.272178 148:0.472924 149:0.329317 150:0.650213 151:0.538588 152:0.456848 153:0.140782 154:0.255019 155:0.149908 156:0.22967 157:0.806551 158:0.0 159:0.827781 160:0.064516 161:0.829091 162:0.472566 163:0.419001 164:0.556802 165:0.348886 166:0.598872 167:0.496348 168:0.330932 169:0.568479 170:0.498676 171:0.564087 172:0.309859 173:0.741135 174:0.194957 175:0.11515 176:0.714244 177:0.575202 178:0.742596 179:0.827308 180:0.047351 181:0.408597 182:0.0 183:0.408597 184:0.271478 185:0.0 186:0.242656 187:0.170346 188:0.61617 189:0.195418 190:0.349614 191:0.586629 192:0.087986 193:0.295577 194:0.735536 195:0.280185 196:0.716102 197:0.746667 198:0.644128 199:0.826176 200:0.328149 201:0.054814 202:0.225958 203:0.729602 204:0.181399 205:0.223597 206:0.601903 207:0.297304 208:0.0625 209:0.503759 210:0.442821 211:0.562962 212:0.510584 213:0.235947 214:0.339922 215:0.396012 216:0.135347 217:0.513961 218:0.558333 219:0.504404 220:0.476534 221:0.082707 222:0.644968 223:0.364965 224:0.644032 225:0.32092 226:0.455504 227:0.366293 228:0.24703 229:0.471685 230:0.377544 231:0.674655 232:0.479087 233:0.743396 234:0.812055 235:0.222143 236:0.826318 237:0.43784 238:0.551273 239:0.406499 240:0.289058 241:0.870376 242:0.421714 243:0.813853 244:0.672414 245:0.090551 246:0.742114 247:0.542027 248:0.44252 249:0.600378 250:0.704869 251:0.719117 252:0.370032 253:0.147399 254:0.51227 255:0.340732 256:0.208791 257:0.50996 258:0.716507 259:0.274166 260:0.70935 261:0.235523 262:0.327814 263:0.165761 264:0.548815 265:0.508954 266:0.531199 267:0.517225 268:0.515873 269:0.082677 270:0.723542 271:0.430485 272:0.535576 273:0.3209 274:0.426731 275:0.513295 276:0.397834 277:0.384742 278:0.837422 279:0.336855 280:0.367041 281:0.693798 282:0.776081 283:0.388259 284:0.528592 285:0.306978 286:0.391001 287:0.661453 288:0.098536 289:0.24226 290:0.771999 291:0.297539 292:0.28777 293:0.684615 294:0.737468 295:0.276551 296:0.638415 297:0.337596 298:0.453501 299:0.541291 300:0.082677 301:0.2162 302:0.671521 303:0.281331 304:0.213235 305:0.374517 306:0.702256 307:0.382885 308:0.483479 309:0.14895 310:0.242771 311:0.409568 312:0.174116 313:0.374391 314:0.405803 315:0.53057 316:0.361217 317:0.505976 318:0.53209 319:0.451096 320:0.561961 321:0.394901 322:0.522941 323:0.306228 324:0.321637 325:0.192874 326:0.816106 327:0.163537 328:0.472119 329:0.418699 330:0.459009 331:0.427677 332:0.382005 333:0.141211 334:0.241007 335:0.599152 336:0.167125 337:0.092166 338:0.599797 339:0.227432 340:0.529851 341:0.517647 342:0.547112 343:0.343491 344:0.577632 345:0.091919 346:0.179417 347:0.268518 348:0.327035 349:0.47343 350:0.273178 351:0.612961 352:0.624535 353:0.055556 354:0.339982 355:0.393914 356:0.537454 357:0.264955 358:0.436561 359:0.468569 360:0.260735 361:0.454044 362:0.439178 363:0.494017 364:0.280303 365:0.485612 366:0.468429 367:0.736859 368:0.421795 369:0.235722 370:0.363685 371:0.509296 372:0.41844 373:0.406769 374:0.677042 375:0.330297 376:0.297297 377:0.214286 378:0.28466 379:0.674172 380:0.392649 381:0.044859 382:0.10156 383:0.506343 384:0.497278 
0.10617876791985593 0.0 0.008010305604962627 0.0 0.06629688519963657 0.0 1:0.366345 2:0.046623 3:0.3687 4:0.162996 5:0.549451 6:0.369106 7:0.465185 8:0.470319 9:0.123264 10:0.405172 11:1.065097 12:0.172907 13:0.288139 14:0.401066 15:0.452792 16:0.662037 17:0.617647 18:0.279031 19:0.610938 20:0.169606 21:0.264912 22:0.386026 23:0.532746 24:0.194825 25:0.483105 26:0.607773 27:0.430532 28:0.652174 29:0.179577 30:0.446917 31:0.611474 32:0.435142 33:0.262674 34:0.358354 35:0.634085 36:0.239686 37:0.6622 38:0.496297 39:0.600532 40:0.715328 41:0.413386 42:0.682419 43:0.607667 44:0.533713 45:0.359413 46:0.470642 47:0.487739 48:0.341516 49:0.209868 50:0.18645 51:0.740864 52:0.784615 53:0.222656 54:0.242854 55:0.686312 56:0.257932 57:0.698361 58:0.706694 59:0.41574 60:0.110093 61:0.680883 62:0.617787 63:0.573777 64:0.416084 65:0.209205 66:0.752621 67:0.610712 68:0.536761 69:0.239238 70:0.441249 71:0.622377 72:0.33913 73:0.242817 74:0.129799 75:0.5661 76:0.559859 77:0.507614 78:0.34792 79:0.420937 80:0.507455 81:0.700811 82:0.727075 83:0.216854 84:0.503894 85:0.276397 86:0.729965 87:0.190408 88:0.552448 89:0.638211 90:0.524484 91:0.528676 92:0.593207 93:0.209907 94:0.298483 95:0.510547 96:0.112834 97:0.313774 98:0.711048 99:0.188861 100:0.447099 101:0.193277 102:0.554746 103:0.743907 104:0.291624 105:0.095374 106:0.17582 107:0.329264 108:0.195831 109:0.207412 110:0.326205 111:0.380824 112:0.553633 113:0.375527 114:0.328963 115:0.562482 116:0.354642 117:0.134875 118:0.222374 119:0.215406 120:0.548571 121:0.492782 122:0.524283 123:0.511031 124:0.377163 125:0.680608 126:0.665234 127:0.550937 128:0.684443 129:0.423164 130:0.562512 131:0.434098 132:0.295828 133:0.360965 134:0.606949 135:0.334861 136:0.0 137:0.226721 138:0.420821 139:0.353342 140:0.569085 141:0.185782 142:0.324132 143:0.493056 144:0.188762 145:0.301182 146:0.798223 147:0.236559 148:0.292419 149:0.369478 150:0.626641 151:0.487812 152:0.515464 153:0.143009 154:0.244564 155:0.425667 156:0.144852 157:0.857844 158:0.464789 159:0.855607 160:0.084677 161:0.738182 162:0.615051 163:0.285875 164:0.820106 165:0.416161 166:0.73889 167:0.375084 168:0.213598 169:0.52904 170:0.602705 171:0.474625 172:0.327465 173:0.542553 174:0.346578 175:0.280836 176:0.565784 177:0.631418 178:0.664934 179:0.69564 180:0.042483 181:0.647112 182:0.0 183:0.647112 184:0.295533 185:0.0 186:0.333917 187:0.245107 188:0.566315 189:0.341815 190:0.462555 191:0.556367 192:0.098392 193:0.345549 194:0.864695 195:0.233947 196:0.148305 197:0.093333 198:0.679123 199:0.761833 200:0.416717 201:0.06643 202:0.250561 203:0.906067 204:0.15144 205:0.539549 206:0.645547 207:0.46738 208:0.723214 209:0.511278 210:0.433881 211:0.55733 212:0.495239 213:0.349355 214:0.463141 215:0.584446 216:0.235381 217:0.498386 218:0.622331 219:0.460939 220:0.480144 221:0.639098 222:0.599362 223:0.318772 224:0.70317 225:0.343506 226:0.47844 227:0.437859 228:0.231976 229:0.429418 230:0.690664 231:0.426793 232:0.714829 233:0.743396 234:0.74695 235:0.26851 236:0.738883 237:0.395369 238:0.510811 239:0.486739 240:0.171594 241:0.737195 242:0.548153 243:0.663178 244:0.672414 245:0.125984 246:0.623426 247:0.561361 248:0.391543 249:0.609348 250:0.712646 251:0.669547 252:0.248886 253:0.336209 254:0.729078 255:0.308923 256:0.245421 257:0.115538 258:0.649952 259:0.208597 260:0.788251 261:0.40043 262:0.50136 263:0.458333 264:0.164894 265:0.647192 266:0.695387 267:0.491894 268:0.519841 269:0.11811 270:0.71878 271:0.444305 272:0.536067 273:0.491252 274:0.595289 275:0.61631 276:0.220813 277:0.289408 278:0.585748 279:0.440386 280:0.70412 281:0.271318 282:0.517458 283:0.35534 284:0.527288 285:0.354578 286:0.435932 287:0.529609 288:0.168858 289:0.248066 290:0.700275 291:0.351234 292:0.348921 293:0.319231 294:0.740532 295:0.298745 296:0.618675 297:0.381726 298:0.499638 299:0.48838 300:0.128893 301:0.543632 302:0.726088 303:0.441858 304:0.680147 305:0.494208 306:0.591275 307:0.286834 308:0.618831 309:0.220041 310:0.32789 311:0.6455 312:0.352181 313:0.448301 314:0.556701 315:0.488966 316:0.722433 317:0.701195 318:0.398288 319:0.385443 320:0.628773 321:0.387005 322:0.514542 323:0.546118 324:0.2831 325:0.177261 326:0.659572 327:0.24034 328:0.475836 329:0.691057 330:0.446543 331:0.551146 332:0.23681 333:0.180239 334:0.298201 335:0.360167 336:0.183626 337:0.390985 338:0.627861 339:0.390614 340:0.283582 341:0.521569 342:0.55043 343:0.387546 344:0.519917 345:0.14285 346:0.256975 347:0.618976 348:0.328008 349:0.532367 350:0.174885 351:0.696347 352:0.598513 353:0.09127 354:0.406487 355:0.352605 356:0.616666 357:0.376954 358:0.54914 359:0.440788 360:0.241429 361:0.416567 362:0.594966 363:0.391721 364:0.299242 365:0.489209 366:0.424176 367:0.62947 368:0.551776 369:0.293972 370:0.43587 371:0.568217 372:0.193178 373:0.615965 374:0.60315 375:0.471474 376:0.316602 377:0.24812 378:0.28466 379:0.627214 380:0.451894 381:0.152722 382:0.27896 383:0.531849 384:0.235404 
0.0 0.0 0.06922281819303633 0.0 0.0 0.1034067499732008 1:0.084003 2:0.00828 3:0.08459 4:0.088106 5:0.388278 6:0.122677 7:0.677603 8:0.103744 9:0.014642 10:0.099635 11:0.466328 12:0.081623 13:0.689181 14:0.632407 15:0.581198 16:0.328704 17:0.036765 18:0.709793 19:0.698785 20:0.526895 21:0.215207 22:0.337238 23:0.285365 24:0.659223 25:0.397257 26:0.439346 27:0.536944 28:0.233202 29:0.450704 30:0.290001 31:0.413354 32:0.490337 33:0.389896 34:0.517733 35:0.562025 36:0.131639 37:0.2141 38:0.236276 39:0.444294 40:0.565693 41:0.444882 42:0.174007 43:0.428629 44:0.268291 45:0.342731 46:0.456372 47:0.516777 48:0.131983 49:0.69067 50:0.650425 51:0.55629 52:0.342308 53:0.226563 54:0.778989 55:0.881383 56:0.519473 57:0.203851 58:0.330671 59:0.426451 60:0.376807 61:0.251129 62:0.339281 63:0.465582 64:0.36014 65:0.552301 66:0.274615 67:0.430031 68:0.437687 69:0.3735 70:0.508073 71:0.397147 72:0.110483 73:0.324924 74:0.644572 75:0.256416 76:0.366197 77:0.279188 78:0.525584 79:0.550587 80:0.454336 81:0.163342 82:0.216082 83:0.512375 84:0.331365 85:0.370624 86:0.620785 87:0.337688 88:0.458042 89:0.292683 90:0.620798 91:0.67899 92:0.519139 93:0.450167 94:0.565456 95:0.433002 96:0.047618 97:0.448492 98:0.611402 99:0.369009 100:0.40273 101:0.117647 102:0.641139 103:0.753998 104:0.363648 105:0.258265 106:0.390172 107:0.314505 108:0.221431 109:0.64481 110:0.419002 111:0.665292 112:0.148789 113:0.202532 114:0.533685 115:0.376037 116:0.640633 117:0.341668 118:0.516529 119:0.403785 120:0.435183 121:0.20641 122:0.697013 123:0.171946 124:0.352941 125:0.330798 126:0.616823 127:0.572566 128:0.578657 129:0.201012 130:0.290768 131:0.473158 132:0.115671 133:0.241207 134:0.485333 135:0.318377 136:0.097222 137:0.218623 138:0.336898 139:0.420393 140:0.389628 141:0.296441 142:0.437027 143:0.618216 144:0.129311 145:0.204854 146:0.64207 147:0.258289 148:0.180505 149:0.313253 150:0.515395 151:0.450193 152:0.495979 153:0.159581 154:0.268096 155:0.258348 156:0.195651 157:0.460687 158:0.0 159:0.472813 160:0.044355 161:0.36 162:0.191982 163:0.43712 164:0.269992 165:0.071489 166:0.230006 167:0.732425 168:0.596764 169:0.695757 170:0.813104 171:0.463982 172:0.264085 173:0.039007 174:0.814022 175:0.534373 176:0.646154 177:0.327095 178:0.358996 179:0.285255 180:0.459023 181:0.889018 182:0.0 183:0.889018 184:0.353952 185:0.0 186:0.72639 187:0.465212 188:0.616543 189:0.289492 190:0.414892 191:0.231914 192:0.251243 193:0.086711 194:0.939282 195:0.071797 196:0.063559 197:0.08 198:0.659239 199:0.821621 200:0.297279 201:0.008473 202:0.083678 203:0.711905 204:0.045245 205:0.367938 206:0.82699 207:0.249646 208:0.017857 209:0.43985 210:0.704586 211:0.329577 212:0.774706 213:0.352858 214:0.476938 215:0.537634 216:0.107946 217:0.453484 218:0.536696 219:0.478288 220:0.3213 221:0.432331 222:0.666165 223:0.553159 224:0.477447 225:0.385451 226:0.523808 227:0.316481 228:0.157346 229:0.397693 230:0.32294 231:0.662203 232:0.326996 233:0.230189 234:0.852994 235:0.701562 236:0.337201 237:0.726193 238:0.816262 239:0.231032 240:0.232272 241:0.387901 242:0.697636 243:0.378333 244:0.110345 245:0.153543 246:0.826956 247:0.451562 248:0.661641 249:0.345414 250:0.466887 251:0.640337 252:0.137675 253:0.500223 254:0.628356 255:0.477659 256:0.549451 257:0.047809 258:0.463323 259:0.469531 260:0.431051 261:0.563796 262:0.65726 263:0.668949 264:0.232575 265:0.228618 266:0.378107 267:0.445884 268:0.380952 269:0.047244 270:0.602783 271:0.420992 272:0.60267 273:0.418604 274:0.521965 275:0.215779 276:0.359177 277:0.600912 278:0.459694 279:0.76398 280:0.438202 281:0.042636 282:0.801247 283:0.378542 284:0.638056 285:0.82927 286:0.839975 287:0.582505 288:0.201811 289:0.429315 290:0.728146 291:0.46813 292:0.413669 293:0.046154 294:0.651816 295:0.287951 296:0.639065 297:0.719408 298:0.795353 299:0.544821 300:0.066847 301:0.596186 302:0.356054 303:0.674553 304:0.143382 305:0.23166 306:0.323085 307:0.120891 308:0.752188 309:0.838608 310:0.887834 311:0.523659 312:0.198225 313:0.266255 314:0.749048 315:0.269677 316:0.212928 317:0.247012 318:0.487247 319:0.509047 320:0.519544 321:0.371121 322:0.499899 323:0.569186 324:0.036661 325:0.340219 326:0.613552 327:0.368357 328:0.078067 329:0.044715 330:0.352831 331:0.521573 332:0.364948 333:0.415328 334:0.549616 335:0.457298 336:0.138812 337:0.252819 338:0.771705 339:0.229135 340:0.16791 341:0.043137 342:0.330009 343:0.439085 344:0.410585 345:0.136469 346:0.24806 347:0.589463 348:0.12082 349:0.136232 350:0.551143 351:0.28723 352:0.02974 353:0.019841 354:0.327069 355:0.524797 356:0.429913 357:0.086303 358:0.199477 359:0.196544 360:0.584729 361:0.476343 362:0.327847 363:0.564685 364:0.05303 365:0.370504 366:0.499259 367:0.359751 368:0.784678 369:0.467309 370:0.618994 371:0.501261 372:0.220114 373:0.781777 374:0.072316 375:0.855477 376:0.420849 377:0.387218 378:0.28466 379:0.276771 380:0.792286 381:0.419775 382:0.580001 383:0.323392 384:0.114329 
0.028818130514745507 0.02200506120734643 0.03739355299980673 0.0 0.019079937039699377 0.07804633558804049 1:0.175416 2:0.004923 3:0.176772 4:0.14978 5:0.56044 6:0.151426 7:0.641553 8:0.150024 9:0.030761 10:0.157103 11:1.376238 12:0.308575 13:0.309155 14:0.541283 15:0.365999 16:0.143519 17:0.084559 18:0.255829 19:0.477943 20:0.402217 21:0.391694 22:0.434557 23:0.538462 24:0.168865 25:0.455024 26:0.585053 27:0.433203 28:0.588933 29:0.109155 30:0.405954 31:0.628665 32:0.388345 33:0.167006 34:0.247092 35:0.671164 36:0.486435 37:0.48662 38:0.337422 39:0.579423 40:0.379562 41:0.322835 42:0.620726 43:0.782593 44:0.278551 45:0.373098 46:0.538387 47:0.332877 48:0.232976 49:0.389098 50:0.709192 51:0.302519 52:0.588462 53:0.25 54:0.652255 55:0.7803 56:0.49784 57:0.095088 58:0.169425 59:0.471066 60:0.302169 61:0.241589 62:0.399628 63:0.419531 64:0.307692 65:0.100418 66:0.334603 67:0.358324 68:0.581109 69:0.516663 70:0.639542 71:0.335288 72:0.041336 73:0.278002 74:0.39718 75:0.400781 76:0.566901 77:0.345178 78:0.472066 79:0.608122 80:0.33701 81:0.480045 82:0.535153 83:0.420345 84:0.2053 85:0.287616 86:0.714558 87:0.209874 88:0.118881 89:0.280488 90:0.639834 91:0.464356 92:0.745295 93:0.142858 94:0.220778 95:0.372083 96:0.379403 97:0.305298 98:0.593409 99:0.289436 100:0.013652 101:0.5 102:0.500032 103:0.586071 104:0.449952 105:0.209825 106:0.36769 107:0.393817 108:0.091631 109:0.620407 110:0.729113 111:0.4217 112:0.311419 113:0.476793 114:0.805686 115:0.46313 116:0.795998 117:0.248229 118:0.386215 119:0.438054 120:0.26264 121:0.332608 122:0.573665 123:0.35597 124:0.564014 125:0.353612 126:0.689782 127:0.574312 128:0.648727 129:0.257316 130:0.360959 131:0.139798 132:0.474406 133:0.32903 134:0.550908 135:0.343783 136:0.5 137:0.271255 138:0.602895 139:0.486229 140:0.569517 141:0.254942 142:0.392419 143:0.282655 144:0.193427 145:0.221179 146:0.595632 147:0.296901 148:0.0 149:0.345382 150:0.366282 151:0.457824 152:0.409716 153:0.337198 154:0.477803 155:0.28624 156:0.03876 157:0.41892 158:0.0 159:0.429947 160:0.084677 161:0.0 162:0.326554 163:0.524655 164:0.256599 165:0.168762 166:0.342325 167:0.269556 168:0.15421 169:0.652655 170:0.696229 171:0.504099 172:0.306338 173:0.088652 174:0.484134 175:0.194963 176:0.751744 177:0.685157 178:0.739177 179:0.627941 180:0.061027 181:0.942849 182:0.0 183:0.942849 184:0.006873 185:0.0 186:0.488672 187:0.214874 188:0.691327 189:0.397697 190:0.520493 191:0.430991 192:0.061034 193:0.126 194:0.857622 195:0.134404 196:0.118644 197:0.137778 198:0.744098 199:0.788466 200:0.347665 201:0.017732 202:0.125211 203:0.610522 204:0.099609 205:0.381143 206:0.322867 207:0.565916 208:0.075893 209:0.387218 210:0.30998 211:0.861815 212:0.049906 213:0.560144 214:0.657733 215:0.318079 216:0.215561 217:0.351724 218:0.743859 219:0.30572 220:0.527076 221:0.571429 222:0.468061 223:0.252326 224:0.739722 225:0.243323 226:0.369868 227:0.399384 228:0.13489 229:0.551775 230:0.79988 231:0.434155 232:0.368821 233:0.29434 234:0.529221 235:0.23282 236:0.721844 237:0.414884 238:0.529345 239:0.678266 240:0.285155 241:0.098087 242:0.579358 243:0.28878 244:0.051724 245:0.031496 246:0.571055 247:0.580297 248:0.410927 249:0.230569 250:0.346855 251:0.321187 252:0.29446 253:0.619484 254:0.78965 255:0.441025 256:0.527473 257:0.095618 258:0.580124 259:0.649989 260:0.256318 261:0.712147 262:0.790582 263:0.711765 264:0.223903 265:0.354974 266:0.48203 267:0.454217 268:0.404762 269:0.307087 270:0.678215 271:0.633469 272:0.353783 273:0.665855 274:0.756708 275:0.310851 276:0.231752 277:0.310641 278:0.644809 279:0.415229 280:0.108614 281:0.48062 282:0.661383 283:0.449058 284:0.50653 285:0.393938 286:0.477575 287:0.443761 288:0.15547 289:0.157205 290:0.780517 291:0.227826 292:0.241007 293:0.476923 294:0.693411 295:0.414746 296:0.509595 297:0.269795 298:0.387612 299:0.387387 300:0.097217 301:0.210224 302:0.419836 303:0.415349 304:0.297794 305:0.482625 306:0.698098 307:0.434269 308:0.501026 309:0.384537 310:0.510347 311:0.352209 312:0.152602 313:0.209853 314:0.720836 315:0.251829 316:0.403042 317:0.494024 318:0.8089 319:0.660446 320:0.428323 321:0.218449 322:0.339131 323:0.356577 324:0.115174 325:0.392546 326:0.476571 327:0.477093 328:0.282528 329:0.276423 330:0.744663 331:0.487922 332:0.515284 333:0.391432 334:0.526278 335:0.337226 336:0.258782 337:0.189751 338:0.773323 339:0.190557 340:0.529851 341:0.509804 342:0.490761 343:0.738232 344:0.116415 345:0.099044 346:0.200562 347:0.653307 348:0.149341 349:0.403221 350:0.602843 351:0.400506 352:0.033457 353:0.06746 354:0.62769 355:0.138869 356:0.901245 357:0.217466 358:0.385266 359:0.608399 360:0.099251 361:0.436193 362:0.356039 363:0.528038 364:0.102273 365:0.370504 366:0.374061 367:0.841308 368:0.227737 369:0.562795 370:0.681437 371:0.488637 372:0.196841 373:0.94589 374:0.048874 375:0.946336 376:0.003861 377:0.007519 378:0.70681 379:0.875247 380:0.246467 381:0.549461 382:0.682864 383:0.388682 384:0.119882 
0.0 0.0 0.09368197893309171 0.0 0.007674263901102553 0.0 1:0.764836 2:0.046351 3:0.770362 4:0.110132 5:0.47619 6:0.692429 7:0.180149 8:0.889475 9:0.647277 10:0.883514 11:1.354584 12:0.20929 13:0.517548 14:0.5575 15:0.508649 16:0.185185 17:0.018382 18:0.453781 19:0.602503 20:0.367414 21:0.328024 22:0.431762 23:0.64213 24:0.131841 25:0.321404 26:0.358893 27:0.563099 28:0.213439 29:0.366197 30:0.517633 31:0.819594 32:0.262137 33:0.482049 34:0.630662 35:0.243354 36:0.225082 37:0.637979 38:0.765292 39:0.392873 40:0.576642 41:0.334646 42:0.936432 43:0.778679 44:0.548889 45:0.183599 46:0.361087 47:0.405094 48:0.185846 49:0.214262 50:0.265513 51:0.660128 52:0.034615 53:0.597656 54:0.215005 55:0.60137 56:0.319797 57:0.625332 58:0.663213 59:0.439128 60:0.11819 61:0.611255 62:0.680056 63:0.485791 64:0.321678 65:0.125523 66:0.644048 67:0.596915 68:0.497412 69:0.223258 70:0.402346 71:0.560159 72:0.326 73:0.30949 74:0.316821 75:0.475633 76:0.457746 77:0.375635 78:0.391634 79:0.447628 80:0.48782 81:0.437555 82:0.506211 83:0.273249 84:0.423515 85:0.520646 86:0.508866 87:0.522545 88:0.0 89:0.585366 90:0.340144 91:0.32548 92:0.669915 93:0.330715 94:0.513217 95:0.579251 96:0.290202 97:0.565084 98:0.766818 99:0.306665 100:0.348123 101:0.521008 102:0.626342 103:0.616446 104:0.542561 105:0.18084 106:0.32618 107:0.60104 108:0.26988 109:0.251646 110:0.48187 111:0.30394 112:0.425606 113:0.054852 114:0.272068 115:0.625376 116:0.249959 117:0.24779 118:0.358963 119:0.479563 120:0.217492 121:0.379401 122:0.284447 123:0.602564 124:0.287197 125:0.703422 126:0.726327 127:0.541519 128:0.735049 129:0.4035 130:0.540869 131:0.164533 132:0.598422 133:0.123774 134:0.508702 135:0.22177 136:0.0 137:0.57085 138:0.191086 139:0.366033 140:0.32664 141:0.20243 142:0.338406 143:0.604142 144:0.081147 145:0.286194 146:0.825801 147:0.209845 148:0.299639 149:0.738956 150:0.622484 151:0.564605 152:0.427367 153:0.089452 154:0.182939 155:0.516054 156:0.251151 157:0.844655 158:0.422535 159:0.844326 160:0.072581 161:0.4 162:0.398178 163:0.326223 164:0.588693 165:0.269464 166:0.564402 167:0.5691 168:0.422988 169:0.542357 170:0.480912 171:0.556662 172:0.390845 173:0.464539 174:0.435933 175:0.319342 176:0.577636 177:0.572471 178:0.594573 179:0.632418 180:0.094683 181:0.454596 182:0.0 183:0.454596 184:0.209622 185:0.0 186:0.34824 187:0.189556 188:0.634768 189:0.296499 190:0.432958 191:0.499056 192:0.032073 193:0.778433 194:0.590639 195:0.58578 196:0.097458 197:0.142222 198:0.698199 199:0.578366 200:0.642745 201:0.360735 202:0.596288 203:0.824218 204:0.150711 205:0.184501 206:0.639783 207:0.249812 208:0.049107 209:0.417293 210:0.500196 211:0.605734 212:0.43184 213:0.225685 214:0.323869 215:0.386579 216:0.080602 217:0.64267 218:0.317071 219:0.711708 220:0.386282 221:0.075188 222:0.564004 223:0.326993 224:0.682709 225:0.444679 226:0.57622 227:0.481731 228:0.370669 229:0.294145 230:0.80214 231:0.256281 232:0.258555 233:0.007547 234:0.639396 235:0.211513 236:0.783443 237:0.251388 238:0.357707 239:0.488852 240:0.11112 241:0.44236 242:0.417496 243:0.578331 244:0.582759 245:0.082677 246:0.540304 247:0.64847 248:0.263478 249:0.728017 250:0.810622 251:0.563948 252:0.164592 253:0.295967 254:0.587603 255:0.380421 256:0.172161 257:0.406375 258:0.610076 259:0.331251 260:0.609185 261:0.309034 262:0.410577 263:0.393758 264:0.276635 265:0.317608 266:0.590799 267:0.35658 268:0.722222 269:0.26378 270:0.593112 271:0.381915 272:0.611126 273:0.541918 274:0.63726 275:0.406888 276:0.101871 277:0.253435 278:0.552168 279:0.436612 280:0.086142 281:0.507752 282:0.225746 283:0.437899 284:0.352462 285:0.543348 286:0.615736 287:0.416807 288:0.095769 289:0.50863 290:0.552758 291:0.648318 292:0.205036 293:0.238462 294:0.73012 295:0.27453 296:0.660543 297:0.535689 298:0.642528 299:0.416461 300:0.285692 301:0.352089 302:0.651092 303:0.371484 304:0.4375 305:0.698842 306:0.377378 307:0.247832 308:0.616243 309:0.301411 310:0.420116 311:0.531846 312:0.150429 313:0.325582 314:0.580803 315:0.401362 316:0.21673 317:0.422311 318:0.130711 319:0.157304 320:0.8544 321:0.345577 322:0.479526 323:0.54238 324:0.17809 325:0.140047 326:0.8121 327:0.132511 328:0.442379 329:0.573171 330:0.449424 331:0.539479 332:0.299433 333:0.150819 334:0.257014 335:0.403137 336:0.097757 337:0.161084 338:0.841901 339:0.135804 340:0.291045 341:0.003922 342:0.364729 343:0.217988 344:0.689859 345:0.073954 346:0.149226 347:0.574177 348:0.077766 349:0.469887 350:0.16914 351:0.666457 352:0.003717 353:0.047619 354:0.496656 355:0.307209 356:0.698488 357:0.325208 358:0.499348 359:0.419684 360:0.30098 361:0.557175 362:0.351378 363:0.59624 364:0.223485 365:0.399281 366:0.504685 367:0.648127 368:0.522729 369:0.444544 370:0.58276 371:0.529088 372:0.260171 373:0.460237 374:0.557639 375:0.424295 376:0.23166 377:0.176692 378:0.341901 379:0.630944 380:0.444312 381:0.174649 382:0.308018 383:0.410549 384:0.167744 
0.0 0.0 0.0 0.018732952691013723 0.0 0.0 1:0.285327 2:0.04653 3:0.287039 4:0.22467 5:0.70696 6:0.42733 7:0.512712 8:0.463904 9:0.131692 10:0.386852 11:0.64731 12:0.063597 13:0.334633 14:0.179383 15:0.649111 16:0.435185 17:0.75 18:0.10025 19:0.364279 20:0.429493 21:0.545467 22:0.585476 23:0.612572 24:0.109174 25:0.458856 26:0.465647 27:0.554452 28:0.620553 29:0.464789 30:0.491365 31:0.668077 32:0.399461 33:0.441131 34:0.539551 35:0.339241 36:0.17543 37:0.744263 38:0.304424 39:0.797701 40:0.208029 41:0.417323 42:0.592834 43:0.492588 44:0.631718 45:0.493504 46:0.5945 47:0.443286 48:0.391249 49:0.141213 50:0.34305 51:0.531781 52:0.569231 53:0.140625 54:0.317089 55:0.803992 56:0.184297 57:0.52427 58:0.601431 59:0.415802 60:0.118151 61:0.6463 62:0.708795 63:0.49066 64:0.625874 65:0.200837 66:0.766689 67:0.667186 68:0.441297 69:0.188573 70:0.437987 71:0.531995 72:0.260958 73:0.22588 74:0.251873 75:0.470878 76:0.524648 77:0.51269 78:0.510733 79:0.473697 80:0.561251 81:0.488064 82:0.543214 83:0.207394 84:0.471187 85:0.278724 86:0.694165 87:0.220584 88:0.531469 89:0.426829 90:0.427634 91:0.591648 92:0.428411 93:0.278637 94:0.379011 95:0.517999 96:0.060642 97:0.295267 98:0.706101 99:0.180944 100:0.631399 101:0.5 102:0.685588 103:0.755231 104:0.384605 105:0.112198 106:0.204494 107:0.33506 108:0.247865 109:0.322671 110:0.3877 111:0.42903 112:0.650519 113:0.367089 114:0.380052 115:0.756296 116:0.199124 117:0.211907 118:0.375654 119:0.303937 120:0.294619 121:0.604289 122:0.725845 123:0.446143 124:0.425606 125:0.51711 126:0.779937 127:0.609538 128:0.720893 129:0.323335 130:0.432187 131:0.610251 132:0.369177 133:0.21721 134:0.335247 135:0.385982 136:0.357639 137:0.48583 138:0.451848 139:0.533772 140:0.347678 141:0.279116 142:0.430932 143:0.314433 144:0.13499 145:0.300597 146:0.676177 147:0.306946 148:0.480144 149:0.369478 150:0.513547 151:0.523881 152:0.407512 153:0.095304 154:0.179322 155:0.309367 156:0.300295 157:0.847586 158:0.422535 159:0.847334 160:0.096774 161:0.541818 162:0.805589 163:0.506214 164:0.602555 165:0.671674 166:0.804594 167:0.146643 168:0.067938 169:0.59448 170:0.69904 171:0.462225 172:0.278169 173:0.535461 174:0.29513 175:0.15355 176:0.718386 177:0.630185 178:0.743592 179:0.750254 180:0.014063 181:0.512852 182:0.0 183:0.512852 184:0.28866 185:0.0 186:0.327288 187:0.207849 188:0.61634 189:0.31163 190:0.447999 191:0.544565 192:0.070359 193:0.321922 194:0.765188 195:0.276572 196:0.131356 197:0.084444 198:0.694283 199:0.756843 200:0.431488 201:0.068504 202:0.254738 203:0.67867 204:0.093453 205:0.508037 206:0.484435 207:0.546206 208:0.732143 209:0.733083 210:0.325947 211:0.520424 212:0.518674 213:0.432815 214:0.548099 215:0.419628 216:0.208448 217:0.485306 218:0.343978 219:0.599812 220:0.483755 221:0.646617 222:0.511921 223:0.373706 224:0.595024 225:0.467961 226:0.597774 227:0.320553 228:0.276402 229:0.489604 230:0.777634 231:0.407166 232:0.486692 233:0.381132 234:0.753742 235:0.269855 236:0.737089 237:0.297905 238:0.410298 239:0.624579 240:0.301033 241:0.312979 242:0.399467 243:0.517286 244:0.627586 245:0.114173 246:0.500185 247:0.46139 248:0.504804 249:0.446818 250:0.566387 251:0.393415 252:0.355446 253:0.534022 254:0.478654 255:0.600029 256:0.637363 257:0.517928 258:0.652923 259:0.262069 260:0.708122 261:0.390558 262:0.492266 263:0.416591 264:0.55933 265:0.451864 266:0.570467 267:0.454637 268:0.515873 269:0.677165 270:0.641019 271:0.433775 272:0.516755 273:0.546098 274:0.644795 275:0.503311 276:0.242575 277:0.176626 278:0.726396 279:0.25692 280:0.367041 281:0.25969 282:0.575579 283:0.360357 284:0.529912 285:0.141109 286:0.198963 287:0.516833 288:0.16837 289:0.223081 290:0.636547 291:0.376313 292:0.625899 293:0.507692 294:0.644784 295:0.26096 296:0.635565 297:0.275593 298:0.385216 299:0.508409 300:0.193728 301:0.06756 302:0.668638 303:0.196501 304:0.544118 305:0.312741 306:0.63054 307:0.322862 308:0.570889 309:0.105153 310:0.17745 311:0.376243 312:0.176134 313:0.371939 314:0.722367 315:0.348501 316:0.114068 317:0.517928 318:0.478213 319:0.339138 320:0.71803 321:0.186551 322:0.292089 323:0.512688 324:0.341771 325:0.394389 326:0.764811 327:0.318737 328:0.475836 329:0.699187 330:0.474511 331:0.406584 332:0.435586 333:0.254754 334:0.382241 335:0.643166 336:0.223914 337:0.310106 338:0.629066 339:0.341619 340:0.369403 341:0.52549 342:0.555422 343:0.35509 344:0.568243 345:0.098004 346:0.189321 347:0.524106 348:0.378576 349:0.605475 350:0.249881 351:0.694988 352:0.561338 353:0.079365 354:0.509532 355:0.473822 356:0.488095 357:0.434744 358:0.602846 359:0.48707 360:0.195922 361:0.529989 362:0.435935 363:0.536997 364:0.287879 365:0.489209 366:0.447438 367:0.67687 368:0.496656 369:0.26976 370:0.406044 371:0.56443 372:0.427218 373:0.431867 374:0.673071 375:0.344415 376:0.301158 377:0.661654 378:0.28466 379:0.637302 380:0.442398 381:0.099509 382:0.199835 383:0.504868 384:0.249887 
0.0 0.17847340047699597 0.0 0.0 0.0 0.0 1:0.094841 2:0.023131 3:0.095329 4:0.088106 5:0.505495 6:0.10977 7:0.646293 8:0.114685 9:0.011547 10:0.096898 11:0.96379 12:0.145815 13:0.436432 14:0.576046 15:0.434975 16:0.194444 17:0.029412 18:0.366076 19:0.561042 20:0.414297 21:0.392399 22:0.454205 23:0.474544 24:0.19332 25:0.241814 26:0.328294 27:0.53712 28:0.332016 29:0.411972 30:0.208502 31:0.265524 32:0.536208 33:0.281906 34:0.480191 35:0.476246 36:0.246919 37:0.529929 38:0.244742 39:0.67744 40:0.313869 41:0.255906 42:0.384 43:0.588999 44:0.291668 45:0.441912 46:0.545393 47:0.507236 48:0.205254 49:0.554379 50:0.644813 51:0.47559 52:0.303846 53:0.214844 54:0.667282 55:0.79524 56:0.507766 57:0.150235 58:0.240395 59:0.485937 60:0.42539 61:0.371045 62:0.432602 63:0.485532 64:0.237762 65:0.041841 66:0.337048 67:0.57197 68:0.33231 69:0.327936 70:0.483784 71:0.384388 72:0.160093 73:0.359584 74:0.736689 75:0.212947 76:0.306338 77:0.243655 78:0.674974 79:0.641236 80:0.480464 81:0.179971 82:0.253203 83:0.532705 84:0.158575 85:0.496495 86:0.821665 87:0.256465 88:0.356643 89:0.117886 90:0.725215 91:0.871582 92:0.444717 93:0.343424 94:0.521306 95:0.527203 96:0.007189 97:0.464083 98:0.743963 99:0.259718 100:0.491468 101:0.273109 102:0.680135 103:0.792014 104:0.358035 105:0.191486 106:0.316628 107:0.417475 108:0.142667 109:0.210471 110:0.236094 111:0.448365 112:0.321799 113:0.185654 114:0.361549 115:0.514663 116:0.399903 117:0.386181 118:0.510188 119:0.341868 120:0.270226 121:0.288237 122:0.656607 123:0.262279 124:0.491349 125:0.281369 126:0.687749 127:0.446712 128:0.74045 129:0.308971 130:0.467616 131:0.359608 132:0.14254 133:0.296191 134:0.543155 135:0.324826 136:0.166667 137:0.032389 138:0.468616 139:0.552468 140:0.386854 141:0.23296 142:0.374769 143:0.486144 144:0.122883 145:0.177717 146:0.599453 147:0.263614 148:0.519856 149:0.164659 150:0.362552 151:0.655238 152:0.235157 153:0.208524 154:0.3693 155:0.342365 156:0.079171 157:0.403532 158:0.0 159:0.414154 160:0.012097 161:0.512727 162:0.308002 163:0.527557 164:0.231274 165:0.096581 166:0.234338 167:0.291857 168:0.183312 169:0.699417 170:0.821968 171:0.461209 172:0.292254 173:0.351064 174:0.548372 175:0.262831 176:0.715059 177:0.665007 178:0.695237 179:0.575928 180:0.060635 181:0.425276 182:0.0 183:0.425276 184:0.271478 185:0.0 186:0.503519 187:0.279617 188:0.628773 189:0.422912 190:0.532619 191:0.394413 192:0.019981 193:0.087369 194:0.920175 195:0.082428 196:0.457627 197:0.075556 198:0.645663 199:0.821209 200:0.290395 201:0.008473 202:0.083592 203:0.702673 204:0.078401 205:0.40508 206:0.224729 207:0.640789 208:0.428571 209:0.315789 210:0.53314 211:0.345694 212:0.666172 213:0.645368 214:0.73712 215:0.287958 216:0.298585 217:0.46284 218:0.71451 219:0.390196 220:0.288809 221:0.045113 222:0.312663 223:0.423441 224:0.516026 225:0.390371 226:0.52566 227:0.504147 228:0.160938 229:0.577619 230:0.471027 231:0.681779 232:0.509506 233:0.218868 234:0.781784 235:0.522518 236:0.524881 237:1.0 238:1.0 239:0.488129 240:0.154659 241:0.432857 242:0.763877 243:0.363211 244:0.103448 245:0.314961 246:0.744691 247:0.419941 248:0.672858 249:0.376377 250:0.497679 251:0.769425 252:0.145895 253:0.525044 254:0.739211 255:0.417532 256:0.21978 257:0.043825 258:0.488992 259:0.522389 260:0.408371 261:0.646171 262:0.727743 263:0.638902 264:0.161262 265:0.547662 266:0.305508 267:0.695469 268:0.329365 269:0.043307 270:0.550757 271:0.501303 272:0.50938 273:0.627623 274:0.714818 275:0.359368 276:0.351348 277:0.366929 278:0.399192 279:0.62922 280:0.052434 281:0.399225 282:0.956029 283:0.471174 284:0.599439 285:0.590221 286:0.653921 287:0.379546 288:0.317933 289:0.50517 290:0.655093 291:0.575328 292:0.381295 293:0.038462 294:0.820876 295:0.550295 296:0.451856 297:0.703695 298:0.796889 299:0.450709 300:0.096688 301:0.404706 302:0.473214 303:0.499242 304:0.227941 305:0.397683 306:0.625655 307:0.586679 308:0.347547 309:0.482225 310:0.607582 311:0.472202 312:0.142953 313:0.278522 314:0.514237 315:0.411015 316:0.524715 317:0.231076 318:0.720296 319:0.680956 320:0.420202 321:0.392452 322:0.525708 323:0.366526 324:0.174862 325:0.213132 326:0.616303 327:0.28686 328:0.163569 329:0.199187 330:0.677968 331:0.847136 332:0.192699 333:0.419038 334:0.561463 335:0.420666 336:0.072089 337:0.182658 338:0.795224 339:0.174303 340:0.507463 341:0.043137 342:0.661991 343:0.846772 344:0.138147 345:0.103589 346:0.209566 347:0.582314 348:0.135899 349:0.32657 350:0.803897 351:0.253095 352:0.319703 353:0.015873 354:0.358768 355:0.369247 356:0.589248 357:0.141133 358:0.282499 359:0.673097 360:0.055292 361:0.322293 362:0.200967 363:0.547687 364:0.05303 365:0.302158 366:0.534063 367:0.410807 368:0.707669 369:0.587102 370:0.714435 371:0.229041 372:0.211877 373:0.392043 374:0.506558 375:0.421583 376:0.413127 377:0.112782 378:0.28466 379:0.3475 380:0.676662 381:0.263962 382:0.421312 383:0.350516 384:0.103897 
0.0 0.0 0.0 0.006046025306517145 0.007703214949365045 0.0 1:0.084802 2:0.004854 3:0.085438 4:0.114537 5:0.010989 6:0.113286 7:0.681517 8:0.093876 9:0.010955 10:0.084184 11:0.539238 12:0.103221 13:0.652907 14:0.585269 15:0.588721 16:0.486111 17:0.036765 18:0.482345 19:0.715339 20:0.327586 21:0.32903 22:0.467223 23:0.543214 24:0.236619 25:0.318829 26:0.603848 27:0.318109 28:0.367589 29:0.084507 30:0.450583 31:0.674286 32:0.388419 33:0.139502 34:0.217144 35:0.549658 36:0.320739 37:0.20251 38:0.446825 39:0.287333 40:0.0 41:0.291339 42:0.346568 43:0.413787 44:0.451658 45:0.148444 46:0.228322 47:0.440814 48:0.274786 49:0.391605 50:0.497828 51:0.527415 52:0.342308 53:0.222656 54:0.574987 55:0.690613 56:0.513666 57:0.279122 58:0.369335 59:0.392586 60:0.269959 61:0.311249 62:0.471122 63:0.419782 64:0.262238 65:0.058577 66:0.457696 67:0.430794 68:0.598875 69:0.391091 70:0.525188 71:0.339189 72:0.111394 73:0.258314 74:0.676739 75:0.194141 76:0.348592 77:0.263959 78:0.410624 79:0.632777 80:0.266377 81:0.303576 82:0.380391 83:0.617134 84:0.077933 85:0.251353 86:0.73606 87:0.16964 88:0.22028 89:0.52439 90:0.452955 91:0.22936 92:0.791436 93:0.167885 94:0.35536 95:0.568508 96:0.049692 97:0.49293 98:0.629171 99:0.382698 100:0.293515 101:0.147059 102:0.499845 103:0.5322 104:0.495387 105:0.213373 106:0.393232 107:0.553113 108:0.105137 109:0.507639 110:0.425028 111:0.550709 112:0.17301 113:0.527426 114:0.667743 115:0.0 116:1.0 117:0.284567 118:0.741124 119:0.244675 120:0.203945 121:0.255568 122:0.697926 123:0.207763 124:0.186851 125:0.239544 126:0.707176 127:0.718566 128:0.532292 129:0.26806 130:0.355303 131:0.218978 132:0.21796 133:0.256895 134:0.593685 135:0.26841 136:0.489583 137:0.299595 138:0.566489 139:0.476838 140:0.548473 141:0.326607 142:0.468767 143:0.390316 144:0.087045 145:0.171425 146:0.221639 147:0.478305 148:0.0 149:0.48996 150:0.177494 151:0.19794 152:0.53848 153:0.303256 154:0.517055 155:0.294141 156:0.129865 157:0.472411 158:0.0 159:0.484846 160:0.447581 161:0.0 162:0.297456 163:0.52382 164:0.231274 165:0.141021 166:0.303215 167:0.376446 168:0.230245 169:0.663303 170:0.714735 171:0.500388 172:0.278169 173:0.010638 174:0.635308 175:0.5089 176:0.534944 177:0.686534 178:0.733088 179:0.448928 180:0.155317 181:0.629999 182:0.0 183:0.629999 184:0.4811 185:0.0 186:0.628968 187:0.516086 188:0.499912 189:0.339497 190:0.482469 191:0.288203 192:0.110531 193:0.061042 194:0.936309 195:0.061318 196:0.114407 197:0.102222 198:0.751453 199:0.796592 200:0.328381 201:0.007696 202:0.079817 203:0.592657 204:0.026299 205:0.588443 206:0.584643 207:0.535042 208:0.049107 209:0.342105 210:0.650071 211:1.0 212:0.044921 213:0.565755 214:0.666511 215:0.514097 216:0.190836 217:0.367766 218:0.546044 219:0.420141 220:0.3213 221:0.075188 222:0.847738 223:0.437083 224:0.661894 225:0.213441 226:0.33513 227:0.340676 228:0.300724 229:0.248257 230:0.791064 231:0.232625 232:0.212928 233:0.079245 234:0.486031 235:0.586735 236:0.352768 237:0.300935 238:0.427423 239:0.534824 240:0.105235 241:0.302265 242:0.568098 243:0.409172 244:0.286207 245:0.440945 246:0.701045 247:0.750324 248:0.286752 249:0.430761 250:0.565047 251:0.470105 252:0.193699 253:0.64821 254:0.741245 255:0.491478 256:0.241758 257:0.075697 258:0.612152 259:0.621821 260:0.34541 261:0.517357 262:0.624139 263:0.678696 264:0.30722 265:0.466362 266:0.65643 267:0.405082 268:0.357143 269:0.259843 270:0.360656 271:0.442196 272:0.50051 273:0.452897 274:0.555643 275:0.499582 276:0.216147 277:0.269672 278:0.630303 279:0.394364 280:0.086142 281:0.263566 282:0.281083 283:0.142835 284:0.748656 285:0.30863 286:0.384878 287:0.424075 288:0.25189 289:0.201587 290:0.585957 291:0.394976 292:0.233813 293:0.338462 294:0.524 295:0.346253 296:0.540999 297:0.356775 298:0.474459 299:0.328169 300:0.214516 301:0.596544 302:0.419161 303:0.640287 304:0.536765 305:0.320463 306:0.382301 307:0.364224 308:0.50152 309:0.528591 310:0.642177 311:0.554051 312:0.211967 313:0.270825 314:0.706758 315:0.296553 316:0.365019 317:0.227092 318:0.352225 319:0.403162 320:0.597059 321:0.310454 322:0.435899 323:0.409174 324:0.126212 325:0.174417 326:0.548837 327:0.299833 328:0.182156 329:0.073171 330:0.40205 331:0.314434 332:0.596506 333:0.357592 334:0.489923 335:0.216889 336:0.232805 337:0.187062 338:0.782715 339:0.183797 340:0.19403 341:0.109804 342:0.33639 343:0.676799 344:0.166481 345:0.173534 346:0.303292 347:0.58603 348:0.061801 349:0.588406 350:0.471041 351:0.568296 352:0.401487 353:0.412698 354:0.639568 355:0.123378 356:0.899867 357:0.373714 358:0.548559 359:0.620218 360:0.073698 361:0.589118 362:0.477305 363:0.547376 364:0.42803 365:0.327338 366:0.557924 367:0.663439 368:0.467365 369:0.387768 370:0.526554 371:0.74504 372:0.415185 373:0.370154 374:0.563492 375:0.378462 376:0.440154 377:0.541353 378:0.516342 379:0.506791 380:0.594604 381:0.184123 382:0.322093 383:0.378616 384:0.144196 
0.0826476585205509 0.0 0.024026329266470192 0.07008149343588105 0.06727741999864253 0.019824443902831237 1:0.119608 2:0.002242 3:0.120553 4:0.057269 5:0.3663 6:0.099115 7:0.61562 8:0.135361 9:0.015752 10:0.126586 11:1.45423 12:0.301183 13:0.427255 14:0.59775 15:0.412325 16:0.050926 17:0.029412 18:0.455482 19:0.460898 20:0.600448 21:0.233988 22:0.240515 23:0.517902 24:0.357976 25:0.542917 26:0.582638 27:0.497834 28:0.371542 29:0.066901 30:0.512928 31:0.831799 32:0.291588 33:0.290634 34:0.447931 35:0.659389 36:0.338032 37:0.425217 38:0.433161 39:0.465555 40:0.485401 41:0.259843 42:0.599944 43:0.924272 44:0.10137 45:0.231651 46:0.479709 47:0.394433 48:0.19424 49:0.44407 50:0.843471 51:0.195596 52:0.315385 53:0.207031 54:0.825952 55:0.894802 56:0.54421 57:0.023217 58:0.114197 59:0.404739 60:0.332947 61:0.320893 62:0.498469 63:0.408369 64:0.541958 65:0.062762 66:0.255706 67:0.691849 68:0.094845 69:0.442509 70:0.637741 71:0.500756 72:0.008943 73:0.42942 74:0.565253 75:0.374226 76:0.200704 77:0.243655 78:0.593028 79:0.725453 80:0.301873 81:0.373551 82:0.487149 83:0.52084 84:0.13887 85:0.232509 86:0.707417 87:0.180654 88:0.062937 89:0.211382 90:0.658728 91:0.679348 92:0.550336 93:0.179706 94:0.272296 95:0.337324 96:0.295102 97:0.274641 98:0.425154 99:0.420882 100:0.518771 101:0.432773 102:0.53962 103:0.671508 104:0.374589 105:0.412247 106:0.550374 107:0.223144 108:0.201503 109:0.415468 110:0.509362 111:0.41573 112:0.529412 113:0.181435 114:0.514794 115:0.62422 116:0.444883 117:0.459632 118:0.571798 119:0.417048 120:0.11781 121:0.442665 122:0.655906 123:0.377413 124:0.15917 125:0.304183 126:0.722163 127:0.596813 128:0.653625 129:0.43832 130:0.546994 131:0.407147 132:0.161055 133:0.325482 134:0.639552 135:0.291265 136:0.0 137:0.02834 138:0.600858 139:0.563926 140:0.490435 141:0.180058 142:0.31512 143:0.38047 144:0.151897 145:0.289448 146:0.862045 147:0.191144 148:0.0 149:0.26506 150:0.526989 151:0.549034 152:0.409638 153:0.147188 154:0.258848 155:0.579996 156:0.1613 157:0.415989 158:0.0 159:0.426938 160:0.016129 161:0.494545 162:0.127859 163:0.439305 164:0.230497 165:0.053001 166:0.197197 167:0.824647 168:0.780178 169:0.465061 170:0.78919 171:0.318896 172:0.264085 173:0.393617 174:0.53371 175:0.180029 176:0.800764 177:0.411391 178:0.456314 179:0.548438 180:0.128816 181:0.456977 182:0.0 183:0.456977 184:0.532646 185:0.0 186:0.45826 187:0.098546 188:0.780137 189:0.317533 190:0.482052 191:0.418844 192:0.022358 193:0.135908 194:0.891892 195:0.120557 196:0.055085 197:0.062222 198:0.679445 199:0.832166 200:0.288318 201:0.011968 202:0.100783 203:0.688792 204:0.161765 205:0.315575 206:0.929546 207:0.154371 208:0.004464 209:0.518797 210:0.595803 211:0.395807 212:0.666147 213:0.140707 214:0.227805 215:0.580392 216:0.151262 217:0.424785 218:0.688028 219:0.380557 220:0.296029 221:0.041353 222:0.529909 223:0.383813 224:0.615243 225:0.322655 226:0.457261 227:0.435594 228:0.137189 229:0.442308 230:0.739324 231:0.401589 232:0.296578 233:0.041509 234:0.646798 235:0.244923 236:0.749179 237:0.266695 238:0.37522 239:0.593835 240:0.254318 241:0.136635 242:0.749063 243:0.207415 244:0.444828 245:0.326772 246:0.756266 247:0.3538 248:0.752286 249:0.172382 250:0.269225 251:0.463386 252:0.144047 253:0.52007 254:0.604669 255:0.505889 256:0.487179 257:0.438247 258:0.607829 259:0.833367 260:0.088387 261:0.511439 262:0.639285 263:0.529219 264:0.198683 265:0.331183 266:0.351379 267:0.528432 268:0.321429 269:0.232283 270:0.730498 271:0.662752 272:0.357957 273:0.679098 274:0.76851 275:0.166958 276:0.326949 277:0.286471 278:0.745508 279:0.326669 280:0.048689 281:0.034884 282:0.758345 283:0.379905 284:0.623172 285:0.194583 286:0.261822 287:0.44649 288:0.149317 289:0.175531 290:0.733836 291:0.273694 292:0.176259 293:0.034615 294:0.650517 295:0.45509 296:0.462894 297:0.435808 298:0.560637 299:0.430582 300:0.049139 301:0.436219 302:0.389688 303:0.56319 304:0.224265 305:0.177606 306:0.756499 307:0.50039 308:0.455017 309:0.596377 310:0.704259 311:0.396382 312:0.190811 313:0.331637 314:0.71902 315:0.326155 316:0.148289 317:0.187251 318:0.60319 319:0.654121 320:0.394434 321:0.280884 322:0.409967 323:0.550517 324:0.149224 325:0.232787 326:0.604029 327:0.306021 328:0.070632 329:0.036585 330:0.452522 331:0.682861 332:0.232351 333:0.259586 334:0.393674 335:0.39256 336:0.210389 337:0.15981 338:0.824711 339:0.144473 340:0.406716 341:0.470588 342:0.375591 343:0.651038 344:0.189327 345:0.073966 346:0.155482 347:0.563938 348:0.111426 349:0.486313 350:0.684541 351:0.400845 352:0.003717 353:0.007937 354:0.490282 355:0.350487 356:0.646749 357:0.129773 358:0.265893 359:0.725534 360:0.253843 361:0.478538 362:0.514928 363:0.467493 364:0.424242 365:0.5 366:0.761627 367:0.66426 368:0.539186 369:0.464208 370:0.598517 371:0.526311 372:0.114463 373:1.0 374:0.501877 375:0.710835 376:0.598456 377:0.522556 378:0.78669 379:0.879604 380:0.273896 381:0.362345 382:0.517272 383:0.534107 384:0.161932 
0.0 0.0 0.10383322432980104 0.0 0.0 0.05198186525738362 1:0.109251 2:0.06954 3:0.109277 4:0.339207 5:0.358974 6:0.131148 7:0.680293 8:0.108982 9:0.017669 10:0.109951 11:0.672535 12:0.107864 13:0.576422 14:0.573967 15:0.540272 16:0.087963 17:0.025735 18:0.43029 19:0.410256 20:0.640732 21:0.447452 22:0.485849 23:0.596457 24:0.173645 25:0.196813 26:0.318851 27:0.51463 28:0.249012 29:0.433099 30:0.072012 31:0.327364 32:0.403357 33:0.292407 34:0.477264 35:0.647746 36:0.196264 37:0.246403 38:0.331257 39:0.401901 40:0.591241 41:0.287402 42:0.250046 43:0.574571 44:0.167863 45:0.334318 46:0.437114 47:0.551047 48:0.109728 49:0.720608 50:0.617259 51:0.610359 52:0.346154 53:0.246094 54:0.782862 55:0.823247 56:0.561937 57:0.158709 58:0.263085 59:0.379665 60:0.621749 61:0.173584 62:0.306152 63:0.434824 64:0.01049 65:0.096234 66:0.251352 67:0.568839 68:0.231632 69:0.340185 70:0.501987 71:0.235785 72:0.1707 73:0.270867 74:0.695537 75:0.18855 76:0.0 77:0.28934 78:0.638755 79:0.607821 80:0.475224 81:0.156998 82:0.21985 83:0.489014 84:0.17842 85:0.753138 86:0.52535 87:0.656761 88:0.363636 89:0.243902 90:0.783694 91:0.822849 92:0.504325 93:0.527963 94:0.683453 95:0.331035 96:0.368389 97:0.461372 98:0.73284 99:0.26795 100:0.290102 101:0.142857 102:0.632959 103:0.649629 104:0.486171 105:0.267204 106:0.408183 107:0.491408 108:0.027733 109:0.348769 110:0.70328 111:0.222072 112:0.17301 113:0.219409 114:0.592978 115:0.632081 116:0.499287 117:0.203294 118:0.30704 119:0.430523 120:0.183977 121:0.273116 122:0.534972 123:0.340158 124:0.0 125:0.136882 126:0.625536 127:0.546768 128:0.617538 129:0.398874 130:0.524886 131:0.365319 132:0.132163 133:0.238817 134:0.544309 135:0.283416 136:0.552083 137:0.145749 138:0.482782 139:0.539556 140:0.399439 141:0.240313 142:0.383343 143:0.425496 144:0.166021 145:0.219216 146:0.588509 147:0.299629 148:0.057762 149:0.192771 150:0.54712 151:0.5228 152:0.442301 153:0.202618 154:0.328254 155:0.251306 156:0.102693 157:0.521507 158:0.295775 159:0.519441 160:0.060484 161:0.352727 162:0.31657 163:0.526876 164:0.249168 165:0.130794 166:0.289867 167:0.548879 168:0.422314 169:0.684035 170:0.833398 171:0.443746 172:0.274648 173:0.365248 174:0.502198 175:0.133475 176:0.839463 177:0.684074 178:0.769106 179:0.647379 180:0.03993 181:0.352299 182:0.0 183:0.352299 184:0.127148 185:0.0 186:0.457609 187:0.148847 188:0.73936 189:0.353087 190:0.499655 191:0.423101 192:0.012275 193:0.079163 194:0.894435 195:0.092468 196:0.29661 197:0.328889 198:0.732196 199:0.811692 200:0.321292 201:0.013221 202:0.106724 203:0.549679 204:0.063532 205:0.523721 206:0.670391 207:0.442343 208:0.040179 209:0.364662 210:0.405835 211:0.35259 212:0.667652 213:0.404793 214:0.528282 215:0.537144 216:0.178077 217:0.166661 218:0.613146 219:0.259867 220:0.198556 221:0.067669 222:0.298853 223:0.518187 224:0.388687 225:0.276051 226:0.410135 227:0.263041 228:0.10971 229:0.711587 230:0.602075 231:0.681821 232:0.536122 233:0.422642 234:0.619318 235:0.660894 236:0.271531 237:0.522934 238:0.650168 239:0.637322 240:0.323675 241:0.407339 242:0.912003 243:0.259283 244:0.231034 245:0.181102 246:0.7073 247:0.318916 248:0.781494 249:0.25101 250:0.365189 251:0.775573 252:0.124482 253:0.460189 254:0.796786 255:0.338753 256:0.344322 257:0.330677 258:0.38252 259:0.416488 260:0.441513 261:0.50409 262:0.603087 263:0.652521 264:0.171225 265:0.217066 266:0.685902 267:0.228654 268:0.373016 269:0.066929 270:0.404963 271:0.467279 272:0.460054 273:0.3312 274:0.435782 275:0.371295 276:0.15766 277:0.521215 278:0.730066 279:0.515007 280:0.078652 281:0.271318 282:0.741867 283:0.241165 284:0.77177 285:0.512157 286:0.580284 287:0.708944 288:0.212619 289:0.224128 290:0.754362 291:0.296058 292:0.517986 293:0.415385 294:0.676184 295:0.452883 296:0.458296 297:0.347326 298:0.474661 299:0.503318 300:0.088583 301:0.337545 302:0.679199 303:0.347674 304:0.536765 305:0.332046 306:0.670253 307:0.546001 308:0.353547 309:0.369204 310:0.500483 311:0.615479 312:0.094633 313:0.42866 314:0.777001 315:0.351469 316:0.558935 317:0.219124 318:0.571767 319:0.693916 320:0.325191 321:0.293514 322:0.426783 323:0.728865 324:0.253724 325:0.482038 326:0.676711 327:0.42265 328:0.249071 329:0.256098 330:0.551935 331:0.602437 332:0.323345 333:0.37276 334:0.511094 335:0.598116 336:0.203625 337:0.286703 338:0.672315 339:0.303907 340:0.190299 341:0.066667 342:0.608113 343:0.510466 344:0.431441 345:0.179859 346:0.308545 347:0.530539 348:0.14944 349:0.45314 350:0.455403 351:0.50529 352:0.003717 353:0.035714 354:0.669358 355:0.233703 356:0.820849 357:0.201695 358:0.363865 359:0.509947 360:0.248665 361:0.459421 362:0.64213 363:0.390208 364:0.07197 365:0.345324 366:0.461168 367:0.471324 368:0.678471 369:0.361699 370:0.513191 371:0.570805 372:0.221757 373:0.299834 374:0.524955 375:0.367522 376:0.07722 377:0.139098 378:0.28466 379:0.472488 380:0.590885 381:0.23155 382:0.382015 383:0.277261 384:0.110716 
0.0 0.05863042775219623 0.10705553016834166 0.0 0.0 0.0 1:0.111957 2:0.01542 3:0.112677 4:0.105727 5:0.344322 6:0.134811 7:0.668376 8:0.115092 9:0.020686 10:0.120668 11:0.532602 12:0.080355 13:0.547785 14:0.610252 15:0.492551 16:0.203704 17:0.033088 18:0.559388 19:0.549458 20:0.592253 21:0.360171 22:0.415928 23:0.360509 24:0.375434 25:0.583588 26:0.499177 27:0.609485 28:0.347826 29:0.373239 30:0.327844 31:0.714542 32:0.252316 33:0.415852 34:0.519849 35:0.74742 36:0.376287 37:0.483112 38:0.446995 39:0.499649 40:0.49635 41:0.26378 42:0.536163 43:0.890258 44:0.105417 45:0.271217 46:0.479936 47:0.596531 48:0.196007 49:0.680098 50:0.622088 51:0.579509 52:0.319231 53:0.214844 54:0.724999 55:0.828481 56:0.526487 57:0.187422 58:0.291913 59:0.340119 60:0.513248 61:0.229187 62:0.302264 63:0.475014 64:0.241259 65:0.426778 66:0.040814 67:0.1781 68:0.529499 69:0.530645 70:0.678676 71:0.526108 72:0.049505 73:0.499929 74:0.616821 75:0.38047 76:0.492958 77:0.258883 78:0.624861 79:0.562369 80:0.525083 81:0.291875 82:0.355755 83:0.664218 84:0.204313 85:0.50401 86:0.674853 87:0.378927 88:0.377622 89:0.235772 90:0.552528 91:0.707459 92:0.441805 93:0.229147 94:0.338711 95:0.623149 96:0.389833 97:0.287473 98:0.661487 99:0.216022 100:0.25256 101:0.117647 102:0.612218 103:0.633769 104:0.475612 105:0.260214 106:0.402073 107:0.265101 108:0.110079 109:0.462848 110:0.573606 111:0.407403 112:0.15917 113:0.189873 114:0.592216 115:0.54729 116:0.559441 117:0.223529 118:0.333688 119:0.398609 120:0.335522 121:0.299876 122:0.540912 123:0.355669 124:0.16263 125:0.125475 126:0.677899 127:0.681212 128:0.537337 129:0.328966 130:0.423372 131:0.311708 132:0.251736 133:0.485939 134:0.746371 135:0.345008 136:0.420139 137:0.291498 138:0.63258 139:0.559435 140:0.532009 141:0.283553 142:0.432655 143:0.628569 144:0.180742 145:0.124633 146:0.675557 147:0.181514 148:0.516245 149:0.168675 150:0.411489 151:0.578636 152:0.326398 153:0.154699 154:0.275283 155:0.329661 156:0.108722 157:0.379351 158:0.0 159:0.389336 160:0.052419 161:0.334545 162:0.209897 163:0.411242 164:0.297046 165:0.076089 166:0.245713 167:0.576581 168:0.422423 169:0.679884 170:0.848528 171:0.43183 172:0.242958 173:0.007092 174:0.738092 175:0.381139 176:0.751216 177:0.60839 178:0.630274 179:0.420337 180:0.207954 181:0.883126 182:0.0 183:0.883126 184:0.43299 185:0.0 186:0.64947 187:0.370795 188:0.654829 189:0.396593 190:0.506615 191:0.3247 192:0.151622 193:0.089879 194:0.901537 195:0.093677 196:0.105932 197:0.093333 198:0.744948 199:0.793718 200:0.329238 201:0.016681 202:0.120932 203:0.627505 204:0.027384 205:0.367499 206:0.305211 207:0.568209 208:0.03125 209:0.515038 210:0.292426 211:0.031276 212:0.903884 213:0.427041 214:0.573717 215:0.287208 216:0.283912 217:0.62678 218:0.693379 219:0.503122 220:0.299639 221:0.06015 222:0.437963 223:0.313991 224:0.662026 225:0.434951 226:0.567225 227:0.565529 228:0.275508 229:0.373235 230:0.469859 231:0.542739 232:0.307985 233:0.381132 234:0.888904 235:0.535604 236:0.543657 237:0.511603 238:0.627648 239:0.371312 240:0.192637 241:0.33119 242:0.660778 243:0.369116 244:0.265517 245:0.326772 246:0.707544 247:0.283867 248:0.810021 249:0.386872 250:0.509273 251:0.486126 252:0.187757 253:0.587602 254:0.587775 255:0.558668 256:0.223443 257:0.055777 258:0.32321 259:0.508656 260:0.351552 261:0.884164 262:0.909825 263:0.597862 264:0.142146 265:0.363833 266:0.586771 267:0.388314 268:0.535714 269:0.059055 270:0.635731 271:0.549663 272:0.481966 273:0.556339 274:0.655378 275:0.440045 276:0.176811 277:0.238389 278:0.815355 279:0.241554 280:0.385768 281:0.05814 282:0.759922 283:0.437458 284:0.575353 285:0.283226 286:0.363225 287:0.569362 288:0.075798 289:0.188292 290:0.64697 291:0.343026 292:0.179856 293:0.319231 294:0.666531 295:0.428869 296:0.512011 297:0.486375 298:0.604394 299:0.474263 300:0.060222 301:0.329622 302:0.492731 303:0.444933 304:0.143382 305:0.185328 306:0.550067 307:0.50329 308:0.407616 309:0.445858 310:0.570899 311:0.470102 312:0.124339 313:0.436529 314:0.751531 315:0.370734 316:0.155894 317:0.135458 318:0.44745 319:0.677435 320:0.348698 321:0.374398 322:0.507957 323:0.732167 324:0.214423 325:0.503368 326:0.511984 327:0.527235 328:0.219331 329:0.203252 330:0.715939 331:0.601985 332:0.430189 333:0.45756 334:0.59016 335:0.57827 336:0.205504 337:0.237258 338:0.881308 339:0.159708 340:0.276119 341:0.05098 342:0.581359 343:0.729106 344:0.220315 345:0.073664 346:0.156836 347:0.713357 348:0.175496 349:0.279227 350:0.629012 351:0.321196 352:0.003717 353:0.027778 354:0.579458 355:0.552491 356:0.493941 357:0.104071 358:0.229566 359:0.453514 360:0.268077 361:0.306287 362:0.487905 363:0.388089 364:0.382576 365:0.338129 366:0.505485 367:0.28853 368:0.828763 369:0.385034 370:0.547007 371:0.443965 372:0.118611 373:0.377359 374:0.09874 375:0.649632 376:0.073359 377:0.481203 378:0.28466 379:0.263932 380:0.772981 381:0.289223 382:0.451832 383:0.141149 384:0.190071 
0.0 0.041217261127892486 0.0 0.0 0.0 0.0 1:0.719916 2:0.645043 3:0.71764 4:0.044053 5:0.190476 6:0.79508 7:0.317182 8:0.795409 9:0.639419 10:0.794832 11:1.000484 12:0.14914 13:0.419842 14:0.65158 15:0.367527 16:0.310185 17:0.014706 18:0.43535 19:0.628319 20:0.343647 21:0.243668 22:0.33921 23:0.556784 24:0.1553 25:0.335023 26:0.504694 27:0.428005 28:0.324111 29:0.088028 30:0.429696 31:0.540022 32:0.496879 33:0.252837 34:0.352077 35:0.51297 36:0.269418 37:0.575648 38:0.270852 39:0.693676 40:0.145985 41:0.34252 42:0.501359 43:0.263887 44:0.829015 45:0.353741 46:0.544619 47:0.468766 48:0.369904 49:0.101863 50:0.219371 51:0.637433 52:0.015385 53:0.550781 54:0.114126 55:0.266415 56:0.533448 57:0.580468 58:0.768185 59:0.467999 60:0.060474 61:0.601896 62:0.578287 63:0.546223 64:0.353147 65:0.121339 66:0.713713 67:0.771419 68:0.344918 69:0.175177 70:0.452014 71:0.391848 72:0.200941 73:0.297328 74:0.444486 75:0.37937 76:0.503521 77:0.380711 78:0.612824 79:0.630177 80:0.419528 81:0.295174 82:0.376317 83:0.307914 84:0.412425 85:0.343567 86:0.473754 87:0.438403 88:0.0 89:0.357724 90:0.448971 91:0.650822 92:0.390481 93:0.268825 94:0.375705 95:0.434423 96:0.252227 97:0.412893 98:0.828084 99:0.149488 100:0.361775 101:0.205882 102:0.646421 103:0.655531 104:0.494339 105:0.126533 106:0.232264 107:0.653733 108:0.198152 109:0.129219 110:0.422901 111:0.248149 112:0.058824 113:0.291139 114:0.286053 115:0.653733 116:0.239637 117:0.269386 118:0.386195 119:0.408033 120:0.155552 121:0.574839 122:0.662858 123:0.470425 124:0.134948 125:0.190114 126:0.649966 127:0.421837 128:0.77045 129:0.475271 130:0.671768 131:0.636482 132:0.183325 133:0.277451 134:0.333684 135:0.429659 136:0.0 137:0.376518 138:0.208644 139:0.457146 140:0.231411 141:0.318225 142:0.459513 143:0.587705 144:0.152237 145:0.299183 146:0.663047 147:0.313552 148:0.310469 149:0.277108 150:0.605595 151:0.516594 152:0.477656 153:0.105827 154:0.191614 155:0.247165 156:0.382712 157:0.842456 158:0.492958 159:0.838309 160:0.060484 161:0.258182 162:0.603421 163:0.366318 164:0.626311 165:0.516746 166:0.730205 167:0.286686 168:0.149031 169:0.655747 170:0.6778 171:0.517256 172:0.257042 173:0.450355 174:0.493734 175:0.427207 176:0.490701 177:0.688718 178:0.717682 179:0.579354 180:0.056265 181:0.464514 182:0.0 183:0.464514 184:0.216495 185:0.0 186:0.43053 187:0.335745 188:0.519318 189:0.318437 190:0.424229 191:0.414583 192:0.035891 193:0.4681 194:0.580222 195:0.445302 196:0.101695 197:0.048889 198:0.713526 199:0.465368 200:0.742627 201:0.280183 202:0.526606 203:0.68028 204:0.039133 205:0.325913 206:0.653369 207:0.329569 208:0.5625 209:0.409774 210:0.665113 211:0.76008 212:0.29151 213:0.269547 214:0.372352 215:0.402047 216:0.149157 217:0.593179 218:0.413564 219:0.630029 220:0.386282 221:0.078947 222:0.773098 223:0.471429 224:0.577011 225:0.370766 226:0.507796 227:0.487271 228:0.328348 229:0.744034 230:0.495924 231:0.778247 232:0.38403 233:0.309434 234:0.499059 235:0.292906 236:0.639977 237:0.579289 238:0.678529 239:0.592006 240:0.35352 241:0.626363 242:0.321299 243:0.738955 244:0.22069 245:0.086614 246:0.217572 247:0.427155 248:0.47536 249:0.665238 250:0.751925 251:0.486915 252:0.429356 253:0.465588 254:0.426764 255:0.593424 256:0.172161 257:0.414343 258:0.582702 259:0.204964 260:0.766859 261:0.378886 262:0.480073 263:0.258628 264:0.627195 265:0.528505 266:0.659957 267:0.441642 268:0.234127 269:0.255906 270:0.656465 271:0.45307 272:0.556242 273:0.524246 274:0.623797 275:0.535334 276:0.230961 277:0.332955 278:0.780696 279:0.337272 280:0.419476 281:0.666667 282:0.299234 283:0.395682 284:0.453011 285:0.34146 286:0.423286 287:0.581043 288:0.127848 289:0.395361 290:0.605566 291:0.526959 292:0.280576 293:0.407692 294:0.632206 295:0.230903 296:0.686605 297:0.308484 298:0.419956 299:0.50864 300:0.410325 301:0.247534 302:0.569388 303:0.355339 304:0.419118 305:0.084942 306:0.585224 307:0.440894 308:0.440762 309:0.231182 310:0.34609 311:0.370828 312:0.18319 313:0.453699 314:0.422498 315:0.568775 316:0.292776 317:0.414343 318:0.279212 319:0.282799 320:0.717895 321:0.345191 322:0.473577 323:0.455799 324:0.495398 325:0.231699 326:0.801003 327:0.196328 328:0.375465 329:0.54878 330:0.377433 331:0.729276 332:0.100015 333:0.188225 334:0.313538 335:0.510674 336:0.046751 337:0.168323 338:0.78206 339:0.172958 340:0.302239 341:0.415686 342:0.333581 343:0.223802 344:0.661404 345:0.094826 346:0.183971 347:0.47855 348:0.108482 349:0.880515 350:0.189884 351:0.871949 352:0.423792 353:0.051587 354:0.492989 355:0.208131 356:0.798335 357:0.598052 358:0.734308 359:0.649789 360:0.155288 361:0.610259 362:0.427267 363:0.58518 364:0.511364 365:0.392086 366:0.554919 367:0.593857 368:0.58073 369:0.491465 370:0.626729 371:0.69132 372:0.315779 373:0.470185 374:0.555945 375:0.429959 376:0.227799 377:0.172932 378:0.28466 379:0.51234 380:0.55793 381:0.202021 382:0.345656 383:0.410469 384:0.13983 
0.0 0.0 0.0 0.0 0.001989081141958435 0.0 1:0.55194 2:0.110456 3:0.554976 4:0.211454 5:0.758242 6:0.478323 7:0.337709 8:0.654392 9:0.287044 10:0.617032 11:1.468666 12:0.237927 13:0.479593 14:0.577362 15:0.46601 16:0.481481 17:0.036765 18:0.522137 19:0.805572 20:0.063733 21:0.058735 22:0.41617 23:0.432485 24:0.227909 25:0.334124 26:0.406452 27:0.524894 28:0.01581 29:0.140845 30:0.357863 31:0.634841 32:0.332599 33:0.392316 34:0.489225 35:0.380456 36:0.218648 37:0.706437 38:0.344593 39:0.740792 40:0.20073 41:0.401575 42:0.462915 43:0.383022 44:0.672836 45:0.436531 46:0.576381 47:0.625767 48:0.35507 49:0.207066 50:0.210222 51:0.713968 52:0.019231 53:0.179688 54:0.245484 55:0.716395 56:0.227803 57:0.540176 58:0.594743 59:0.440756 60:0.237665 61:0.589125 62:0.81551 63:0.381943 64:0.440559 65:0.1841 66:0.818155 67:0.630109 68:0.567202 69:0.126663 70:0.324665 71:0.575445 72:0.245747 73:0.2733 74:0.523515 75:0.309909 76:0.091549 77:0.507614 78:0.344671 79:0.373698 80:0.576911 81:0.173909 82:0.309872 83:0.698295 84:0.265474 85:0.307331 86:0.525977 87:0.373558 88:0.0 89:0.45935 90:0.198219 91:0.399581 92:0.47986 93:0.205624 94:0.343227 95:0.596759 96:0.189863 97:0.58654 98:0.7894 99:0.300629 100:0.392491 101:0.747899 102:0.738698 103:0.631641 104:0.628953 105:0.23763 106:0.389381 107:0.646152 108:0.200622 109:0.056651 110:0.201375 111:0.349833 112:0.249135 113:0.350211 114:0.12863 115:0.455742 116:0.300645 117:0.258911 118:0.418662 119:0.357462 120:0.209533 121:0.666998 122:0.416822 123:0.719058 124:0.190311 125:0.764259 126:0.805298 127:0.531155 128:0.833422 129:0.585127 130:0.719324 131:0.489731 132:0.318216 133:0.252588 134:0.305805 135:0.427721 136:0.340278 137:0.469636 138:0.176311 139:0.275618 140:0.44372 141:0.205446 142:0.382934 143:0.557058 144:0.232117 145:0.376982 146:0.666663 147:0.367072 148:0.472924 149:0.321285 150:0.483223 151:0.497851 152:0.426436 153:0.163907 154:0.274994 155:0.319995 156:0.2603 157:0.889353 158:0.380282 159:0.892457 160:0.08871 161:0.549091 162:0.495261 163:0.228452 164:0.827883 165:0.287643 166:0.690027 167:0.489484 168:0.310605 169:0.457025 170:0.797047 171:0.308644 172:0.316901 173:0.074468 174:0.675176 175:0.505992 176:0.508323 177:0.300676 178:0.338886 179:0.322609 180:0.379052 181:0.560092 182:0.0 183:0.560092 184:0.343643 185:0.0 186:0.551242 187:0.380497 188:0.549696 189:0.19391 190:0.286272 191:0.267927 192:0.175861 193:0.357425 194:0.620956 195:0.371193 196:0.135593 197:0.208889 198:0.708239 199:0.70868 200:0.493503 201:0.107747 202:0.32203 203:0.548897 204:0.146787 205:0.248217 206:0.899204 207:0.130968 208:0.089286 209:0.507519 210:0.531948 211:0.539877 212:0.552389 213:0.067715 214:0.116453 215:0.600084 216:0.168696 217:0.310374 218:0.40292 219:0.460095 220:0.00361 221:0.109023 222:0.629967 223:0.360646 224:0.653275 225:0.347506 226:0.48278 227:0.27253 228:0.203624 229:0.301278 230:0.49798 231:0.473837 232:0.619772 233:0.584906 234:0.65039 235:0.318637 236:0.63699 237:0.390522 238:0.507473 239:0.36769 240:0.191189 241:0.370131 242:0.519047 243:0.476636 244:0.210345 245:0.11811 246:0.655322 247:0.580442 248:0.376508 249:0.406651 250:0.535471 251:0.608863 252:0.246408 253:0.294395 254:0.797845 255:0.236634 256:0.223443 257:0.513944 258:0.696278 259:0.282245 260:0.699816 261:0.181205 262:0.263051 263:0.513841 264:0.251783 265:0.486182 266:0.546821 267:0.492288 268:0.297619 269:0.110236 270:0.778454 271:0.438661 272:0.570891 273:0.377355 274:0.484505 275:0.400366 276:0.330112 277:0.16314 278:0.699719 279:0.265338 280:0.213483 281:0.104651 282:0.344096 283:0.386222 284:0.435335 285:0.174681 286:0.241832 287:0.471519 288:0.149894 289:0.330388 290:0.531877 291:0.528871 292:0.258993 293:0.503846 294:0.57032 295:0.165797 296:0.746052 297:0.365209 298:0.479339 299:0.451659 300:0.23542 301:0.164055 302:0.592061 303:0.294427 304:0.617647 305:0.53668 306:0.628297 307:0.369685 308:0.506134 309:0.226124 310:0.338207 311:0.345944 312:0.190651 313:0.245101 314:0.609798 315:0.336386 316:0.117871 317:0.804781 318:0.212954 319:0.192366 320:0.853244 321:0.252629 322:0.378072 323:0.332436 324:0.190067 325:0.283688 326:0.832295 327:0.211727 328:0.345725 329:0.004065 330:0.435134 331:0.367632 332:0.487644 333:0.181831 334:0.29235 335:0.634229 336:0.139794 337:0.194129 338:0.571764 339:0.303746 340:0.350746 341:0.517647 342:0.484459 343:0.31926 344:0.596663 345:0.158008 346:0.277357 347:0.410191 348:0.224181 349:0.213527 350:0.261689 351:0.482023 352:0.01487 353:0.083333 354:0.372665 355:0.386047 356:0.563708 357:0.170491 358:0.323134 359:0.185055 360:0.658881 361:0.520798 362:0.504981 363:0.495691 364:0.276515 365:0.248201 366:0.438501 367:0.601564 368:0.591911 369:0.238441 370:0.375953 371:0.615547 372:0.389577 373:0.344603 374:0.695179 375:0.290545 376:0.289575 377:0.255639 378:0.28466 379:0.552137 380:0.563243 381:0.101694 382:0.20656 383:0.477764 384:0.187786 
0.0 0.0 0.0 0.0 0.007636000720259546 0.0 1:0.337867 2:0.045745 3:0.340006 4:0.013216 5:0.490842 6:0.285073 7:0.429814 8:0.436132 9:0.081366 10:0.373771 11:1.375729 12:0.227381 13:0.360441 14:0.584984 15:0.372113 16:0.37037 17:0.007353 18:0.431943 19:0.661482 20:0.246616 21:0.186085 22:0.328938 23:0.481538 24:0.241746 25:0.396503 26:0.556704 27:0.419908 28:0.328063 29:0.419014 30:0.584319 31:0.589165 32:0.576643 33:0.207789 34:0.295974 35:0.401536 36:0.255126 37:0.741954 38:0.362249 39:0.755255 40:0.178832 41:0.389764 42:0.769079 43:0.63712 44:0.583502 45:0.495866 46:0.606787 47:0.264986 48:0.41088 49:0.244876 50:0.374423 51:0.564526 52:0.030769 53:0.128906 54:0.343318 55:0.730624 56:0.291352 57:0.481576 58:0.550501 59:0.521097 60:0.111074 61:0.78548 62:0.722722 63:0.575737 64:0.391608 65:0.041841 66:0.656473 67:0.565864 68:0.547122 69:0.305426 70:0.477275 71:0.826577 72:0.552654 73:0.182643 74:0.25661 75:0.441706 76:0.024648 77:0.441624 78:0.352701 79:0.377668 80:0.564165 81:0.396645 82:0.509898 83:0.428718 84:0.293221 85:0.264356 86:0.507148 87:0.361402 88:0.660839 89:0.227642 90:0.308313 91:0.498781 92:0.44241 93:0.317911 94:0.427902 95:0.654565 96:0.149106 97:0.368073 98:0.596006 99:0.329098 100:0.399317 101:0.647059 102:0.449625 103:0.653845 104:0.338833 105:0.157073 106:0.278031 107:0.405612 108:0.238688 109:0.118219 110:0.069635 111:0.494459 112:0.470588 113:0.324895 114:0.227211 115:0.607462 116:0.230627 117:0.274552 118:0.387955 119:0.00747 120:0.865984 121:0.434339 122:0.508236 123:0.479408 124:0.370242 125:0.471483 126:0.657061 127:0.509752 128:0.712625 129:0.493056 130:0.646362 131:0.409515 132:0.149087 133:0.101934 134:0.248385 135:0.353079 136:0.680556 137:0.417004 138:0.252097 139:0.345716 140:0.41273 141:0.27005 142:0.422294 143:0.276875 144:0.260975 145:0.404122 146:0.663355 147:0.388392 148:0.353791 149:0.594378 150:0.617545 151:0.53559 152:0.455586 153:0.210974 154:0.343294 155:0.394155 156:0.195834 157:0.840258 158:0.338028 159:0.844326 160:0.056452 161:0.516364 162:0.443726 163:0.262029 164:0.719288 165:0.316053 166:0.662989 167:0.520716 168:0.337488 169:0.627554 170:0.654501 171:0.511712 172:0.292254 173:0.478723 174:0.406129 175:0.353486 176:0.508077 177:0.49375 178:0.507542 179:0.564127 180:0.106347 181:0.48714 182:0.0 183:0.48714 184:0.254296 185:0.0 186:0.368216 187:0.277344 188:0.544325 189:0.215063 190:0.310847 191:0.43243 192:0.062489 193:0.286237 194:0.778448 195:0.252609 196:0.008475 197:0.071111 198:0.503887 199:0.816067 200:0.311893 201:0.045576 202:0.205264 203:0.843269 204:0.237411 205:0.327457 206:0.580849 207:0.374843 208:0.071429 209:0.691729 210:0.494658 211:0.425305 212:0.681024 213:0.34095 214:0.463537 215:0.412828 216:0.134547 217:0.486736 218:0.54104 219:0.496635 220:0.433213 221:0.090226 222:0.374732 223:0.343046 224:0.602958 225:0.321424 226:0.455729 227:0.418812 228:0.185671 229:0.403749 230:0.533662 231:0.519007 232:0.43346 233:0.320755 234:0.713638 235:0.166873 236:0.868067 237:0.421066 238:0.535691 239:0.431416 240:0.210009 241:0.444817 242:0.60763 243:0.464517 244:0.186207 245:0.098425 246:0.48661 247:0.515682 248:0.430299 249:0.416152 250:0.539499 251:0.657864 252:0.185038 253:0.234432 254:0.571105 255:0.353993 256:0.340659 257:0.466135 258:0.514128 259:0.254982 260:0.670391 261:0.367619 262:0.469176 263:0.332915 264:0.241717 265:0.513391 266:0.62861 267:0.453551 268:0.468254 269:0.090551 270:0.642753 271:0.476587 272:0.480692 273:0.403967 274:0.513156 275:0.630993 276:0.32797 277:0.448252 278:0.575881 279:0.567422 280:0.677903 281:0.085271 282:0.647458 283:0.463855 284:0.426046 285:0.494098 286:0.575006 287:0.502701 288:0.151745 289:0.254285 290:0.66937 291:0.377161 292:0.647482 293:0.453846 294:0.734981 295:0.361795 296:0.543997 297:0.309535 298:0.429436 299:0.448578 300:0.123738 301:0.192643 302:0.549642 303:0.334218 304:0.4375 305:0.339768 306:0.672615 307:0.327365 308:0.593631 309:0.226917 310:0.337105 311:0.347513 312:0.222727 313:0.348584 314:0.724074 315:0.333471 316:0.095057 317:0.466135 318:0.404812 319:0.334192 320:0.698628 321:0.273155 322:0.395424 323:0.610383 324:0.227321 325:0.20354 326:0.654804 327:0.259517 328:0.423792 329:0.325203 330:0.622268 331:0.570138 332:0.304755 333:0.211835 334:0.337197 335:0.432471 336:0.127921 337:0.319324 338:0.66259 339:0.328737 340:0.563433 341:0.470588 342:0.716222 343:0.298315 344:0.727103 345:0.152007 346:0.269027 347:0.592459 348:0.184284 349:0.257649 350:0.25786 351:0.507328 352:0.684015 353:0.063492 354:0.37602 355:0.562052 356:0.355748 357:0.204698 358:0.371695 359:0.289054 360:0.455525 361:0.463248 362:0.503969 363:0.464946 364:0.530303 365:0.223022 366:0.396949 367:0.602472 368:0.559609 369:0.380176 370:0.525112 371:0.608219 372:0.231413 373:0.302579 374:0.73198 375:0.249535 376:0.274131 377:0.225564 378:0.28466 379:0.592891 380:0.486171 381:0.150799 382:0.277006 383:0.42282 384:0.081053 
0.11274238804559629 0.0 0.0 0.0 0.0 0.0 1:0.306608 2:0.052732 3:0.308412 4:0.052863 5:0.52381 6:0.317712 7:0.465626 8:0.453117 9:0.086791 10:0.377631 11:0.961977 12:0.119275 13:0.331438 14:0.695714 15:0.269768 16:0.268519 17:0.0 18:0.420743 19:0.641039 20:0.220372 21:0.126303 22:0.266067 23:0.497929 24:0.24236 25:0.321058 26:0.350795 27:0.570893 28:0.687747 29:0.454225 30:0.543494 31:0.701416 32:0.397293 33:0.359184 34:0.478101 35:0.299116 36:0.259889 37:0.640788 38:0.325028 39:0.704862 40:0.678832 41:0.433071 42:0.69541 43:0.658113 44:0.45525 45:0.441794 46:0.569579 47:0.301462 48:0.470439 49:0.222677 50:0.341447 51:0.585254 52:0.023077 53:0.164063 54:0.275484 55:0.663796 56:0.309003 57:0.498482 58:0.562027 59:0.529697 60:0.098335 61:0.812762 62:0.737036 63:0.584815 64:0.402098 65:0.171548 66:0.767919 67:0.569265 68:0.604196 69:0.272884 70:0.45639 71:0.695421 72:0.457749 73:0.201922 74:0.379683 75:0.367457 76:0.077465 77:0.497462 78:0.340126 79:0.401679 80:0.543016 81:0.279991 82:0.399386 83:0.539093 84:0.243447 85:0.290612 86:0.392517 87:0.469949 88:0.36014 89:0.691057 90:0.271286 91:0.366703 92:0.601032 93:0.309848 94:0.486788 95:0.347143 96:0.346344 97:0.584518 98:0.663166 99:0.413285 100:0.430034 101:0.592437 102:0.562779 103:0.701187 104:0.369053 105:0.167704 106:0.279252 107:0.63128 108:0.418832 109:0.07097 110:0.383099 111:0.230088 112:0.0 113:0.375527 114:0.229357 115:0.56551 116:0.275412 117:0.1048 118:0.179856 119:0.303852 120:0.276965 121:0.53792 122:0.577337 123:0.50567 124:0.387543 125:0.78327 126:0.726439 127:0.485974 128:0.831291 129:0.430203 130:0.624585 131:0.552903 132:0.219891 133:0.208771 134:0.332618 135:0.381469 136:0.555556 137:0.449393 138:0.331136 139:0.344481 140:0.504731 141:0.27482 142:0.431778 143:0.363021 144:0.19318 145:0.413158 146:0.521074 147:0.477396 148:0.382671 149:0.345382 150:0.720587 151:0.570602 152:0.454789 153:0.217474 154:0.368099 155:0.340058 156:0.256306 157:0.865172 158:0.323944 159:0.870648 160:0.084677 161:0.72 162:0.504291 163:0.24886 164:0.838908 165:0.358568 166:0.746929 167:0.465023 168:0.275739 169:0.482111 170:0.556368 171:0.469913 172:0.323944 173:0.524823 174:0.458533 175:0.345477 176:0.563496 177:0.580532 178:0.600892 179:0.59124 180:0.098028 181:0.637115 182:0.0 183:0.637115 184:0.28866 185:0.0 186:0.3785 187:0.271408 188:0.56863 189:0.322995 190:0.436112 191:0.501202 192:0.076969 193:0.201684 194:0.841172 195:0.178921 196:0.004237 197:0.102222 198:0.619235 199:0.80494 200:0.354899 201:0.034113 202:0.176854 203:0.785658 204:0.087983 205:0.104301 206:0.81405 207:0.093385 208:0.102679 209:0.635338 210:0.457243 211:0.514588 212:0.58232 213:0.081859 214:0.142189 215:0.399856 216:0.073832 217:0.618188 218:0.479595 219:0.610684 220:0.469314 221:0.116541 222:0.477311 223:0.307722 224:0.68222 225:0.298906 226:0.431725 227:0.537796 228:0.410725 229:0.472517 230:0.734041 231:0.425955 232:0.479087 233:0.384906 234:0.670518 235:0.177286 236:0.846507 237:0.322004 238:0.435877 239:0.544188 240:0.25096 241:0.47908 242:0.549538 243:0.518766 244:0.551724 245:0.125984 246:0.605308 247:0.542297 248:0.402969 249:0.571415 250:0.680525 251:0.687863 252:0.152405 253:0.12224 254:0.45275 255:0.36578 256:0.373626 257:0.501992 258:0.658256 259:0.243177 260:0.737556 261:0.370769 262:0.472244 263:0.237379 264:0.336429 265:0.468041 266:0.662973 267:0.401671 268:0.503968 269:0.122047 270:0.61353 271:0.408643 272:0.542558 273:0.394928 274:0.500807 275:0.681094 276:0.279754 277:0.443651 278:0.827463 279:0.388363 280:0.610487 281:0.651163 282:0.628054 283:0.392878 284:0.48804 285:0.34158 286:0.426365 287:0.69967 288:0.147601 289:0.330476 290:0.556864 291:0.511748 292:0.269784 293:0.492308 294:0.758071 295:0.319584 296:0.585851 297:0.303399 298:0.420413 299:0.385288 300:0.31881 301:0.225502 302:0.620277 303:0.314732 304:0.632353 305:0.791506 306:0.601145 307:0.343206 308:0.52458 309:0.165092 310:0.26133 311:0.425973 312:0.192403 313:0.292242 314:0.79026 315:0.261806 316:0.646388 317:0.513944 318:0.462341 319:0.37183 320:0.666308 321:0.274866 322:0.396955 323:0.544498 324:0.102465 325:0.269746 326:0.641596 327:0.308488 328:0.460967 329:0.658537 330:0.498882 331:0.460313 332:0.359309 333:0.19692 334:0.315427 335:0.398489 336:0.243943 337:0.337095 338:0.52256 339:0.416176 340:0.373134 341:0.337255 342:0.535948 343:0.346337 344:0.571423 345:0.179977 346:0.306877 347:0.493308 348:0.389108 349:0.257327 350:0.201054 351:0.537387 352:0.003717 353:0.09127 354:0.374808 355:0.435163 356:0.494441 357:0.192237 358:0.352171 359:0.197486 360:0.652948 361:0.614577 362:0.635804 363:0.477859 364:0.291667 365:0.255396 366:0.407678 367:0.613545 368:0.587225 369:0.328765 370:0.474948 371:0.65135 372:0.304399 373:0.396352 374:0.613261 375:0.362136 376:0.305019 377:0.244361 378:0.28466 379:0.628834 380:0.461312 381:0.139209 382:0.260175 383:0.463896 384:0.139308 
0.038514879653227994 0.0 0.0 0.02380541386803871 0.0 0.0 1:0.294834 2:0.050701 3:0.296569 4:0.017621 5:0.538462 6:0.425673 7:0.560282 8:0.410153 9:0.150357 10:0.377443 11:0.533086 12:0.049183 13:0.517455 14:0.105199 15:0.838805 16:0.37037 17:0.632353 18:0.27012 19:0.550738 20:0.262656 21:0.582339 22:0.660726 23:0.53884 24:0.20035 25:0.243777 26:0.090207 27:0.774859 28:0.019763 29:0.665493 30:0.306142 31:0.426618 32:0.547145 33:0.491367 34:0.620377 35:0.118502 36:0.581847 37:0.528065 38:0.21818 39:0.694724 40:0.19708 41:0.464567 42:0.517457 43:0.445929 44:0.629522 45:0.48359 46:0.595488 47:0.285237 48:0.327194 49:0.249668 50:0.420223 51:0.519185 52:0.030769 53:0.324219 54:0.270542 55:0.62822 56:0.342563 57:0.377218 58:0.465766 59:0.594471 60:0.158931 61:0.661508 62:0.650256 63:0.539359 64:0.402098 65:0.175732 66:0.726136 67:0.709162 68:0.348579 69:0.262498 70:0.54278 71:0.454003 72:0.181567 73:0.288657 74:0.450217 75:0.370188 76:0.735915 77:0.522843 78:0.572794 79:0.554329 80:0.480758 81:0.307549 82:0.371352 83:0.452615 84:0.218124 85:0.21269 86:0.560855 87:0.285581 88:0.01049 89:0.296748 90:0.426636 91:0.573573 92:0.451932 93:0.25485 94:0.350336 95:0.501158 96:0.147649 97:0.350514 98:0.820128 99:0.11493 100:0.447099 101:0.163866 102:0.65181 103:0.732298 104:0.393991 105:0.040806 106:0.080547 107:0.410441 108:0.28287 109:0.190733 110:0.364492 111:0.339767 112:0.532872 113:0.708861 114:0.265613 115:0.557388 116:0.309936 117:0.254348 118:0.370407 119:0.318179 120:0.245264 121:0.678875 122:0.708518 123:0.514196 124:0.432526 125:0.653992 126:0.766409 127:0.49846 128:0.840087 129:0.539284 130:0.703102 131:0.69689 132:0.250007 133:0.230078 134:0.32653 135:0.400039 136:0.559028 137:0.489879 138:0.381423 139:0.429876 140:0.427523 141:0.30767 142:0.448775 143:0.383792 144:0.150803 145:0.375929 146:0.785489 147:0.297381 148:0.386282 149:0.35743 150:0.560395 151:0.485861 152:0.482446 153:0.106423 154:0.18903 155:0.634468 156:0.425598 157:0.884224 158:0.478873 159:0.881928 160:0.080645 161:0.261818 162:0.627222 163:0.347906 164:0.732899 165:0.44065 166:0.709728 167:0.338358 168:0.199448 169:0.535874 170:0.621698 171:0.467987 172:0.323944 173:0.531915 174:0.431852 175:0.316205 176:0.583803 177:0.572202 178:0.595331 179:0.624393 180:0.071522 181:0.670795 182:0.0 183:0.670795 184:0.292096 185:0.0 186:0.389745 187:0.239734 188:0.616175 189:0.323613 190:0.445417 191:0.503582 192:0.097902 193:0.274164 194:0.748563 195:0.263067 196:0.008475 197:0.742222 198:0.644295 199:0.751791 200:0.428025 201:0.074209 202:0.265423 203:0.712931 204:0.086695 205:0.702513 206:0.773335 207:0.490773 208:0.745536 209:0.567669 210:0.649651 211:0.737394 212:0.310113 213:0.335772 214:0.443996 215:0.700627 216:0.460936 217:0.513009 218:0.323484 219:0.627832 220:0.483755 221:0.661654 222:0.59231 223:0.464816 224:0.491017 225:0.48526 226:0.615184 227:0.263807 228:0.272044 229:0.597622 230:0.715283 231:0.524679 232:0.490494 233:0.384906 234:0.563627 235:0.070549 236:0.960106 237:0.313427 238:0.430917 239:0.610032 240:0.3759 241:0.3433 242:0.439956 243:0.509624 244:0.224138 245:0.114173 246:0.393689 247:0.368703 248:0.618695 249:0.431361 250:0.550821 251:0.549258 252:0.197194 253:0.335389 254:0.507778 255:0.458759 256:0.377289 257:0.521912 258:0.596079 259:0.174317 260:0.817232 261:0.358686 262:0.459903 263:0.311428 264:0.388932 265:0.250077 266:0.741329 267:0.21154 268:0.551587 269:0.110236 270:0.690312 271:0.428295 272:0.551623 273:0.311953 274:0.415801 275:0.43201 276:0.190062 277:0.196441 278:0.767626 279:0.243134 280:0.374532 281:0.674419 282:0.66222 283:0.389334 284:0.517227 285:0.287567 286:0.369417 287:0.528365 288:0.062603 289:0.266114 290:0.608367 291:0.428004 292:0.276978 293:0.511538 294:0.733973 295:0.210592 296:0.740668 297:0.274551 298:0.382309 299:0.428302 300:0.278045 301:0.323949 302:0.648925 303:0.356309 304:0.525735 305:0.675676 306:0.685058 307:0.319609 308:0.597926 309:0.154517 310:0.246035 311:0.454565 312:0.242448 313:0.268872 314:0.553892 315:0.382585 316:0.114068 317:0.517928 318:0.382261 319:0.343091 320:0.68531 321:0.276793 322:0.399412 323:0.254307 324:0.366907 325:0.187612 326:0.525561 327:0.321018 328:0.297398 329:0.715447 330:0.561388 331:0.425821 332:0.447014 333:0.223782 334:0.346383 335:0.256575 336:0.295705 337:0.257275 338:0.567467 339:0.343839 340:0.376866 341:0.52549 342:0.479923 343:0.297402 344:0.627195 345:0.142286 346:0.255408 347:0.519906 348:0.274341 349:0.250242 350:0.337005 351:0.461304 352:0.561338 353:0.079365 354:0.323024 355:0.424826 356:0.497488 357:0.202954 358:0.365167 359:0.325955 360:0.341421 361:0.504916 362:0.62141 363:0.425831 364:0.291667 365:0.258993 366:0.508895 367:0.760362 368:0.38708 369:0.286331 370:0.420028 371:0.693787 372:0.337372 373:0.40596 374:0.670311 375:0.333794 376:0.30888 377:0.266917 378:0.410479 379:0.692451 380:0.393852 381:0.150369 382:0.274186 383:0.473394 384:0.122129 
0.0 0.0 0.0 0.0 0.01339202871115151 0.0 1:0.083685 2:0.020222 3:0.084121 4:0.132159 5:0.029304 6:0.086864 7:0.695539 8:0.07115 9:0.010432 10:0.079686 11:0.821288 12:0.166038 13:0.496095 14:0.577685 15:0.478009 16:0.208333 17:0.077206 18:0.463581 19:0.509176 20:0.539427 21:0.274293 22:0.306827 23:0.475098 24:0.365912 25:0.247204 26:0.275592 27:0.593254 28:0.055336 29:0.429577 30:0.173353 31:0.323019 32:0.49205 33:0.284703 34:0.472798 35:0.496372 36:0.327195 37:0.191076 38:0.358476 39:0.340858 40:0.047445 41:0.322835 42:0.325902 43:0.414678 44:0.446051 45:0.242113 46:0.351079 47:0.461374 48:0.123446 49:0.654648 50:0.612437 51:0.573528 52:0.380769 53:0.28125 54:0.820668 55:0.814606 56:0.598751 57:0.156229 58:0.257253 59:0.012688 60:0.82489 61:0.315787 62:0.539886 63:0.37774 64:0.384615 65:0.108787 66:0.505352 67:0.514894 68:0.524739 69:0.349954 70:0.497069 71:0.238551 72:0.141768 73:0.401286 74:0.557504 75:0.362795 76:0.556338 77:0.335025 78:0.730263 79:0.607797 80:0.551542 81:0.359523 82:0.429282 83:0.424319 84:0.214051 85:0.674771 86:0.580627 87:0.562752 88:0.384615 89:0.292683 90:0.809178 91:0.642524 92:0.709335 93:0.394436 94:0.506541 95:0.246236 96:0.447564 97:0.352722 98:0.602048 99:0.313369 100:0.03413 101:0.184874 102:0.635737 103:0.673104 104:0.458856 105:0.288091 106:0.425779 107:0.347532 108:0.103968 109:0.467128 110:0.428143 111:0.515905 112:0.204152 113:0.261603 114:0.567968 115:0.390893 116:0.666713 117:0.417407 118:0.585722 119:0.305121 120:0.287184 121:0.500652 122:0.824333 123:0.297075 124:0.304498 125:0.38403 126:0.790095 127:0.458538 128:0.851331 129:0.275328 130:0.443668 131:0.435017 132:0.114097 133:0.315531 134:0.633749 135:0.287469 136:0.149306 137:0.097166 138:0.604064 139:0.435278 140:0.624885 141:0.236615 142:0.369828 143:0.379417 144:0.135011 145:0.208907 146:0.817213 147:0.159577 148:0.34296 149:0.341365 150:0.638112 151:0.454113 152:0.55916 153:0.152901 154:0.258594 155:0.32044 156:0.053296 157:0.407928 158:0.0 159:0.418666 160:0.104839 161:0.0 162:0.214822 163:0.579475 164:0.125536 165:0.083721 166:0.204785 167:0.571426 168:0.473568 169:0.609623 170:0.78064 171:0.423886 172:0.299296 173:0.099291 174:0.589794 175:0.242 176:0.786348 177:0.530591 178:0.566035 179:0.526301 180:0.127803 181:0.963939 182:0.0 183:0.963939 184:0.034364 185:0.0 186:0.591546 187:0.121234 188:0.870905 189:0.36407 190:0.523126 191:0.377495 192:0.140254 193:0.09601 194:0.956906 195:0.066656 196:0.131356 197:0.084444 198:0.745674 199:0.832476 200:0.298673 201:0.005849 202:0.068145 203:0.775184 204:0.098664 205:0.344706 206:0.677308 207:0.326643 208:0.084821 209:0.048872 210:0.185284 211:0.568894 212:0.339333 213:0.289927 214:0.397761 215:0.471452 216:0.13266 217:0.156912 218:0.706412 219:0.204564 220:0.530686 221:0.105263 222:0.721901 223:0.360775 224:0.695217 225:0.179106 226:0.291152 227:0.328498 228:0.114517 229:0.651339 230:0.682639 231:0.584262 232:0.551331 233:0.298113 234:0.614005 235:0.534187 236:0.411918 237:0.546357 238:0.660229 239:0.54377 240:0.256963 241:0.235888 242:0.738548 243:0.268993 244:0.262069 245:0.393701 246:0.487047 247:0.530577 248:0.441222 249:0.248404 250:0.364739 251:0.650316 252:0.092616 253:0.534576 254:0.651048 255:0.483253 256:0.380952 257:0.438247 258:0.544221 259:0.509243 260:0.398802 261:0.513268 262:0.61595 263:0.650564 264:0.296643 265:0.461717 266:0.524887 267:0.491911 268:0.40873 269:0.106299 270:0.57703 271:0.556089 272:0.409514 273:0.43951 274:0.550384 275:0.376527 276:0.304845 277:0.436769 278:0.701533 279:0.471044 280:0.393258 281:0.100775 282:0.674844 283:0.395119 284:0.57074 285:0.447566 286:0.525601 287:0.601018 288:0.152157 289:0.269744 290:0.737688 291:0.341773 292:0.23741 293:0.1 294:0.697999 295:0.383053 296:0.54329 297:0.285782 298:0.402737 299:0.510667 300:0.143072 301:0.447274 302:0.639916 303:0.432919 304:0.297794 305:0.285714 306:0.583544 307:0.516211 308:0.362234 309:0.415058 310:0.54381 311:0.612834 312:0.13596 313:0.119682 314:0.733288 315:0.190458 316:0.212928 317:0.573705 318:0.528564 319:0.514065 320:0.516506 321:0.203255 322:0.314342 323:0.289071 324:0.136255 325:0.495197 326:0.509221 327:0.523622 328:0.282528 329:0.268293 330:0.719993 331:0.490498 332:0.500312 333:0.444009 334:0.576232 335:0.356842 336:0.293669 337:0.270482 338:0.821455 339:0.212397 340:0.33209 341:0.262745 342:0.623744 343:0.466795 344:0.490206 345:0.14774 346:0.264554 347:0.653897 348:0.125342 349:0.520451 350:0.588163 351:0.470135 352:0.055762 353:0.583333 354:0.639897 355:0.206754 356:0.838905 357:0.244679 358:0.415117 359:0.641604 360:0.119381 361:0.305135 362:0.501976 363:0.380064 364:0.42803 365:0.043165 366:0.165899 367:0.613551 368:0.424386 369:0.349514 370:0.491496 371:0.503915 372:0.194072 373:0.54628 374:0.03288 375:0.767198 376:0.003861 377:0.037594 378:0.244181 379:0.43813 380:0.618865 381:0.348692 382:0.508447 383:0.202559 384:0.168229 
0.052680758512492855 0.0 0.0 0.0 0.0 0.0 1:0.259723 2:0.09271 3:0.260657 4:0.211454 5:0.736264 6:0.370966 7:0.582327 8:0.355617 9:0.124805 10:0.338659 11:0.44945 12:0.047606 13:0.460114 14:0.557413 15:0.466135 16:0.708333 17:0.544118 18:0.347051 19:0.661174 20:0.146419 21:0.287462 22:0.46238 23:0.571038 24:0.107232 25:0.406438 26:0.242608 27:0.738747 28:0.288538 29:0.616197 30:0.388208 31:0.455252 32:0.579177 33:0.497872 34:0.611076 35:0.371711 36:0.31018 37:0.73148 38:0.427018 39:0.70174 40:0.218978 41:0.755906 42:0.519547 43:0.338721 44:0.802817 45:0.361599 46:0.532427 47:0.621621 48:0.396746 49:0.152084 50:0.336654 51:0.545447 52:0.038462 53:0.707031 54:0.312212 55:0.708827 56:0.287625 57:0.592638 58:0.633164 59:0.485531 60:0.065216 61:0.760057 62:0.764621 63:0.531039 64:0.41958 65:0.209205 66:0.742783 67:0.616978 68:0.51944 69:0.292764 70:0.499782 71:0.656793 72:0.291682 73:0.376757 74:0.371712 75:0.47762 76:0.637324 77:0.502538 78:0.426974 79:0.497354 80:0.450387 81:0.491497 82:0.539829 83:0.488814 84:0.24256 85:0.261908 86:0.666601 87:0.232018 88:0.664336 89:0.300813 90:0.507652 91:0.564829 92:0.532114 93:0.112898 94:0.163279 95:0.485896 96:0.377813 97:0.514748 98:0.578446 99:0.443112 100:0.43686 101:0.189076 102:0.607012 103:0.790517 104:0.262133 105:0.136451 106:0.253136 107:0.323214 108:0.535609 109:0.185755 110:0.397841 111:0.311681 112:0.692042 113:0.375527 114:0.295795 115:0.518458 116:0.37166 117:0.167162 118:0.279505 119:0.296092 120:0.216871 121:0.605923 122:0.669528 123:0.488611 124:0.408304 125:0.775665 126:0.7713 127:0.63155 128:0.68353 129:0.419755 130:0.525283 131:0.584174 132:0.325135 133:0.093974 134:0.327875 135:0.30259 136:0.274306 137:0.42915 138:0.333193 139:0.324408 140:0.526036 141:0.200644 142:0.353392 143:0.184333 144:0.291394 145:0.336335 146:0.819912 147:0.249106 148:0.382671 149:0.172691 150:0.624537 151:0.562138 152:0.421052 153:0.079854 154:0.170482 155:0.43051 156:0.365941 157:0.873965 158:0.492958 159:0.870648 160:0.100806 161:0.483636 162:0.732537 163:0.383981 164:0.739169 165:0.683177 166:0.857553 167:0.236528 168:0.100685 169:0.552233 170:0.742538 171:0.407023 172:0.341549 173:0.067376 174:0.400058 175:0.352063 176:0.505284 177:0.597236 178:0.618041 179:0.648052 180:0.049036 181:0.61486 182:0.0 183:0.61486 184:0.302405 185:0.0 186:0.363005 187:0.283619 188:0.536049 189:0.28812 190:0.394982 191:0.50185 192:0.101869 193:0.241753 194:0.80668 195:0.216417 196:0.614407 197:0.222222 198:0.712619 199:0.753728 200:0.430867 201:0.056648 202:0.231034 203:0.699434 204:0.073258 205:0.347193 206:0.352696 207:0.526547 208:0.696429 209:0.537594 210:0.499817 211:0.631389 212:0.410187 213:0.392799 214:0.503403 215:0.30149 216:0.255885 217:0.480364 218:0.266614 219:0.637599 220:0.472924 221:0.620301 222:0.509026 223:0.383764 224:0.582729 225:0.430544 226:0.563689 227:0.318605 228:0.306855 229:0.418124 230:0.65541 231:0.443715 232:0.475285 233:0.54717 234:0.684788 235:0.380758 236:0.558855 237:0.439951 238:0.558204 239:0.367443 240:0.190911 241:0.251745 242:0.505741 243:0.418846 244:0.682759 245:0.645669 246:0.589554 247:0.589085 248:0.3373 249:0.545583 250:0.661521 251:0.443109 252:0.160021 253:0.357229 254:0.557172 255:0.438562 256:0.25641 257:0.505976 258:0.61991 259:0.312349 260:0.623919 261:0.530045 262:0.623685 263:0.467347 264:0.183933 265:0.504587 266:0.610927 267:0.460094 268:0.329365 269:0.106299 270:0.553779 271:0.388688 272:0.567368 273:0.485584 274:0.586567 275:0.492672 276:0.169109 277:0.224218 278:0.528995 279:0.430685 280:0.374532 281:0.306202 282:0.475644 283:0.254156 284:0.667959 285:0.278584 286:0.352794 287:0.488151 288:0.206676 289:0.179223 290:0.536218 291:0.412401 292:0.241007 293:0.496154 294:0.659233 295:0.243837 296:0.667994 297:0.274693 298:0.383338 299:0.433574 300:0.2721 301:0.213202 302:0.539545 303:0.351685 304:0.481618 305:0.718147 306:0.461946 307:0.109783 308:0.850313 309:0.299083 310:0.419099 311:0.408463 312:0.130505 313:0.244674 314:0.650782 315:0.312748 316:0.114068 317:0.513944 318:0.411822 319:0.192373 320:0.907705 321:0.286142 322:0.415733 323:0.425252 324:0.125477 325:0.281063 326:0.606398 327:0.335089 328:0.468401 329:0.666667 330:0.492665 331:0.323099 332:0.56535 333:0.248426 334:0.372665 335:0.348265 336:0.25865 337:0.310528 338:0.778322 339:0.259992 340:0.373134 341:0.34902 342:0.491849 343:0.282616 344:0.654705 345:0.071773 346:0.145132 347:0.669633 348:0.355399 349:0.730435 350:0.162439 351:0.807414 352:0.535316 353:0.079365 354:0.388792 355:0.300087 356:0.678499 357:0.55446 358:0.700088 359:0.485825 360:0.206457 361:0.606835 362:0.640392 363:0.471239 364:0.30303 365:0.482014 366:0.492573 367:0.684207 368:0.491995 369:0.332585 370:0.472754 371:0.671314 372:0.305331 373:0.488126 374:0.658804 375:0.379152 376:0.320463 377:0.255639 378:0.28466 379:0.616504 380:0.467309 381:0.13153 382:0.249229 383:0.471624 384:0.190593 
0.00979719534357266 0.0 0.0 0.0 0.0 0.0 1:0.409844 2:0.044727 3:0.412568 4:0.066079 5:0.783883 6:0.416143 7:0.439072 8:0.529057 9:0.176786 10:0.475175 11:0.902095 12:0.117519 13:0.412565 14:0.498868 15:0.473628 16:0.421296 17:0.007353 18:0.284147 19:0.469862 20:0.407832 21:0.320653 22:0.357454 23:0.599972 24:0.150072 25:0.315164 26:0.502859 27:0.415766 28:0.608696 29:0.591549 30:0.434384 31:0.592615 32:0.448207 33:0.229049 34:0.320613 35:0.389188 36:0.310349 37:0.536153 38:0.152266 39:0.747237 40:0.189781 41:0.425197 42:0.583612 43:0.551856 44:0.524501 45:0.479012 46:0.578227 47:0.200208 48:0.514561 49:0.135396 50:0.054168 51:0.833281 52:0.030769 53:0.613281 54:0.284601 55:0.768257 56:0.199761 57:0.690248 58:0.709794 59:0.323544 60:0.164412 61:0.573954 62:0.795249 63:0.384966 64:0.412587 65:0.171548 66:0.69382 67:0.597747 68:0.500574 69:0.182715 70:0.372087 71:0.662535 72:0.281276 73:0.248111 74:0.465781 75:0.33508 76:0.669014 77:0.497462 78:0.486585 79:0.558454 80:0.401521 81:0.25789 82:0.321848 83:0.543041 84:0.206789 85:0.383798 86:0.795391 87:0.206063 88:0.597902 89:0.447154 90:0.572827 91:0.633025 92:0.497595 93:0.215599 94:0.312457 95:0.58908 96:0.100231 97:0.1374 98:0.607646 99:0.164222 100:0.423208 101:0.495798 102:0.497396 103:0.718066 104:0.28391 105:0.092447 106:0.169023 107:0.332737 108:0.186589 109:0.150378 110:0.422651 111:0.265332 112:0.474048 113:0.367089 114:0.374937 115:0.681491 116:0.271793 117:0.093841 118:0.178307 119:0.2523 120:0.456893 121:0.590106 122:0.514528 123:0.590414 124:0.401384 125:0.627376 126:0.668166 127:0.598494 128:0.631678 129:0.491526 130:0.605344 131:0.624395 132:0.339719 133:0.155487 134:0.624023 135:0.179256 136:0.0 137:0.477733 138:0.441055 139:0.486008 140:0.40536 141:0.123734 142:0.226831 143:0.468912 144:0.115503 145:0.407957 146:0.707401 147:0.36558 148:0.277978 149:0.606426 150:0.607406 151:0.540879 152:0.436532 153:0.180066 154:0.30755 155:0.447843 156:0.257522 157:0.855646 158:0.450704 159:0.854102 160:0.072581 161:0.567273 162:0.628467 163:0.471881 164:0.548733 165:0.568157 166:0.741489 167:0.267714 168:0.139816 169:0.625993 170:0.621509 171:0.530363 172:0.292254 173:0.524823 174:0.372134 175:0.209304 176:0.695445 177:0.784861 178:0.845929 179:0.690606 180:0.021329 181:0.675244 182:0.0 183:0.675244 184:0.271478 185:0.0 186:0.378908 187:0.237771 188:0.612868 189:0.33199 190:0.455517 191:0.503129 192:0.069022 193:0.28109 194:0.671429 195:0.307992 196:0.127119 197:0.075556 198:0.587743 199:0.766956 200:0.403945 201:0.089653 202:0.292178 203:0.637986 204:0.09307 205:0.296052 206:0.699743 207:0.282637 208:0.080357 209:0.244361 210:0.45936 211:0.495964 212:0.600566 213:0.308773 214:0.42557 215:0.404428 216:0.084964 217:0.369971 218:0.627895 219:0.378286 220:0.469314 221:0.097744 222:0.52903 223:0.391173 224:0.575484 225:0.321279 226:0.45627 227:0.374625 228:0.117052 229:0.649124 230:0.713817 231:0.560946 232:0.471483 233:0.509434 234:0.699943 235:0.236666 236:0.768064 237:0.410389 238:0.525042 239:0.579521 240:0.281882 241:0.537504 242:0.205363 243:0.759762 244:0.196552 245:0.61811 246:0.622441 247:0.548602 248:0.4067 249:0.802912 250:0.860879 251:0.322746 252:0.369544 253:0.355195 254:0.614449 255:0.398407 256:0.593407 257:0.498008 258:0.634861 259:0.205148 260:0.787265 261:0.459635 262:0.557911 263:0.400364 264:0.231838 265:0.43163 266:0.564883 267:0.445758 268:0.543651 269:0.098425 270:0.663764 271:0.387707 272:0.603346 273:0.495708 274:0.596089 275:0.423462 276:0.224553 277:0.287285 278:0.835995 279:0.264134 280:0.599251 281:0.674419 282:0.625951 283:0.331688 284:0.590275 285:0.299554 286:0.378194 287:0.682512 288:0.09619 289:0.239857 290:0.796379 291:0.278964 292:0.503597 293:0.626923 294:0.680033 295:0.293222 296:0.602506 297:0.288567 298:0.401638 299:0.551651 300:0.099033 301:0.215723 302:0.600033 303:0.320107 304:0.492647 305:0.532819 306:0.683741 307:0.315354 308:0.601112 309:0.15448 310:0.245895 311:0.446798 312:0.244066 313:0.547423 314:0.683073 315:0.476526 316:0.653992 317:0.310757 318:0.549606 319:0.453761 320:0.568491 321:0.315727 322:0.442192 323:0.567363 324:0.378318 325:0.216071 326:0.783116 327:0.196393 328:0.490706 329:0.426829 330:0.499375 331:0.403382 332:0.451259 333:0.176048 334:0.286192 335:0.554074 336:0.1474 337:0.241356 338:0.67744 339:0.273996 340:0.574627 341:0.509804 342:0.613493 343:0.337897 344:0.620436 345:0.144299 346:0.258463 347:0.542516 348:0.197038 349:0.63124 350:0.153503 351:0.759863 352:0.669145 353:0.071429 354:0.379515 355:0.447418 356:0.483607 357:0.314551 358:0.489599 359:0.480708 360:0.34473 361:0.543125 362:0.574918 363:0.471045 364:0.272727 365:0.5 366:0.382064 367:0.639946 368:0.529067 369:0.322099 370:0.46517 371:0.752145 372:0.43993 373:0.239469 374:0.663638 375:0.259165 376:0.285714 377:0.218045 378:0.28466 379:0.618982 380:0.469273 381:0.148844 382:0.273927 383:0.32722 384:0.112494 
0.11566944556720186 0.0 0.05971793096588794 0.0 0.0 0.013135779671306734 1:0.279283 2:0.048146 3:0.280927 4:0.013216 5:0.56044 6:0.301698 7:0.468115 8:0.459318 9:0.082388 10:0.385476 11:0.931913 12:0.085423 13:0.339163 14:0.588003 15:0.354135 16:0.458333 17:0.007353 18:0.214021 19:0.426884 20:0.415394 21:0.299508 22:0.321587 23:0.757877 24:0.136424 25:0.740327 26:0.538401 27:0.681529 28:0.664032 29:0.482394 30:0.631715 31:0.6577 32:0.522551 33:0.271114 34:0.376671 35:0.451709 36:0.568792 37:0.560535 38:0.240032 39:0.703925 40:0.20073 41:0.452756 42:0.674237 43:0.576402 44:0.568196 45:0.480748 46:0.58251 47:0.179715 48:0.521949 49:0.231533 50:0.319417 51:0.614157 52:0.761538 53:0.207031 54:0.421749 55:0.855506 56:0.190667 57:0.504856 58:0.615592 59:0.319531 60:0.152033 61:0.781448 62:0.776286 63:0.537867 64:0.458042 65:0.066946 66:0.783366 67:0.58614 68:0.564889 69:0.268888 70:0.471665 71:0.632544 72:0.316763 73:0.242239 74:0.160709 75:0.544209 76:0.06338 77:0.543147 78:0.465249 79:0.554123 80:0.387455 81:0.467904 82:0.51787 83:0.420424 84:0.356496 85:0.393424 86:0.722224 87:0.270824 88:0.388112 89:0.304878 90:0.562354 91:0.629504 92:0.484615 93:0.171401 94:0.257248 95:0.527418 96:0.210677 97:0.193092 98:0.697645 99:0.120207 100:0.737201 101:0.655462 102:0.50228 103:0.733046 104:0.261545 105:0.11669 106:0.206882 107:0.399248 108:0.063524 109:0.268415 110:0.44713 111:0.342506 112:0.733564 113:0.704641 114:0.36989 115:0.718014 116:0.219237 117:0.242657 118:0.390837 119:0.332729 120:0.271413 121:0.550194 122:0.785494 123:0.362297 124:0.446367 125:0.323194 126:0.790225 127:0.622404 128:0.721479 129:0.44247 130:0.552456 131:0.67114 132:0.224594 133:0.261219 134:0.41451 135:0.37254 136:0.694444 137:0.506073 138:0.381947 139:0.547296 140:0.25017 141:0.300596 142:0.461208 143:0.42152 144:0.099582 145:0.544629 146:0.627286 147:0.509762 148:0.404332 149:0.658635 150:0.700689 151:0.45004 152:0.60632 153:0.351531 154:0.493453 155:0.302124 156:0.204404 157:0.865905 158:0.478873 159:0.863127 160:0.064516 161:0.370909 162:0.613603 163:0.389247 164:0.702712 165:0.4845 166:0.732862 167:0.34591 168:0.19742 169:0.604926 170:0.401098 171:0.647624 172:0.299296 173:0.570922 174:0.21198 175:0.155373 176:0.675366 177:0.621371 178:0.750439 179:0.80785 180:0.042494 181:0.620897 182:0.0 183:0.620897 184:0.298969 185:0.0 186:0.280982 187:0.202354 188:0.604753 189:0.270778 190:0.41393 191:0.595918 192:0.124879 193:0.239423 194:0.73251 195:0.255382 196:0.012712 197:0.097778 198:0.60988 199:0.824286 200:0.331992 201:0.046199 202:0.206815 203:0.685625 204:0.171141 205:0.213281 206:0.495142 207:0.356118 208:0.102679 209:0.721805 210:0.407884 211:0.615379 212:0.420853 213:0.311643 214:0.421283 215:0.284992 216:0.167502 217:0.486725 218:0.405331 219:0.568294 220:0.501805 221:0.116541 222:0.457902 223:0.350867 224:0.606987 225:0.357324 226:0.492641 227:0.360568 228:0.314676 229:0.591883 230:0.638772 231:0.57425 232:0.505703 233:0.396226 234:0.713268 235:0.206167 236:0.81856 237:0.376481 238:0.491589 239:0.530594 240:0.326989 241:0.337382 242:0.488431 243:0.476967 244:0.306897 245:0.125984 246:0.643673 247:0.530528 248:0.419976 249:0.403083 250:0.529612 251:0.514953 252:0.229726 253:0.268599 254:0.206572 255:0.622531 256:0.29304 257:0.537849 258:0.626939 259:0.279521 260:0.660649 261:0.416227 262:0.517925 263:0.174418 264:0.673515 265:0.602795 266:0.47722 267:0.612894 268:0.539683 269:0.11811 270:0.671339 271:0.385729 272:0.586963 273:0.349709 274:0.453831 275:0.673163 276:0.546112 277:0.307142 278:0.825879 279:0.286214 280:0.719101 281:0.251938 282:0.679975 283:0.284817 284:0.666197 285:0.311041 286:0.388329 287:0.604167 288:0.068982 289:0.177677 290:0.856723 291:0.190776 292:0.316547 293:0.323077 294:0.700492 295:0.29369 296:0.593656 297:0.169177 298:0.260919 299:0.593754 300:0.110102 301:0.277652 302:0.741269 303:0.27895 304:0.683824 305:0.413127 306:0.746809 307:0.253961 308:0.71121 309:0.158885 310:0.250153 311:0.567486 312:0.182388 313:0.22073 314:0.583681 315:0.336619 316:0.39924 317:0.533865 318:0.563272 319:0.360167 320:0.713208 321:0.176472 322:0.278831 323:0.368537 324:0.362745 325:0.236805 326:0.870383 327:0.161145 328:0.490706 329:0.219512 330:0.624326 331:0.364463 332:0.522458 333:0.116532 334:0.203268 335:0.634481 336:0.220402 337:0.34577 338:0.51235 339:0.426961 340:0.395522 341:0.34902 342:0.624967 343:0.342829 344:0.608139 345:0.188955 346:0.318478 347:0.454497 348:0.394379 349:0.341385 350:0.204245 351:0.580014 352:0.754647 353:0.087302 354:0.369544 355:0.426042 356:0.497896 357:0.250513 358:0.421176 359:0.356279 360:0.371571 361:0.470738 362:0.478834 363:0.482235 364:0.30303 365:0.507194 366:0.408763 367:0.688905 368:0.487702 369:0.300786 370:0.440174 371:0.502077 372:0.285947 373:0.382934 374:0.596357 375:0.36555 376:0.320463 377:0.676692 378:0.28466 379:0.671308 380:0.403635 381:0.130419 382:0.246411 383:0.431746 384:0.170185 
