svm_type c_svc
kernel_type linear
nr_class 10
total_sv 5879
rho -0.993318694020044 -1.0120807910903862 -0.9968018130142651 -1.002933342379946 2.7087913097092833 13.275907450138137 21.76903794160683 8.706357577474849 -3.6117597375178554 -7.7108152587682435 -16.24103339405234 -2.2278155961546537 -0.8666544283746541 1.0068150605385109 1.0038219174291132 1.0125359989120484 -8.280328684579608 7.22505168062813 0.9735519456403069 2.2788766547393746 1.006463880460786 0.9999195339019115 0.998713751764337 -4.379991337613074 0.998962728162448 1.0045670540125224 1.0026269289892813 1.0009123276524519 1.0017521050447007 -4.495064697129321 11.80490105053119 1.0061728859672032 17.298352228680145 1.007385867062942 -2.9091712110615586 1.0073162052290043 3.93840914107243 1.0017256826413397 -2.094682463527083 1.4792345990569613 -5.454049561913313 -1.856480647622864 -7.836316632827479 -3.238520288202257 -2.245694222880405
label 1 2 3 4 5 6 7 8 9 10
nr_sv 983 72 3 30 452 482 1623 1000 1233 1
SV
0.0 0.0 0.0 1.0 1.0 1.0 1.0 1.0 0.0 1:8.690603412340026 2:8.691836231088123 3:-6.264331931880902 4:9.075252714930347 5:-8.463062471620324 6:5.745394557367727 7:-2.302236194610144 8:1.1290154480607797 9:-1.1136142596339966 10:-1.285483471621814 11:0.8052326434422883 12:1.1588641095213952 
0.0 0.0 0.0 1.0 1.0 1.0 1.0 1.0 0.0 1:7.9551998721576025 2:10.054034603315785 3:-3.6604941797622104 4:9.819820641601611 5:-7.370663332928043 6:5.386443630825875 7:-3.4427527164592817 8:0.3182311255387463 9:0.011466899226508209 10:-0.9292577681148492 11:0.379627271130402 12:1.3222921922391482 
0.0 0.0 0.0 0.0 1.0 1.0 1.0 1.0 0.0 1:7.200117227594403 2:9.236046170090463 3:-4.165761018671587 4:8.964791460908623 5:-9.093877637287086 6:4.752899811167247 7:-3.7281439256834847 8:0.15213562791207147 9:0.9075045908285164 10:-1.4953470640060786 11:0.6957672435050009 12:1.029900653265777 
1.0 0.0 0.0 1.0 1.0 1.0 1.0 1.0 0.0 1:8.372277885813277 2:9.122516928811324 3:-5.331993980694012 4:8.717272127068547 5:-7.282694842383992 6:5.795155080688959 7:-2.915599672226236 8:1.2302623377380069 9:0.8220852735106609 10:-0.4868544023583527 11:0.23602817009360744 12:1.3844172593927058 
0.0 0.0 0.0 0.07126813235905158 0.21031664800845734 1.0 1.0 1.0 0.0 1:4.7061858830446575 2:7.809059668688115 3:-3.9232128505869763 4:8.268329944473093 5:-7.82254244896789 6:5.055270234501642 7:-3.619445105127435 8:-0.5555433834820512 9:1.0307166598095021 10:-2.4653999055617475 11:1.0286924334428402 12:1.1652078360486395 
0.0 0.0 0.0 0.0 0.0 0.0 1.0 0.0 0.0 1:4.9495695972996305 2:3.6368584321902464 3:-7.539555424484614 4:10.17920194774059 5:-8.400268736591633 6:6.302261482551532 7:-1.9673417273236438 8:0.3989142591303862 9:1.6587722141748191 10:-1.7522709707523139 11:2.226462858179855 12:1.4724733997515356 
0.0 0.0 0.0 0.0 1.0 1.0 1.0 1.0 0.0 1:6.458959764825678 2:7.860537598521453 3:-4.870646210933866 4:9.009142531714133 5:-7.401866525720325 6:5.919789607200763 7:-2.7200286207310134 8:0.5787172494995596 9:1.6239585513851034 10:-1.080466903690834 11:1.320073109633972 12:1.6729223578546444 
0.0 0.0 0.0 1.0 1.0 1.0 1.0 1.0 0.0 1:7.43652533749049 2:9.1567973068522 3:-4.334822787748464 4:9.481633116721925 5:-8.790088105647179 6:5.469361427203229 7:-2.9325522746553205 8:-0.14757731456889409 9:-0.02850016369505253 10:-0.9462550805213206 11:1.1155854702041712 12:1.0452975073963175 
0.0 0.0 0.0 0.5745358260677822 0.0 1.0 0.0 1.0 0.0 1:7.807405867927743 2:5.2027597096845435 3:-7.766122607633923 4:10.85124864819362 5:-12.508443067336986 6:4.1371878335140995 7:-3.270305323180064 8:-0.9180358980506708 9:0.9259051706360754 10:-0.1038066275746976 11:0.9894162917093181 12:0.4462042378210143 
0.0 0.0 0.0 0.0 0.0 1.0 1.0 0.0 0.0 1:4.193307900276908 2:2.3814504259595126 3:-9.950753671968284 4:9.322618814404581 5:-10.297679062010353 6:3.421012956857638 7:-3.8867761873481528 8:-0.6226532914856876 9:-0.09889467921029012 10:-1.6319132740735958 11:0.509177329912708 12:0.48994094260917354 
0.0 0.0 0.0 1.0 1.0 1.0 1.0 1.0 0.0 1:8.290185408770638 2:9.125488124009232 3:-4.8271322031966095 4:10.429750300321896 5:-7.020419455484287 6:5.288820191553419 7:-4.29384920482135 8:-0.028957493186986132 9:-0.25034666437511144 10:-0.2898361833862259 11:0.4995099589972867 12:0.8072400823862518 
0.0 0.0 0.0 0.0 0.0 1.0 1.0 1.0 0.0 1:5.298088810635204 2:6.773822072837024 3:-5.833655184932019 4:8.335386432206976 5:-8.112631987497391 6:5.790668192493462 7:-2.6753698161330957 8:-0.3024314181402279 9:-0.24658194398132205 10:-1.772703888393305 11:1.5242833830368445 12:0.7798585012351258 
0.0 0.0 0.0 0.0 1.0 1.0 1.0 1.0 0.0 1:4.022714112612766 2:6.751192001863567 3:-3.32200755912408 4:10.614178557179908 5:-8.126795015259379 6:4.894954053687259 7:-3.2661169545156095 8:-0.22860912123453264 9:2.370872145497948 10:-1.2608800977333916 11:0.5983914455074768 12:0.3675404943957572 
0.0 0.0 0.0 0.0 0.0 1.0 1.0 1.0 0.0 1:6.151785500892328 2:6.897527894866187 3:-6.181080192106729 4:8.525596461695365 5:-9.090193588915762 6:4.768619842884061 7:-4.534172322969873 8:-1.634107450471718 9:0.2755564702376638 10:-0.8556224916042122 11:0.23655177861694124 12:0.4840418245403176 
0.4062407917647843 0.0 0.0 0.0 0.0 1.0 1.0 0.0 0.0 1:3.062448986760736 2:5.013215794895302 3:-4.4131559935639855 4:10.055924562719653 5:-8.549707582256742 6:4.202402256699868 7:-3.0481540248292847 8:-0.069265489374151 9:2.215276832204286 10:-1.0560429422088056 11:1.6072893948059759 12:-0.5314014102775706 
0.0 0.0 0.0 0.4199959878457451 0.0 1.0 1.0 1.0 0.0 1:9.229134491599087 2:6.8197242436072205 3:-7.885859589623909 4:10.33455299794625 5:-10.421451962496622 6:4.263140403852182 7:-3.2653997632780074 8:0.9228152736022729 9:-0.7849300120521335 10:-1.1309226371691459 11:0.4791164768080281 12:0.41895899196995623 
0.0 0.0 0.045170766851443264 1.0 0.0 1.0 0.0 1.0 0.0 1:9.172319913834702 2:7.230313035414962 3:-8.130800442525027 4:8.1089659024731 5:-9.587733506062218 6:5.671298408424261 7:-3.534440853431661 8:0.11074722292707503 9:0.02976447263084696 10:-1.9590080461339576 11:1.6666416679819653 12:1.4959855204573393 
0.0 0.0 0.0 0.0 0.0 1.0 1.0 1.0 0.0 1:6.494416217842902 2:6.705089921247687 3:-5.115621687909648 4:11.41767108067204 5:-9.766050032003433 6:3.4817610340417047 7:-4.200179178055876 8:-0.006231223777923906 9:0.5069709444675178 10:-2.132157435615264 11:0.6840926599178917 12:0.5370229474318516 
0.0 0.0 0.0 0.0 0.0 1.0 1.0 1.0 0.0 1:7.517934865147634 2:6.3647983870301115 3:-7.435613073190773 4:9.5180422846975 5:-10.730734458941106 6:4.623893828663252 7:-3.080597060861024 8:-0.39188411196513023 9:-0.09381579868458925 10:-0.8649153525451697 11:0.3237003253311071 12:0.6947090886602008 
0.0 0.0 0.0 0.015241400538786322 1.0 1.0 1.0 1.0 0.0 1:7.733585399212093 2:7.008748307962993 3:-6.356063158322587 4:10.181384374883168 5:-10.553038965807922 6:4.053318550222101 7:-3.59351599740189 8:-0.2968556297193218 9:0.6732022640500348 10:-0.5733226111381635 11:0.1649176668191701 12:0.30212174804455877 
6.338417906852906E-4 0.0 0.0 1.0 1.0 1.0 1.0 1.0 0.0 1:7.170127136087019 2:9.766645703339119 3:-3.6990551476829356 4:8.60096450669863 5:-7.981069694032233 6:5.747845096725181 7:-2.6536003975222444 8:0.2290603840863949 9:0.36455149461479697 10:-1.0229679466094233 11:0.6318492560429478 12:1.1549888618917665 
0.5262223002696449 0.0 0.7446542621521689 1.0 1.0 1.0 1.0 1.0 0.0 1:7.7257005760358 2:6.524514952500027 3:-7.729285784743552 4:7.641493923307642 5:-9.599007963113143 6:6.731453759302282 7:-2.8090002179874776 8:-1.7068671703184033 9:-0.417981053822494 10:-0.9384584119791828 11:-1.2245958606852108 12:-1.0164606711937834 
0.21223741704179996 6.353735304478001E-4 0.0718179172108826 1.0 1.0 1.0 1.0 1.0 0.0 1:9.61939388585495 2:5.9408857034228255 3:-7.72325648425737 4:13.228284029442186 5:-8.011707292830323 6:5.60177318451643 7:-3.6563681989362578 8:-0.2581956100299851 9:0.38631075546977206 10:1.28115885442075 11:0.0826849755485258 12:-0.19870549182291006 
2.3991934839228578E-4 0.0 0.058280296374801276 1.0 1.0 1.0 1.0 1.0 0.0 1:8.496433154453173 2:6.190172900536968 3:-6.881612044413244 4:11.094738627003368 5:-8.336116937393268 6:4.896229920644867 7:-3.8043698041512117 8:0.4030520298637162 9:0.8934424218653361 10:-0.34444262513948715 11:0.3834651447911441 12:0.4668163413946581 
0.0 0.0 0.0 0.0 0.0 1.0 1.0 1.0 0.0 1:7.255312724848748 2:4.920316606495007 3:-7.551194983676464 4:11.033925871130386 5:-11.780224969543864 6:4.089209605881228 7:-3.3916445457365922 8:-0.8852626350448188 9:0.9576856301221348 10:-0.15654683223812838 11:0.7017604161457454 12:0.01947094466621801 
1.0 0.0 1.4637324119230207E-4 1.0 1.0 1.0 1.0 1.0 0.0 1:6.354214058682745 2:8.701636856024578 3:-3.66457387914878 4:8.880709482548932 5:-6.997393690699289 6:6.091623722865708 7:-2.506652417335699 8:0.34294520840425596 9:1.428241699015532 10:-1.065094481557305 11:1.0813656732533403 12:1.9126114619548713 
0.0 0.0 0.0 0.35632780475294723 1.0 1.0 1.0 1.0 0.0 1:8.331049139446051 2:7.097562836444529 3:-6.580118469902503 4:10.384070205394808 5:-9.234439513349388 6:4.3180038753731065 7:-3.818092273130263 8:-0.24738425989998378 9:-0.40984213010635473 10:-0.8406230585968626 11:0.115461588126465 12:0.21690054324908517 
0.0 0.0 0.0 1.0 1.0 1.0 1.0 1.0 0.0 1:10.10829257383004 2:7.0259579718321845 3:-7.950913056498881 4:11.389463547150548 5:-9.54200450377486 6:3.897819335795773 7:-3.7399475723473294 8:0.736628200590733 9:-0.6942899805040484 10:0.33442486518835773 11:0.5339184264360156 12:0.7910205030049396 
0.0 0.0 0.0 0.0 0.0 1.0 1.0 1.0 0.0 1:7.816409375622067 2:5.062575964963957 3:-8.164208066642203 4:10.052326660969337 5:-10.39823590522894 6:5.043559592525741 7:-3.0445933554550164 8:-0.5326293999826536 9:0.0975080972154591 10:-1.168778265595099 11:1.4871478979885877 12:0.9313160440263241 
0.0 0.0 0.0 0.0 0.0 1.0 0.0 1.0 0.0 1:7.240443995795518 2:7.379611858168191 3:-5.740110655029465 4:10.39546561432125 5:-8.002484245767317 6:4.249282019648291 7:-3.9015919586634 8:1.123757805357536 9:0.07713414731141377 10:-1.3631355712793962 11:1.3294210365473296 12:1.3683688336419362 
0.0 0.0 0.0 0.0 1.0 1.0 1.0 1.0 0.0 1:8.928728529435526 2:7.392659668722931 3:-7.93015680138276 4:8.663897311072782 5:-9.32895155829044 6:5.20068490113075 7:-3.25229720582139 8:0.7014147499673413 9:0.12272760180351731 10:-0.24314765196273813 11:0.5170071578856099 12:1.7154836980490993 
0.0 0.0 0.0 0.0019395595885525266 0.0 0.0 0.0 0.0 0.0 1:6.339523103420984 2:5.052230079135188 3:-8.259339216785964 4:9.453739229249836 5:-8.740020832293832 6:4.389602626655053 7:-4.054924687899025 8:0.9087557229097356 9:0.8847016695038802 10:-1.7062336680194572 11:2.600742929957087 12:1.335009328725893 
0.0 0.0 0.0 0.0 0.0 1.0 1.0 0.0 0.0 1:6.042480354072768 2:4.707076316723278 3:-8.815979176818642 4:8.790143538933801 5:-10.626741471279896 6:3.571812753375486 7:-3.9249144305589736 8:-0.4362494861070866 9:-0.6818008889318701 10:-2.140429560542396 11:0.17769167436213043 12:0.11545950951793825 
0.0 0.0 0.0 0.9209441864164533 0.0 1.0 1.0 1.0 0.0 1:7.32121321822222 2:5.282841663282691 3:-9.16643639218789 4:8.159686853924695 5:-11.20746100982546 6:5.7752070275556715 7:-2.286716054742922 8:-0.8966844066739049 9:0.2858822212021811 10:-0.28871259983871367 11:-0.0011437132977654152 12:0.004719536924946369 
0.0 0.0 0.0 0.3775548860141459 0.0 1.0 1.0 1.0 0.0 1:6.918925487470525 2:4.294719962261905 3:-8.98456908599349 4:10.625326840978714 5:-11.238314285203796 6:3.230676110116586 7:-4.165841806122121 8:-0.8404480861981493 9:-0.010639735363456661 10:-2.174101610352504 11:-0.7877643757682685 12:-0.06789779296821262 
0.0 0.0 0.0 0.0 0.0 1.0 1.0 0.0 0.0 1:8.350044339400402 2:5.885646156413949 3:-8.593465584134371 4:9.477030521399035 5:-11.979821655934998 6:3.8280300069492905 7:-3.578464274080282 8:0.06658594696116996 9:0.209530280412121 10:-0.42691106424702446 11:0.07984769102421285 12:0.2920433597443277 
0.0 0.0 0.0 1.0 1.0 1.0 1.0 1.0 0.0 1:8.32870490050185 2:8.545942728999593 3:-5.066234575605744 4:11.048696887725983 5:-9.294165285829777 6:4.569932019610794 7:-3.4859679686090814 8:-0.9900592999080787 9:-0.6456773607631044 10:0.1893116634987633 11:0.5335439551307047 12:0.322265322203167 
0.0 0.0 0.0 1.0 1.0 1.0 1.0 1.0 0.0 1:9.634709271369802 2:8.59700826623885 3:-7.030575205864554 4:8.976420427502571 5:-8.187208274731447 6:5.338626011075092 7:-3.3800681362139433 8:0.7420228666408926 9:-1.2166913430498403 10:0.26712405259725786 11:0.43995515175345556 12:1.3166376563968711 
0.012368825100111825 0.0 0.0 0.0 1.0 1.0 1.0 1.0 0.0 1:7.926423999178302 2:7.992662511898595 3:-7.272238612855712 4:8.371451372552084 5:-9.332477246092763 6:3.911463800562254 7:-4.3664182278950685 8:-0.5328209648287067 9:-1.1250684909790754 10:-1.4548962533183112 11:-0.494052836674279 12:1.2050474296985836 
0.0 0.0 0.0038606497519301 0.0 0.0 1.0 1.0 0.0 0.0 1:5.794936951041483 2:5.827415227636293 3:-7.761920346919732 4:6.921332762651204 5:-8.815501292701436 6:4.93805798382874 7:-4.399689688168328 8:-0.9912836169191143 9:0.5190711117444639 10:-0.8850119616227065 11:0.5317683253479708 12:0.807865925327587 
0.0 0.0 0.0 0.0 1.0 1.0 1.0 1.0 0.0 1:6.2189554484881535 2:7.966205657583549 3:-3.689456695802819 4:10.887320959999178 5:-7.546897092756692 6:5.296226674940787 7:-3.152190308648743 8:-0.07370560633467835 9:0.06395643659661965 10:-1.6255912208304004 11:1.0780791375681955 12:0.945799584984118 
0.0 0.0 0.0 0.0016579297705556645 0.0 1.0 1.0 0.0 0.0 1:4.910254076830403 2:4.316739905471422 3:-7.118679412886401 4:10.512843101653692 5:-9.60547583656888 6:3.3585516606491277 7:-4.622837470684887 8:-1.3234063293312923 9:-0.029929159814828746 10:-2.0859271621106728 11:0.8833074869770593 12:-0.4178913199784798 
0.0 0.0 0.0 1.0 1.0 1.0 1.0 1.0 0.0 1:9.460405467061078 2:8.33045655970891 3:-6.421094818463119 4:10.546939201705083 5:-6.9054603266427685 6:5.498935112017013 7:-4.07177062218806 8:0.13120020208492958 9:-1.0032547764251607 10:-0.23143032785889567 11:0.7780077982677613 12:0.919686821956726 
0.0 0.0 0.0 0.0 1.0 1.0 1.0 1.0 0.0 1:9.793940128364344 2:7.144738536225972 3:-8.498246310085932 4:9.808002669529342 5:-9.711671331725315 6:4.924751017132699 7:-3.1995676405603266 8:0.5092216956156536 9:-0.8995579786109059 10:-0.12360600015141855 11:0.4504714697587228 12:1.2872917228342926 
0.0 0.0 0.0 0.0 1.0 1.0 1.0 1.0 0.0 1:7.739942047601116 2:6.4204539120447786 3:-7.339873012784226 4:10.0854991181377 5:-8.320007103160478 6:5.330299553561475 7:-3.607553436254408 8:0.04206251926523978 9:0.26279053659810125 10:-1.3010757025506423 11:0.6556953296751493 12:1.2402391590650055 
0.0 0.0 0.0 0.6715075432177289 0.0 1.0 0.0 1.0 0.0 1:8.088965441715054 2:5.4631535454134 3:-7.170375065013644 4:11.813377359484996 5:-8.53524208230389 6:4.790262908153905 7:-3.79671937202114 8:-0.7587349000028674 9:-1.4773073070903087 10:-0.5175643152751535 11:2.2623362268495937 12:-0.024642502972529234 
0.0 0.0 0.0 0.0 1.0 1.0 1.0 1.0 0.0 1:6.1042327785707 2:8.23904036912969 3:-4.5318575034761395 4:8.55998761484033 5:-8.132661892249958 6:6.09977742812422 7:-2.4248055598723828 8:0.3410894511353788 9:1.3274528733915403 10:-1.078213385108174 11:1.2385610733330643 12:1.179365477383877 
0.07209547168195694 0.0 0.18428997021236077 0.0 0.0 1.0 1.0 0.0 0.0 1:3.7501788201463695 2:5.701158942674069 3:-6.8337926782328395 4:5.741876809899405 5:-9.86828026050362 6:3.314741517271413 7:-4.146253532946442 8:-0.3686314250353103 9:0.10236968424245599 10:-3.5404029001218746 11:2.116297605245564 12:0.6810176306539716 
0.7809240678129175 0.0 0.0 0.0 0.0 0.0 1.0 0.0 0.0 1:3.3124673903265314 2:1.5027856628853378 3:-10.053487760619609 4:10.036357636391822 5:-11.107117520555938 6:2.3126617649012124 7:-4.989858955631092 8:-1.4194693225235337 9:-0.9673653753988848 10:-1.1140480310107035 11:1.1748394008373504 12:0.9677387102865754 
2.3888093746841005E-4 0.0 0.0 1.0 0.0 1.0 1.0 1.0 0.0 1:9.290988823377221 2:4.629953710966926 3:-9.61474717914636 4:11.711115892483729 5:-9.194204769807538 6:3.949662822498771 7:-4.357537763385399 8:-0.14588783186144882 9:-1.433433783801769 10:0.5876776515406938 11:0.9782947017598639 12:-0.12922587259964047 
0.0 0.0 0.0 1.0 1.0 1.0 0.0 1.0 0.0 1:7.527042973695681 2:8.185903184938773 3:-5.163601379970739 4:9.723989936746154 5:-7.871225423170057 6:5.78187934072108 7:-3.063856979834411 8:0.5439111359459669 9:1.3100785677620614 10:-0.8673900377860767 11:1.1411467422279018 12:1.5725464290494011 
0.12888704057472405 0.0 1.0053883964540627E-4 0.0 0.0 1.0 1.0 0.0 0.0 1:4.651708659857519 2:3.231449855305965 3:-9.148798417466903 4:8.082887533609446 5:-8.291720920582799 6:4.97536441217798 7:-3.3943435158684614 8:0.45526342551873 9:0.8141310631551016 10:-1.7157089860852697 11:0.8635011238515161 12:0.018433207672342654 
1.0 0.007088437651002935 0.9866494205758938 1.0 1.0 1.0 1.0 1.0 0.0 1:12.753433322082067 2:9.842184158061038 3:-7.117482712474515 4:11.274136013836987 5:-8.85295952930775 6:4.886512171696853 7:-3.148822318422978 8:1.2291992070409021 9:-1.4189295552131718 10:1.009324747826149 11:-0.4994088053411809 12:0.8571210445660717 
0.0 0.0 0.0 0.0 0.0 1.0 1.0 0.0 0.0 1:5.869478018493015 2:5.701609504488992 3:-6.804141263299605 4:9.8817187870353 5:-10.050616649459911 6:3.544821162442387 7:-4.218187228350672 8:-0.5504528046393365 9:0.14942298940703821 10:-1.2477772888689305 11:0.4424831505374049 12:0.1316007322592462 
4.620177490961266E-4 0.0 0.0 0.9137192640509165 1.0 1.0 1.0 1.0 0.0 1:8.674970523362383 2:8.807428441823571 3:-5.337362223520343 4:9.786271122361674 5:-8.794317008730195 6:4.87904471998165 7:-2.669633203191079 8:0.995762516364977 9:-0.36970174657113053 10:-0.369243628728054 11:0.6174906941905811 12:1.0177127393995504 
1.0 0.0 0.24810921094006444 1.0 1.0 1.0 1.0 1.0 0.0 1:11.176398884471057 2:10.364970878630519 3:-5.861075597096935 4:11.620892689812145 5:-8.084286894106931 6:3.550054528122751 7:-4.3217311310342 8:1.5362138264957943 9:-2.0828601351404754 10:-0.08917203944708535 11:-0.6981608809025479 12:0.7487950613804933 
0.0 0.0 0.0 0.0 0.0 1.0 1.0 1.0 0.0 1:5.41044350293161 2:5.469905220394928 3:-5.882722674364698 4:9.809091550241453 5:-8.564720277708764 6:5.179451894802662 7:-3.5683008154184606 8:-0.7208417865065114 9:1.4493656774668207 10:-0.4673701826562739 11:1.3125285007770437 12:0.10341360215907647 
0.0 0.0 0.0 0.00385907097256797 0.0 1.0 1.0 0.0 0.0 1:5.299311481130005 2:5.569633728631804 3:-6.124620150311706 4:10.069322780390388 5:-7.7728885317702465 6:5.8091705421944395 7:-3.4270171072941635 8:-0.6711728635458739 9:0.6380777381675943 10:-1.2624162781110517 11:1.5523514573370831 12:0.6276274214948875 
0.0 0.10622566574403822 0.0 1.0 1.0 1.0 1.0 1.0 0.0 1:8.656449022191127 2:9.369193414650926 3:-5.1616450558484255 4:9.646078687103486 5:-7.826199854541085 6:6.060499491756558 7:-2.9250324377900268 8:0.8310434826023413 9:0.7856798316173864 10:-0.8927031399857025 11:0.33642968758417163 12:1.4379860559626751 
0.0 0.0 0.0 1.0 1.0 1.0 1.0 1.0 0.0 1:9.750646053684356 2:8.358995176089444 3:-7.185342240934515 4:9.995272029511444 5:-8.926133094380424 6:4.430207863394229 7:-4.158207052366417 8:0.5570263536064316 9:-1.1168203562713248 10:-1.2484568257666255 11:-0.09194597112356365 12:0.9654977287331193 
0.0 0.0 0.0 0.0 0.0 1.0 1.0 1.0 0.0 1:5.422113953921302 2:6.887398295965968 3:-4.004790086291322 4:11.274882961099584 5:-8.170104097548306 6:4.642921146502229 7:-3.0986398731758538 8:-0.749198471110591 9:-1.1815979037614563 10:-1.6372324475112374 11:0.5974932972909665 12:-0.07560860221165047 
0.0 0.0 0.0 0.48174457684668587 0.0 1.0 0.0 1.0 0.0 1:6.71299978216566 2:7.997229361846236 3:-4.740768886585079 4:9.243957217287903 5:-8.920984052791745 6:5.129538888722085 7:-3.4426056355363976 8:-0.7623926830320432 9:-0.020385101021982065 10:-2.0710269205496097 11:1.8106415997407852 12:0.9926542854141486 
1.0 0.0 0.213303125614929 1.0 0.0 0.0 1.0 0.0 0.0 1:5.107773002112646 2:0.6572340797579875 3:-12.601380026847133 4:7.767941318045337 5:-13.024164322826673 6:5.051657199214171 7:-1.9954323236175566 8:-0.34811626237696885 9:0.5950219841204833 10:-0.6531611495345931 11:0.5826431523965557 12:-0.4251067472019967 
0.0 0.0 0.0 0.0 0.0 1.0 1.0 0.0 0.0 1:7.0031889398488065 2:4.478157973038615 3:-9.570375643824207 4:9.007666866566831 5:-8.72658597962644 6:4.6656089770645774 7:-3.7939506881171803 8:-0.0973757693852638 9:-0.8694412553633781 10:-0.7611223345851538 11:0.8618006438956485 12:0.9022982628772543 
0.0 0.0 0.0 0.0 0.0 1.0 1.0 1.0 0.0 1:7.18123317555414 2:6.962935397381511 3:-6.850957621151476 4:9.094358900088196 5:-8.138829800362876 6:5.78260714915959 7:-2.9047424865139537 8:0.049918463049389246 9:-0.3026738636299618 10:-1.3908364113220417 11:1.0468412017837536 12:1.16155880746488 
0.0 0.0 0.0 1.0 0.0 1.0 0.0 1.0 0.0 1:7.04157622005182 2:7.203982346047908 3:-5.695081693524008 4:10.016022745396183 5:-7.203076513483161 6:5.947620492022765 7:-3.638228287228694 8:-0.12405516641456572 9:0.9528829947312262 10:-0.4320980631282216 11:1.5804249234316832 12:1.079490662710831 
0.9990385199458335 0.0 0.4282893674206745 1.0 1.0 1.0 1.0 1.0 0.046045139865266906 1:9.124243515549152 2:9.145353919143842 3:-4.479564934712354 4:13.882117064923504 5:-7.005462189085638 6:3.7112600674783036 7:-4.288057624439934 8:1.1916554238420451 9:-1.6598895168114272 10:-0.704406344234317 11:0.18337168983011076 12:0.8239601902640845 
4.3583152100750344E-4 0.0 0.0 0.0 0.0 1.0 1.0 0.0 0.0 1:7.937857548136129 2:6.2781384268133245 3:-7.975679299577891 4:9.492079821740576 5:-9.505748105999983 6:4.343636193175843 7:-3.3206727193885217 8:0.2133087343571226 9:-0.949706177176041 10:0.9265571437454099 11:1.3625764738292725 12:1.845230630853747 
0.0 0.0 0.0 0.0 0.0 1.0 1.0 0.0 0.0 1:4.4544653449096705 2:3.9004746775847288 3:-7.562704532914614 4:9.20049923666093 5:-8.646003767694728 6:4.396577878305497 7:-3.7427895535928233 8:-0.5726684878677941 9:1.034119591539029 10:-1.80687358112441 11:1.3295106710326638 12:0.4196706500606043 
0.007588261446920295 0.0 0.0 0.0 0.0 1.0 1.0 1.0 0.0 1:8.258034781077544 2:7.118946874850552 3:-8.43499647856212 4:8.174004666815282 5:-10.340733371452599 6:3.7084493497114726 7:-3.948876064132466 8:0.22366848633343767 9:-2.285002818072183 10:-1.6024117299316547 11:-0.9970588054650211 12:0.10204916119246403 
0.0 0.0 0.0 0.0 0.0 1.0 1.0 1.0 0.0 1:7.752565586076653 2:8.182510844638353 3:-5.386956069985969 4:9.369926817339456 5:-9.424076268070328 6:5.11226853587652 7:-2.248754368814666 8:0.13689137939867482 9:-1.085021052688293 10:-0.500255843784898 11:1.0623960003040638 12:0.45095298414943796 
0.0 0.0 0.0 0.8227815671972178 1.0 1.0 1.0 1.0 0.0 1:9.8720935776919 2:7.658124244459547 3:-8.16756340876878 4:10.135117035152952 5:-8.325880690529456 6:5.504121591280647 7:-3.4044201232622253 8:0.651247167396024 9:-1.1853767858172393 10:-0.20454361266296056 11:0.6639934213003393 12:1.6550917123161974 
0.0 0.0 0.0 0.008371601429280222 0.0 1.0 1.0 1.0 0.0 1:5.734209389377047 2:3.3244377849539153 3:-8.71462055621946 4:10.611943398427117 5:-10.573684423637614 6:4.006214272265103 7:-3.4249490624351675 8:-0.4697337876584658 9:0.13065170735435477 10:-2.666134911069942 11:0.09075786326084115 12:0.1833793279262825 
0.0 0.0 0.0 1.0 0.0 1.0 0.0 1.0 0.0 1:7.440982881937412 2:8.16910828365903 3:-5.1590640840916935 4:9.612891645626613 5:-8.125355904675871 6:6.501544524883789 7:-2.5353784672734623 8:0.1566823558986851 9:0.4125150570223716 10:-1.0501565703062181 11:1.4973072308079327 12:1.3591415740215627 
0.0 0.0 0.0 1.0 1.0 1.0 0.0 1.0 0.0 1:7.715699430976467 2:9.264169410074006 3:-4.137322754053352 4:10.496513518144521 5:-7.730325934793193 6:4.684909411770054 7:-4.372718742349938 8:-0.19694854106439172 9:-0.3168883966675075 10:-1.531845858259638 11:1.0111248375316484 12:1.2935157288653267 
0.0 0.0 0.0 1.0 0.0 1.0 0.0 1.0 0.0 1:8.433300032578382 2:9.194114126103447 3:-4.802778311052114 4:10.052706383012167 5:-10.34888967730406 6:3.3905256292564383 7:-3.9785091591120616 8:0.5451522832833533 9:-0.43799650586355654 10:-0.971143048775259 11:1.273824540603085 12:0.9386436076959401 
0.0 0.0 0.0 1.0 1.0 1.0 1.0 1.0 0.0 1:9.00678286463554 2:9.981883971056682 3:-4.321736756053311 4:10.601346091886525 5:-8.390845884607547 6:5.055480930801726 7:-3.103260439426616 8:0.9921583580832386 9:-0.13857994935270807 10:0.013270475897321929 11:0.34954112998497144 12:1.4416490871698766 
0.0 0.0 0.0 0.0 0.0 1.0 1.0 1.0 0.0 1:4.972791418992452 2:7.859516229335303 3:-2.9945784904346686 4:9.605929379320635 5:-8.956909434661082 6:4.82256625964484 7:-3.133619419688052 8:-0.5309822832734415 9:1.4779791038416679 10:-1.929908917815251 11:1.5250745162528563 12:1.0134374200947256 
0.0 0.0 0.0 0.0 0.0 1.0 0.0 1.0 0.0 1:7.540345324363417 2:4.753727326303683 3:-8.757671524584604 4:9.537497710603008 5:-10.095880434883629 6:4.867083676028669 7:-2.391563962326183 8:1.352080876769476 9:1.1214625142891945 10:-0.7336896028827907 11:1.576853007580387 12:0.9065459887209119 
0.0 0.0 0.0 0.0 0.0 1.0 1.0 0.0 0.0 1:3.3996671637919187 2:6.559413227631268 3:-3.6196914082463665 4:9.408113286285872 5:-8.188930979351975 6:4.257082472812651 7:-2.8260881432096836 8:-0.10627049854981617 9:0.31559544146409674 10:-1.626589449220827 11:1.5198824139499596 12:-0.15647013020337955 
0.0 0.0 0.0 0.0 1.0 1.0 1.0 1.0 0.0 1:5.924333871227551 2:8.840358410100743 3:-3.435749228954455 4:9.954618825261257 5:-7.999474914577339 6:4.738379783134316 7:-3.7391370784353284 8:-0.17939541737457243 9:0.49042603476119645 10:-1.471984262858931 11:0.8686008501028978 12:1.113630711529289 
0.0 0.0 0.0 0.0 0.0 1.0 1.0 0.0 0.0 1:6.599316761693428 2:3.463128878283094 3:-9.736641710931083 4:10.778723455408974 5:-9.636257406625443 6:3.988606275752718 7:-3.7305847685249396 8:0.7086022857585743 9:-0.6881139561617413 10:-0.5207434806321808 11:0.5781087576257733 12:0.2980822641216079 
0.17059067797997135 0.0 0.0 0.0 0.0 0.0 0.0 0.0 0.0 1:3.433020640935689 2:4.884309982640029 3:-7.422458354082375 4:7.033168169664325 5:-10.896488240473964 6:2.1678959379676517 7:-5.1100886107413785 8:-0.31014374648168924 9:1.8162960118658766 10:0.22400449607482267 11:1.3199120837732106 12:-0.25849814921577075 
0.0 0.0 0.0 1.0 0.0 1.0 1.0 1.0 0.0 1:9.347964104148707 2:6.1538267181059965 3:-8.011013750374827 4:11.580587242029416 5:-8.534463619386361 6:4.2319146760901445 7:-3.802845231834241 8:1.2288114731473836 9:0.5315865993837993 10:-0.3542422074369186 11:0.7528535082785685 12:0.35583841067094946 
0.9892469217715724 0.0 0.6396827264900933 1.0 1.0 1.0 1.0 1.0 0.0 1:11.91379673974509 2:8.527269689570836 3:-9.167625254857608 4:8.267354955329631 5:-9.303667537961752 6:5.1542917023154 7:-4.060439886238527 8:0.5920377840750521 9:-1.559059275277545 10:0.05550701804582585 11:-0.10382514685321675 12:1.0504724405787578 
0.0 0.0 0.0 0.7347171744099992 1.0 1.0 1.0 1.0 0.0 1:8.500839233235068 2:10.104605533413226 3:-4.426544390285757 4:11.088176300690344 5:-8.055124169957372 6:4.770922647306292 7:-2.926481594509239 8:1.3657612134804868 9:-1.9373991483572153 10:-0.1431757333213687 11:0.5549049367805372 12:0.8948960229302291 
0.0 0.0 0.0 0.0 0.0 1.0 0.0 1.0 0.0 1:5.526235939714136 2:7.5999005483677 3:-4.590127129090774 4:8.974554004481798 5:-8.02990123312608 6:5.717640855636336 7:-2.4764399980161533 8:0.6448980441951622 9:1.4560829405139797 10:-0.8984875373345257 11:1.6265118752718595 12:1.2713565019502093 
0.0 0.0 0.0 0.0 0.0 1.0 0.0 0.0 0.0 1:5.628600228346567 2:5.06588966844273 3:-5.796286152246485 4:11.821862487620809 5:-8.185537851882094 6:4.035770995025541 7:-3.711833822152391 8:0.3570759820182336 9:0.9035306153231026 10:-0.5766065540469482 11:2.10258767762077 12:0.477995927108807 
0.0 0.0 0.0 1.0 1.0 1.0 1.0 1.0 0.0 1:9.921260109381885 2:8.981420805752197 3:-5.758161253456808 4:10.588572114979057 5:-9.370005049988247 6:5.436277233668343 7:-3.3565920686570685 8:-0.4966891504857192 9:-0.7430121279438943 10:-0.03447428674728988 11:-0.4551742218276777 12:0.3120698641042841 
0.0 0.0 0.0 1.0 0.0 1.0 1.0 1.0 0.0 1:6.3735386490513966 2:5.758432183117994 3:-5.846469547668698 4:12.336403287889464 5:-7.958294740929539 6:4.299206618475443 7:-4.32523974024223 8:-0.5517192859810776 9:-0.4066687537546033 10:-1.2330802805116274 11:0.8980819731632541 12:0.04543721182239231 
0.0 0.0 0.0 0.0 0.0 1.0 1.0 0.0 0.0 1:5.400351725809976 2:7.390550654034014 3:-5.5099524398252 4:8.33128560140579 5:-8.751329075299113 6:4.140398558250015 7:-4.0956882137528465 8:0.1780336527439808 9:0.8437336522939177 10:-1.5645522230558266 11:0.8540639034647115 12:0.923376663845844 
0.0 0.0 0.0 0.0 0.0 1.0 1.0 0.0 0.0 1:6.450729815931879 2:4.022887431029939 3:-8.553581708740628 4:10.613772650643455 5:-9.725684474307986 6:3.440343639906547 7:-4.109068693848413 8:-0.12868612930237022 9:-0.2842561967628817 10:-1.2936719618440513 11:0.45421961346825257 12:-0.2077478665757369 
0.0 0.0 0.0 1.0 0.0 1.0 1.0 1.0 0.0 1:5.063411744961959 2:6.603174914150915 3:-5.514296319705004 4:8.174911146983698 5:-7.925425145916032 6:5.045568934212312 7:-3.094946561055572 8:0.453549508737285 9:1.3557690665140465 10:-2.3722127440336753 11:1.2847042238081978 12:0.48481462884879034 
0.0 0.0 0.0 1.0 0.0 1.0 0.0 1.0 0.0 1:9.010819511845156 2:9.730348343068508 3:-5.689119760798397 4:8.194681827831067 5:-9.434914401652584 6:4.469079760382587 7:-4.630062708546408 8:-1.0300446005257209 9:-1.2189478311420758 10:-0.1734391672757057 11:1.3492351591066771 12:1.3851980949416485 
0.0 0.0 0.0 1.0 0.0 1.0 0.0 1.0 0.060204885206997925 1:9.240342677231846 2:7.633866129312782 3:-5.952794055889737 4:13.12576373593646 5:-7.852321724818474 6:4.177339507798639 7:-4.454007238255419 8:0.14715390345364363 9:-1.5219343572280768 10:-0.4674196532816438 11:1.1479049943229995 12:0.7583739750760374 
0.0 0.0 0.0 0.0 0.0 1.0 1.0 0.0 0.0 1:6.258872515662783 2:4.10114431427394 3:-8.230137538552844 4:10.68208191219014 5:-10.254755059840031 6:3.671283327246058 7:-4.592239234696079 8:-1.0865537417135391 9:0.7538419715625889 10:-1.3813514473198543 11:0.5888068452577575 12:0.2326183959370174 
0.0 0.0 0.0 1.0 1.0 1.0 1.0 1.0 0.0 1:9.164652652323614 2:9.627276800047753 3:-5.094214233510796 4:10.21758013576579 5:-7.662160171858577 6:5.9288117926251 7:-3.2300888738869546 8:0.37082917225961204 9:-0.5213382717338703 10:-0.5560008361826304 11:0.8684024500935242 12:1.8302366160264718 
0.8603912709909259 0.0 0.0 0.0 0.0 1.0 1.0 0.0 0.0 1:3.577406546798325 2:6.64601825388826 3:-3.4349205433362022 4:9.650104294865756 5:-7.304700793051091 6:4.186452827759296 7:-4.051108843782168 8:-0.12759403405343717 9:2.19968853620188 10:-1.9116400453589875 11:1.3315032183346884 12:0.8634162023187067 
6.909577342835192E-4 0.0 0.0 0.0 0.0 1.0 1.0 0.0 0.0 1:3.5309187313232613 2:3.669509933797661 3:-7.271574008259536 4:7.860918467939535 5:-8.615055320257314 6:5.7324804677877506 7:-2.329249540939343 8:-0.7994965457126341 9:0.16661957517139578 10:-2.3819198038048883 11:1.180042064603286 12:-0.22516687267649557 
2.552850898620443E-4 0.027293299385363085 0.0 1.0 1.0 1.0 0.0 1.0 0.0 1:10.920148411559675 2:9.920380092705154 3:-5.729906436767884 4:11.227443886128647 5:-8.749407182393039 6:4.6195131469684005 7:-4.160882704424169 8:0.21267737272711892 9:-0.6015494179912133 10:0.5227153455367953 11:0.38012309535388245 12:1.372213522675932 
0.0 0.0 0.0 0.0 0.0 1.0 1.0 1.0 0.0 1:7.242026111226207 2:7.080945930706169 3:-6.227563311286248 4:9.629372066374811 5:-8.030555794351985 6:5.295546121289009 7:-3.168312598376365 8:0.6952563761207936 9:0.4807310947905355 10:-0.7124066023243862 11:1.1476731117693924 12:0.8913902377112733 
0.0 0.0 0.0 1.0 0.0 1.0 1.0 1.0 0.0 1:8.511005640293225 2:6.025415055803599 3:-9.099818065497914 4:8.295668147449081 5:-11.401104871494836 6:5.35411326723694 7:-2.6137706279685653 8:-0.2561947225994385 9:-0.2589944747745859 10:-0.48052001296256364 11:-0.17428161190600647 12:0.2182783730498169 
0.0 0.0 0.0 0.0 0.0 1.0 1.0 1.0 0.0 1:5.88636145868352 2:7.463740270881816 3:-5.439716998762738 4:8.06887137994281 5:-8.60524693138739 6:4.861851921088422 7:-3.3332909333922527 8:0.6481838877961218 9:1.316102289874171 10:-1.8074102135158714 11:1.0952471753988673 12:0.9746939885886435 
0.0 0.0 0.0 0.0 0.0 1.0 1.0 0.0 0.0 1:6.10009945444031 2:4.100777397080454 3:-7.606664416756772 4:11.60243934460197 5:-9.438442206928759 6:3.223967337840089 7:-4.5514896490606045 8:-0.3374425961519406 9:0.20016931231007387 10:-0.9160806426293627 11:0.7914356226635743 12:0.044708650438457474 
0.0 0.0 0.0 0.0 1.0 1.0 1.0 1.0 0.0 1:8.411698849044416 2:5.718053446598258 3:-8.381976539459295 4:9.822235752564216 5:-9.499930353866441 6:4.991633385041932 7:-3.2119535556955845 8:0.238138564703767 9:0.002827325966756022 10:-0.17479066576118404 11:0.07659894489874695 12:0.3118495591609091 
0.0 0.0 0.0 1.0 0.0 1.0 0.0 1.0 0.0 1:7.601449264986965 2:5.623765143948159 3:-7.531876684342858 4:10.835825146844792 5:-7.983223259859077 6:4.723224346450078 7:-4.204509316820894 8:-0.2089635960051872 9:-0.09267068720827598 10:-0.4531629547394238 11:1.3976459126730931 12:0.69819467546339 
0.0 0.0 0.0 0.4876012788440353 0.0 1.0 1.0 1.0 0.0 1:9.166422435926043 2:7.698656618759943 3:-6.980606678406003 4:10.57132088314887 5:-10.749615833703942 6:3.85165920992721 7:-2.4165910462213667 8:0.6982797928095538 9:-1.5415654656210795 10:-0.6090050800266115 11:0.873906263275654 12:0.511149163265919 
0.0 0.0 0.0 0.0 0.0 1.0 1.0 0.0 0.0 1:6.653713565939067 2:4.644601192471117 3:-8.030917096194841 4:9.924576208912702 5:-11.10055943585528 6:4.471772872532016 7:-3.214383815166561 8:-0.4203088615065025 9:0.7987167497993071 10:-1.0292144998129553 11:0.6656808735641856 12:-0.1856902137996503 
0.0 0.0 0.0 1.0 0.0 1.0 1.0 1.0 0.0 1:9.867467682660363 2:5.021812930971198 3:-9.24837280941036 4:12.310671325001207 5:-12.052758856596965 6:4.5182080459766 7:-2.8542690070489867 8:-0.49251627866918485 9:-0.5647587357369284 10:0.6724745989002526 11:0.5208774996207112 12:0.7958067139706312 
1.0 0.0 0.842410501470238 1.0 1.0 1.0 1.0 1.0 0.0 1:5.126857066922727 2:8.905844096007721 3:-1.5686073904313627 4:12.270121196771822 5:-9.248962077028718 6:3.5424989663751885 7:-3.978052088929537 8:-0.6103840305199175 9:0.9429952202459939 10:-3.112816211641193 11:-0.6357276777296776 12:-0.022802099406952776 
0.0 0.0 0.0 0.0 0.0 1.0 1.0 1.0 0.0 1:5.7114822163054315 2:8.333326532508597 3:-3.6676967008886447 4:9.671536569476268 5:-8.376588013484774 6:5.4699497927198815 7:-2.783164448150564 8:-0.1649178023668422 9:0.677915843331627 10:-1.3549470674362152 11:1.3635656264164606 12:1.1248624230036077 
0.0 0.0 0.0 1.0 1.0 1.0 1.0 1.0 0.0 1:9.240679953057356 2:6.2844369963105144 3:-8.27010941708856 4:11.18625777138748 5:-8.546344137493437 6:4.532552033101084 7:-4.271309087681652 8:0.20621645067302485 9:-0.7640745416693056 10:-0.5056206904998899 11:-0.13065821975257905 12:-7.37452024019176E-4 
0.1957082816347845 0.0 0.0 0.7309908552871969 0.0 0.0 1.0 0.0 0.0 1:6.035696594374126 2:2.1344529131242194 3:-10.557007211484766 4:10.642971083628787 5:-9.644973151892358 6:4.337413028372842 7:-2.729131381156197 8:1.2106631429838695 9:0.8636983581789905 10:-0.753809970046504 11:1.4219883854043776 12:0.1821046538233897 
0.9754134981769926 0.0 0.0 1.0 1.0 1.0 1.0 1.0 0.0 1:9.559454280945403 2:6.43043294936742 3:-8.521933837366412 4:9.477898838550589 5:-9.853202148925421 6:6.481795951261932 7:-1.0688236030773555 8:1.8984427597847882 9:1.1856090311939347 10:0.13305152701230108 11:-0.35574689090034917 12:0.5851345556239198 
0.0 0.0 0.0 1.0 0.0 1.0 0.0 0.0 0.0 1:8.031636068240436 2:7.136930373948268 3:-7.853580321261079 4:7.602078326198282 5:-9.246252146943977 6:3.487836090461158 7:-5.048556874766845 8:-0.12130143197606248 9:-0.6089041069110694 10:-0.8634406268527058 11:1.2582289317599697 12:0.5535623700292749 
0.0 0.0 0.029968439653764358 1.0 1.0 1.0 1.0 1.0 0.0 1:10.275074790425638 2:9.672695790243962 3:-5.567347338482589 4:11.11387839111399 5:-7.557810852441046 6:5.531968749690806 7:-3.508884024976334 8:0.47799115916210916 9:-1.6533121056810074 10:0.15208381263579834 11:0.41403944930883113 12:1.388019599068107 
0.0 0.0 0.0 0.0 1.0 1.0 1.0 1.0 0.0 1:6.922701148475722 2:9.3430681335429 3:-3.889395258792657 4:9.077488888208254 5:-8.147864965857218 6:5.696788650098277 7:-2.7387729060520667 8:0.052806720517050376 9:0.09280493796105488 10:-1.1614546771858292 11:0.7694746388130902 12:0.8510488187811714 
0.0 0.0 0.0 0.36039871239323146 0.0 1.0 1.0 1.0 0.0 1:6.178697913676295 2:6.071383877509726 3:-6.085286153042307 4:8.443288287150077 5:-9.71457188068786 6:5.298637744603333 7:-2.6220634712376327 8:-0.24671868782703674 9:1.3265885399055304 10:-0.895727824668454 11:1.2284392513763165 12:0.169278281962936 
0.0 0.0 0.0 0.0 1.0 1.0 1.0 1.0 0.0 1:6.900627694142831 2:8.312989417883392 3:-4.318202096868682 4:9.42478027684031 5:-7.98014038184364 6:5.7472523005653136 7:-2.369108533701421 8:0.4585536458552053 9:0.7130649898179862 10:-1.1929129062915225 11:0.951668517728744 12:1.173053237106952 
0.0 0.0 0.0 0.0 1.0 1.0 1.0 1.0 0.0 1:9.708173941506075 2:8.448167242284251 3:-6.881221059246119 4:9.439526622143667 5:-8.985558265940542 6:5.344686972825192 7:-2.8785588431360116 8:1.2601925390491422 9:-0.037200549601696324 10:-0.35793074897916366 11:0.6926201864719009 12:1.6948121528562556 
0.0 0.0 0.08270152852767404 0.7736230854514731 1.0 1.0 1.0 1.0 0.0 1:5.534806843208827 2:9.067439524224605 3:-2.4451456547687203 4:9.791260948348704 5:-7.836015371421013 6:5.2780828926757435 7:-3.511533018731126 8:-0.7401119831802491 9:0.5860226718525229 10:-1.2775806706810748 11:0.4006577125279481 12:0.3748494973970192 
0.0 0.0 0.0 0.7866669153693482 0.0 1.0 1.0 1.0 0.0 1:8.100828335693452 2:4.800541993016244 3:-9.107968996565313 4:9.85682553232877 5:-10.210524546815439 6:4.515735923807799 7:-3.2096796466075492 8:-0.17746431621078498 9:-0.8827416144861328 10:0.0025168487984350515 11:1.3531298405193886 12:-0.17312135815833943 
0.0 0.0 0.0 1.0 0.0 1.0 1.0 1.0 0.0 1:8.648372250907103 2:4.712390914573037 3:-9.974136833751894 4:9.742896450310221 5:-9.872266108910024 6:5.3109788195420595 7:-2.9409233200284004 8:0.15621157934286498 9:-0.4808422296282373 10:-0.48781602838511623 11:0.6733140165946147 12:0.6852465189112703 
0.0 0.0 0.0 1.0 0.0 1.0 1.0 1.0 0.0 1:8.191010405000837 2:3.3332731221749157 3:-10.550655849922341 4:11.542884617918805 5:-10.039607372479232 6:4.788957184488486 7:-3.503588110515981 8:-0.7739737813958627 9:-1.1312633625416395 10:-0.5082494801962557 11:0.2775805513135985 12:-0.3917483872677894 
0.0 0.0 0.0 0.0 0.0 1.0 1.0 1.0 0.0 1:6.509668002150639 2:3.9953759643940177 3:-8.676781890992965 4:10.629115036662117 5:-10.18045364417196 6:4.743422855018393 7:-2.8706622340735355 8:-0.33916693339829146 9:-0.3653269530259854 10:-1.237670781334953 11:0.08932335487540895 12:-0.680102607526652 
0.9993092466899633 0.0 0.16491069461295815 0.7405083639429978 0.0 1.0 1.0 1.0 0.0 1:5.2902395028587454 2:6.04069230855353 3:-2.5070990067733336 4:16.42847275507651 5:-9.783447859858073 6:2.696308411746411 7:-2.7737095575724884 8:0.2849368501255567 9:-1.0138210860022137 10:-2.161088014405419 11:1.23891300950993 12:-0.04639912105765167 
0.0 0.0 0.0 1.0 1.0 1.0 1.0 1.0 0.0 1:7.50878043479409 2:7.257740906340089 3:-5.924829189230655 4:10.285544772885585 5:-7.935269079377247 6:4.773498075622239 7:-4.034337389077316 8:0.2380754492304785 9:1.3868195533182848 10:-1.2792391878770453 11:0.7709583591491417 12:1.0287236902215018 
0.0 0.0 0.0 0.22497668995438458 1.0 1.0 1.0 1.0 0.0 1:6.504022483649779 2:8.385051845952832 3:-3.9876180099188643 4:9.556364070115078 5:-7.719015636084777 6:5.801458719892333 7:-2.89614501259759 8:-0.29300923059200845 9:0.8596462806852858 10:-0.9146793812684718 11:1.2539665615532338 12:1.342245232835459 
0.0 0.0 0.0 0.0 0.0 1.0 1.0 1.0 0.0 1:6.048652974875208 2:8.997997930464853 3:-3.8321363782441606 4:9.51438949305812 5:-7.704014132760294 6:4.630301019419679 7:-3.980600226505803 8:-0.03367805886453486 9:-0.1687726461603226 10:-2.3927144615584055 11:0.9315705665347191 12:1.0354144861399184 
0.0 0.0 0.0 1.0 0.0 1.0 1.0 1.0 0.0 1:5.9286166188379905 2:6.1677414656719804 3:-5.9369102394770605 4:9.557684619000892 5:-7.340662404455868 6:5.559839294822784 7:-3.268503817564936 8:0.5293596682065664 9:1.5211684747453602 10:-0.9292032762364022 11:1.5031604599369721 12:0.6129868636299497 
6.749205160341583E-5 0.0 0.27375083846015674 1.0 1.0 1.0 1.0 1.0 0.0 1:9.246790662644225 2:10.491412421661645 3:-4.529865264056723 4:8.749035689050768 5:-8.194823525729461 6:5.897622509308 7:-3.2797240503983254 8:-0.023696579560222825 9:-0.09546529333926415 10:-0.34818238354289943 11:0.24792537014036334 12:1.5137658532753375 
0.0 0.0 0.0 0.0 0.0 1.0 1.0 1.0 0.0 1:6.993850730352082 2:4.714796059051314 3:-8.770342321561243 4:9.444879588983607 5:-9.33370034483116 6:4.038219007821709 7:-3.6750652647374427 8:0.0035472571973924846 9:-0.9857206159850471 10:-1.7801354123451594 11:0.027293102475233477 12:0.06867824375341375 
0.0 0.0 0.0 0.0 0.0 1.0 1.0 0.0 0.0 1:3.257734275053128 2:4.097064742118805 3:-6.270961009645759 4:9.675861807435798 5:-8.388943296501681 6:5.828457470322419 7:-2.342065787609561 8:-0.7629895270584746 9:0.7899503446636092 10:-1.8437092092394922 11:1.6790736732860845 12:0.26744240667957936 
0.0 0.0 0.0 1.0 0.0 1.0 1.0 1.0 0.0 1:8.556306032591054 2:5.4730794407237715 3:-9.203297318636785 4:9.28916239739109 5:-10.160382036104009 6:5.81717748102314 7:-2.545142993509047 8:-0.9205816681855548 9:-1.6691716833493808 10:-0.3600473627370717 11:0.8240552294124213 12:-0.19609497838882722 
4.879871746896289E-4 0.0 0.0 0.09912625789637151 0.0 1.0 1.0 0.0 0.0 1:2.325338851406254 2:4.2792358780246005 3:-5.410265131386257 4:8.07645776587857 5:-8.81566538539569 6:5.027235818778041 7:-2.5289573124422806 8:-0.7252583496429349 9:1.4573036038450216 10:-2.1305396121175173 11:2.690539309091044 12:0.027401577015027493 
0.15428385482215645 0.0 0.11652823036166797 1.0 0.0 1.0 1.0 0.0 0.0 1:2.546979331186382 2:7.090737368453055 3:-2.667567689457991 4:9.430106293018872 5:-7.096603267853071 6:5.684180508661274 7:-2.622217322402883 8:-0.4597708141044631 9:1.1772115277603865 10:-2.6370565194042035 11:2.4598172595617904 12:0.9567377247186724 
0.0 0.0 0.0 0.05424334349758963 1.0 1.0 1.0 1.0 0.0 1:7.205000697121365 2:9.112222279968854 3:-3.7062487538982203 4:10.970920254738182 5:-7.807566406731943 6:4.102942814296964 7:-3.903045401930852 8:0.5187082962260032 9:-0.5120849371406971 10:-0.5099436877915854 11:0.6311592665964396 12:0.5912988397906952 
0.0 0.0 0.0 1.0 0.0 1.0 0.0 1.0 0.0 1:9.105667651232517 2:5.688411080586496 3:-8.375971206321372 4:9.624413931362511 5:-10.031137890581533 6:5.648399746488405 7:-2.922233356701685 8:0.021497075750612823 9:0.7629859476042317 10:-0.012755062924182103 11:1.129273941597372 12:0.03292353580488766 
0.0 0.0 0.0 1.0 1.0 1.0 1.0 1.0 0.0 1:9.559102562025837 2:6.778354209568424 3:-7.526775803356084 4:10.892510554161762 5:-8.883866954738428 6:4.765282333827236 7:-4.163565369766683 8:-0.41578719510041606 9:0.06840822856715806 10:-0.07982696533814787 11:-0.22115862304900666 12:-0.2180832317519109 
0.0 0.0 0.0 0.0 0.0 1.0 1.0 0.0 0.0 1:6.807072433777136 2:6.087556502811431 3:-6.1979934853340435 4:10.550248334610508 5:-9.605996693496625 6:3.5054596862727796 7:-3.1549021220581013 8:1.7411913478797274 9:1.0311375691448486 10:-1.0524631708855448 11:1.553636003402481 12:0.9095356302433563 
0.0 0.0 0.0 0.8583872826000707 0.0 1.0 1.0 1.0 0.0 1:5.630102957593311 2:3.7407497162707033 3:-8.02077668809444 4:9.869803809864262 5:-10.960560222977504 6:5.540646128246405 7:-2.3205778741170464 8:-0.8677190204241481 9:1.7669203594250515 10:-1.4014459648189923 11:0.4274901307531003 12:-0.05758129409588913 
0.0 0.0 0.0 0.0 0.0 1.0 1.0 1.0 0.0 1:6.639929135011769 2:5.817849146910812 3:-6.157899557560427 4:10.953123487829851 5:-9.770567986757372 6:4.7568952365798705 7:-3.060556951152998 8:-0.556335018114596 9:0.9992553972397785 10:-0.6459816159786684 11:0.9353541997869397 12:0.5414383015429169 
0.0 0.0 1.1771059445882923E-4 1.0 1.0 1.0 1.0 1.0 0.0 1:6.500896396389873 2:7.202514465916983 3:-5.105599409241777 4:10.134393790190034 5:-7.8292053806879895 6:5.087424405246863 7:-4.312862715247442 8:-0.7853997744406277 9:0.9768234529044405 10:-1.9104916054369516 11:0.0740188281407559 12:0.28859199566087396 
0.0 0.0 0.0 1.0 1.0 1.0 1.0 1.0 0.0 1:9.368969840462348 2:6.218278883161993 3:-8.346281207414792 4:10.539944307413705 5:-10.655128096209387 6:5.400012257061689 7:-2.949199557971237 8:-0.104780883218837 9:0.6199280655888646 10:0.3153866894769851 11:0.3954613381383719 12:0.4486886293137727 
0.0 0.0 0.0 0.911453625636292 0.0 1.0 1.0 0.0 0.0 1:4.55159509647121 2:2.8761969298728616 3:-7.854543413085435 4:10.623426202928385 5:-10.223709592906513 6:4.666777352781515 7:-3.176115765170713 8:-1.5475766503357196 9:0.6682232593629294 10:-0.7160880746610295 11:1.8646944071247231 12:-0.39784444385135465 
0.0 0.0 0.0 1.0 1.0 1.0 1.0 1.0 0.0 1:6.5904399763201065 2:9.50552499731835 3:-2.737957778255348 4:10.53351532505792 5:-8.035481246666746 6:5.269237901862505 7:-3.004514799837071 8:0.10295047024346286 9:0.946348572792511 10:-0.7415615481187153 11:0.6970993896702036 12:0.9354974981058846 
0.0 0.0 0.0 0.5286263287251778 0.0 0.0 0.0 0.0 0.0 1:6.559683907097405 2:4.380492162227027 3:-7.811060907937144 4:10.109094519000758 5:-11.890790048327212 6:4.429652401901826 7:-2.774273573540616 8:-0.39501082032490625 9:1.7548878629858442 10:-0.23884829079249092 11:1.5523552198084745 12:0.7131455995197156 
0.0 0.0 0.0 0.0 0.0 1.0 1.0 1.0 0.0 1:7.461163572466585 2:7.290971431076695 3:-6.252729034954897 4:8.844960489880945 5:-10.921853919908774 6:5.8438701036344245 7:-2.5408731495815595 8:-0.5508568450325373 9:1.1106739546235738 10:-1.2447592194726265 11:0.6720400972041506 12:1.045399412930295 
0.0 0.0 0.0 0.0 0.7190170316625782 1.0 1.0 1.0 0.0 1:6.682300402682774 2:8.514153296163101 3:-4.075528807325084 4:10.54900633337757 5:-7.442513829200711 6:5.780078476028499 7:-2.6698429834382185 8:0.2835240906102884 9:-0.3983850399772159 10:-1.5456816305973473 11:1.2755508790442724 12:1.0697587410214164 
0.0 0.0 0.0 1.0 0.0 1.0 1.0 1.0 0.0 1:6.718301497349945 2:7.773858100081447 3:-4.43039815788863 4:11.4879866970858 5:-8.264938655205032 6:5.035332245514749 7:-2.6317320380180313 8:0.5428542192742669 9:-0.285757535937433 10:-1.0681914388525482 11:1.435373260311484 12:0.7664773578584586 
0.0 0.0 0.0 0.0 0.0 1.0 1.0 0.0 0.0 1:5.57660911433777 2:3.3341574659061237 3:-9.122187389034135 4:10.024547156190625 5:-10.186194966191275 6:4.3600253536764875 7:-2.9461306573647263 8:-1.4640165499005007 9:-2.1466712089935847 10:-0.6539254784640152 11:1.1409611823914219 12:-0.0339870640844879 
0.0 0.0 0.0 1.0 1.0 1.0 0.0 1.0 0.0 1:8.620132754484688 2:9.486307751389235 3:-4.967702963598152 4:9.666942803623947 5:-9.036375116112227 6:4.992095020850753 7:-3.610570945000562 8:-0.3049625404072961 9:-0.7637590627964302 10:-0.525002262640726 11:0.9867820852262157 12:1.4984611373219527 
0.0 0.0 0.0 0.0 0.0 1.0 1.0 1.0 0.0 1:6.079557283675328 2:5.318683854452519 3:-7.118096961767246 4:8.974241664318049 5:-9.766642174889448 6:5.364510794589518 7:-2.9004896535724534 8:-0.06892143715906214 9:1.9895829868927901 10:-0.9995885761175142 11:1.1957828540454571 12:0.8303224796667902 
0.0 0.0 0.0 0.0 0.0 1.0 1.0 1.0 0.0 1:7.928550484644229 2:6.7386552659077825 3:-6.492990119045047 4:10.842119198041745 5:-9.812502253925635 6:4.645679715247799 7:-3.232573584775534 8:0.1984330797380925 9:0.1830851274299979 10:-0.572094714166232 11:0.7648735733754206 12:0.45489662625677274 
0.0 0.0 0.0 0.0 0.0 1.0 0.0 0.0 0.0 1:7.1560288247013135 2:9.792844411508959 3:-5.408609693892227 4:7.427399640513201 5:-9.563895145320203 6:3.7651700937697052 7:-4.6785378873346515 8:-0.4796373697890844 9:-1.33244935843467 10:-0.43134663890942687 11:0.5252474219747288 12:1.168362291091157 
0.0 0.0 0.0 1.0 1.0 1.0 1.0 1.0 0.0 1:9.736765160728519 2:8.317523741125099 3:-6.360904134698662 4:11.002514611827774 5:-8.431734087544188 6:4.737451304507673 7:-3.5803591542311453 8:0.3933769386675305 9:-1.3995651501103876 10:-0.23913607776417536 11:0.7499847275044726 12:0.9587688520724665 
0.0 0.0 0.0 0.136119881400371 0.7755746186848331 1.0 1.0 1.0 0.0 1:7.187843475678656 2:4.462091735868537 3:-9.679296339340343 4:8.72282783963434 5:-10.008043858954794 6:4.436381954955185 7:-3.843614277481332 8:-0.09156461719000922 9:-0.15430895021495455 10:-1.6524343134519646 11:-0.9499095700091124 12:-0.30271048221987973 
0.0 0.0 0.0 1.0 1.0 1.0 1.0 1.0 0.0 1:9.000642272965719 2:8.138168459273945 3:-6.335510841064686 4:10.771484988160886 5:-8.25049041691445 6:5.032483012102057 7:-3.981866619546224 8:-0.22771283064440515 9:-0.48346205988017715 10:-1.075411548108077 11:-0.26414502548430474 12:0.6742692203899316 
0.0 0.0 0.0 1.0 1.0 1.0 0.0 1.0 0.0 1:9.474527543748248 2:7.32398713034243 3:-7.216817185096814 4:10.217927430492285 5:-8.390865609595512 6:6.096949493251537 7:-2.8276368241228704 8:0.40020336631224984 9:0.28398998800960423 10:0.8866756985219024 11:1.4671761761012856 12:1.3069435847831326 
0.0 0.0 0.0 0.3797177504949232 1.0 1.0 1.0 1.0 0.0 1:8.305275995270682 2:5.541626511422427 3:-7.631293275102794 4:11.89515346597779 5:-9.376724353595339 6:5.213356033508213 7:-2.8019212700836413 8:0.07328948814740352 9:0.05049948237181754 10:0.22108027949621417 11:0.5903856847017303 12:0.7231325405500787 
0.0 0.0 0.018016865964145725 1.0 1.0 1.0 1.0 1.0 0.0 1:9.845547888349541 2:6.697902844153495 3:-7.935770954142958 4:10.334593933229998 5:-8.151525178119659 6:5.983719318930347 7:-3.0144148247585627 8:0.9970945075700177 9:0.346362170266763 10:0.27494826125901606 11:0.29845000134442196 12:0.2108312550439775 
0.0 0.0 0.0 0.0 0.0 1.0 1.0 0.0 0.0 1:4.828130110319881 2:4.113398377885466 3:-7.735710096577512 4:9.159179471170477 5:-9.350265575697579 6:4.908013348129882 7:-2.9187933065348424 8:0.16914278127040624 9:0.49151831351540115 10:-1.5830837783321565 11:1.469355271436251 12:1.0413998498285855 
1.0 0.0 0.029182494772499394 0.0 0.0 0.0 0.0 0.0 0.0 1:0.01630249761060736 2:3.4497572470182747 3:-5.988407765670281 4:7.242226173227948 5:-9.749017638242352 6:2.0670359386569768 7:-4.729104618594526 8:-1.1683601038525657 9:0.8668023311515838 10:-1.4867288670629497 11:3.8313459351181822 12:1.0948871707398249 
0.0 0.0 0.0 0.36713824414286506 0.0 1.0 1.0 1.0 0.0 1:5.940162888043916 2:7.338801130512027 3:-4.262790821459656 4:10.518974365471013 5:-9.500435295219251 6:4.428965595409181 7:-3.484568319841628 8:-0.6944159584689608 9:1.0236902326645838 10:-1.7800063613238133 11:1.4079639169319575 12:0.576444653956353 
0.0 0.0 0.0 0.0 1.0 1.0 1.0 1.0 0.0 1:7.2757239640438565 2:7.602390477856309 3:-6.086030776130031 4:10.062202714889342 5:-9.429867798568027 6:4.0287130972107645 7:-4.0487769524151265 8:-0.19637224143562368 9:0.29706771032007845 10:-1.6543241135868196 11:0.6420401117539126 12:1.2649111041994148 
0.35580272456674106 0.2761817322623532 0.22769668916156505 1.0 1.0 1.0 1.0 1.0 0.0 1:11.174070330645657 2:5.87014185449589 3:-9.74438482342528 4:11.863675160030526 5:-10.352035445551877 6:4.583792808817995 7:-3.762071565704862 8:0.1397537636105008 9:-0.2927616406034743 10:-0.5311669238099013 11:-0.7469522096959913 12:0.2285942888458939 
1.0 0.10202407266234258 0.193799786522986 1.0 1.0 1.0 1.0 1.0 0.0 1:9.557148061523232 2:9.310562723671302 3:-6.188587949322279 4:9.206660369543872 5:-8.072043094808517 6:6.514449417968677 7:-2.232207184716436 8:1.2016812950159705 9:-0.07604535110222191 10:-0.9624871348239681 11:-0.6186518766391024 12:1.3945726012339015 
0.0 0.005506506213836929 0.0 0.0 0.0 1.0 0.0 1.0 0.0 1:8.241014353040539 2:6.859761156234316 3:-6.690053463746487 4:10.804423748078838 5:-9.00325773737154 6:4.694758851385578 7:-4.510247588786704 8:-0.33598897844937736 9:0.7201481553519644 10:-2.0977412728985705 11:1.2595965250008565 12:1.2824780925561243 
0.0 0.0 0.0 8.319665419770418E-7 1.0 1.0 1.0 1.0 0.0 1:6.033110078818277 2:8.138226702511597 3:-4.829275843795966 4:10.231223698195237 5:-9.401501540031528 6:2.987929802057841 7:-4.697685385770975 8:-0.638122301401338 9:-1.5612913849497878 10:-3.1388132695561994 11:-0.6417525356887641 12:0.17462483287932093 
0.15098155629725318 0.0 0.39603901082109083 1.0 0.0 1.0 1.0 0.0 0.0 1:8.589930441449352 2:3.0687348955536855 3:-12.20141199202602 4:9.168652473970123 5:-10.810840787190685 6:5.785139397574799 7:-3.513547584207079 8:-1.5783639275397912 9:-2.057467317159202 10:-0.7006890461382188 11:0.3610734565701551 12:0.49475635887416397 
0.0 0.0 0.0 1.0 1.0 1.0 1.0 1.0 0.0 1:8.470059288594364 2:9.450270308123116 3:-5.574462366806966 4:9.456578533875335 5:-8.324006374334148 6:4.2861652843838005 7:-3.5099178304465397 8:1.0560671582390457 9:-1.314539217514187 10:-1.6960384998608817 11:0.6159382269443789 12:1.2621132499668855 
0.0 0.0 0.0 0.0 0.0 1.0 1.0 0.0 0.0 1:4.951540598449862 2:4.392034785807555 3:-7.522027131057588 4:8.749658257331301 5:-9.820658118484412 6:4.029811501585832 7:-3.3862022526739386 8:-0.23345909129824602 9:0.45386608496265396 10:-2.4747687464163928 11:1.9787528558571215 12:0.3270659611293539 
0.0 0.0 0.0 1.0 0.0 1.0 1.0 1.0 0.0 1:9.67764378404688 2:6.032222492071699 3:-7.966821093402209 4:12.4510461008133 5:-12.082926666084424 6:3.3620142466025675 7:-3.098525557238415 8:0.32733070422056754 9:-1.1162998293399815 10:-0.16633204185059466 11:0.8771242921751493 12:0.16541511460463051 
0.20429586429439098 0.0 0.0 0.725629485004507 0.0 0.0 0.0 0.0 0.0 1:3.8417434015270358 2:2.8315319627340743 3:-7.025210521487546 4:10.984418198560236 5:-8.207926898016403 6:4.526197470414955 7:-3.414232919562139 8:0.10340135541437898 9:1.543973237950124 10:-1.45110336642752 11:2.767456459367488 12:0.29524033935079413 
0.0 0.0 0.0 0.0 0.0 1.0 0.0 0.0 0.0 1:7.054069065177792 2:4.278320187542348 3:-8.046681809773382 4:12.942018228290385 5:-8.71025692200058 6:3.2506093199820123 7:-4.743935265840733 8:-0.17254815177788901 9:-1.5149919224698598 10:-1.0361003462037766 11:1.7233663176095804 12:0.4246611127009767 
0.0 0.0 0.0 0.6857723246108787 1.0 1.0 1.0 1.0 0.0 1:7.049956542755681 2:7.470900549049186 3:-5.88296277978195 4:9.69356130792833 5:-7.015112118137981 6:6.250936647227595 7:-2.744084718781819 8:0.8075567651628567 9:0.3807587592781058 10:-1.4230530585831649 11:1.0209548073967114 12:0.8497425067869707 
0.0 0.0 0.0 0.0 0.0 1.0 1.0 1.0 0.0 1:8.28994979735995 2:6.586971735947603 3:-7.6624303457494705 4:10.399959501295244 5:-9.045817493900435 6:3.7192457499394034 7:-4.691598579536532 8:0.06485269559677852 9:-0.11118442916070154 10:-0.9323959101225587 11:0.637408999752967 12:0.6192967031732513 
0.3645184158217838 0.0 1.1055448062844206E-4 0.0 0.0 1.0 1.0 0.0 0.0 1:3.667302070697064 2:3.561181995285787 3:-9.42920549717684 4:8.14636122161593 5:-8.931469150476131 6:2.2334785376096784 7:-7.103225493135083 8:-2.613244366853911 9:-1.7901385219330554 10:-1.2025064003799826 11:0.28513913069813956 12:0.008065412713371672 
0.0 0.0 0.0 0.0 0.0 1.0 1.0 1.0 0.0 1:7.656329900491491 2:8.359765809924399 3:-5.32721912784823 4:10.174595206542902 5:-8.403926627273162 6:5.050112379332567 7:-2.8566262506461038 8:1.0794516789591975 9:-0.524480450505326 10:-1.5264382813319033 11:0.9723381311809973 12:1.0407046501461097 
0.0 0.0 0.0 0.0 0.0 1.0 1.0 0.0 0.0 1:5.222303240239983 2:5.729543700765969 3:-5.625250233769992 4:10.443121419261061 5:-9.251116242085955 6:4.439620709716526 7:-2.8956594170662098 8:-0.14222170596612876 9:-0.21459590122745997 10:-0.642329968335148 11:1.9721591335144812 12:0.5276349593059259 
0.0 0.0 0.0 0.0017079281630123459 0.0 1.0 0.0 1.0 0.0 1:6.340425292480309 2:7.339519839077378 3:-5.01226323848374 4:10.66153092609965 5:-7.500285297281058 6:5.084966984862479 7:-3.9049702713198258 8:-0.36591781914810995 9:-0.04501291670631136 10:-1.5610693353992966 11:1.819068260232751 12:0.8304038561045572 
0.0 0.0 0.0 1.0 0.0 1.0 0.0 1.0 0.0 1:6.577345585639709 2:7.152605157690092 3:-3.997070900813605 4:12.515764359905875 5:-7.897545787477271 6:4.550984333416006 7:-4.251815048865363 8:-1.0000906946536683 9:0.15149010475103683 10:-1.3759100445325916 11:1.51551094514611 12:0.3394005802118623 
0.32443143023385046 0.0 0.004903222426972005 0.9490418970321016 1.0 1.0 0.0 1.0 0.0 1:5.376448705971085 2:8.949041096783548 3:-3.0555894297936685 4:8.603902245552074 5:-7.297896388130019 6:5.817852813548735 7:-2.8874818821857104 8:0.358573253406223 9:1.7895425159869718 10:-0.8650636372695341 11:1.59973739782284 12:1.603539639072433 
0.0 0.0 0.0 1.0 0.0 1.0 0.0 1.0 0.0 1:8.915351430716957 2:6.815657079357556 3:-7.088563448246819 4:11.108134641980364 5:-9.963413575684818 6:4.361679294513706 7:-3.7595883511564265 8:0.03272866067632672 9:0.029903373369223715 10:0.4817589284102029 11:0.6276137000644019 12:0.19787145424303218 
0.0 0.0 0.0 0.8465208020913348 0.0 1.0 0.0 1.0 0.0 1:8.558681905042647 2:6.835561499751596 3:-6.140899268277316 4:12.158096588301317 5:-9.736171467108063 6:4.717182732139232 7:-3.0625943037649583 8:0.02235148369751105 9:-0.12447252073539437 10:0.2973228387654856 11:1.344455325797165 12:0.7106264108229968 
0.0 0.0 0.0 0.0 1.0 1.0 1.0 1.0 0.0 1:6.858169478144636 2:8.273834271967493 3:-4.215144305631139 4:10.95298548729789 5:-7.4272639659823785 6:4.952298125264222 7:-3.387479190775972 8:-0.1089465759904805 9:-0.7188024201778747 10:-0.7366626959866392 11:1.0584213752416811 12:0.8485595945142128 
0.0 0.0 0.0 0.8823801662330062 0.0 1.0 1.0 1.0 0.0 1:8.446854717162084 2:7.641599396201178 3:-5.256472661403069 4:12.008704702976987 5:-8.297169989624358 6:4.712509355343547 7:-2.8532373603435333 8:0.14325363224277246 9:-1.5644663882087493 10:-0.4845991167392377 11:0.7510938013755833 12:-0.4896578810814961 
0.0 0.0 0.0 0.0 0.0 1.0 1.0 1.0 0.0 1:5.728432964341091 2:6.1410431610369525 3:-5.032114882076879 4:11.842096836248693 5:-7.954796485359149 6:3.7431813406308296 7:-4.649592310013883 8:-0.7585286687186532 9:-0.03129257829226018 10:-1.1405863726231804 11:1.2754842843953245 12:-0.006030597363395489 
1.0 0.05501361712233996 1.0 1.0 1.0 1.0 1.0 1.0 0.0 1:9.366325369540334 2:10.224730597136588 3:-4.042198409680297 4:10.899189564310642 5:-6.4823774547572945 6:5.524523964447469 7:-3.9565646800101755 8:0.2754516796869224 9:-0.21019168531091476 10:-0.3266165958614368 11:0.016162770441653283 12:1.7772766959349835 
1.0 0.1386395355361671 0.9081873412521111 1.0 1.0 1.0 1.0 1.0 0.0 1:10.812374246696079 2:6.500966904690589 3:-9.961843401315928 4:9.973650072187967 5:-6.179186772727455 6:6.636532432618999 7:-3.0999071501856283 8:0.9034316337674841 9:-1.9155356952789147 10:0.17713328698303427 11:-0.09376483566506859 12:0.010675784096509343 
0.0 0.0 0.0 0.0 0.0 0.0 1.0 0.0 0.0 1:3.1248124302505658 2:2.5049941865953644 3:-9.089574081800208 4:7.556345979006095 5:-10.044787856775075 6:4.037740114583808 7:-3.6246530154762833 8:-0.07852881648282684 9:1.1974010376739885 10:-3.164384470331277 11:1.1722266622902264 12:0.8151070688001338 
0.0 0.0 0.0 0.0 0.0 1.0 1.0 0.0 0.0 1:6.9103608406384796 2:4.239016133329871 3:-8.196306728799943 4:12.15776140340568 5:-8.358201692772113 6:4.000987399472815 7:-4.602699326961773 8:-0.5360802179473733 9:-0.8093420989727432 10:-0.6519356879139723 11:1.4236988614511685 12:0.5266443771288106 
0.0 0.0 0.005531725900631829 0.3451874768405525 0.0 1.0 1.0 1.0 0.0 1:8.214376658937253 2:5.853799705925583 3:-8.995879317549852 4:7.1321077233260946 5:-11.377258432386267 6:5.43616930733285 7:-2.033154574444498 8:0.3571000613022936 9:-1.3261780597455668 10:-1.6205987141909417 11:1.0312860558597845 12:0.6347244281641667 
0.0 0.0 0.0 1.0 0.0 1.0 1.0 1.0 0.0 1:9.495567992027956 2:7.823871678382509 3:-6.256563753216941 4:12.940905150797649 5:-9.290573959087016 6:3.3970111929593023 7:-3.276945737569797 8:1.4407698938137106 9:-2.4122690011916115 10:-0.16511100754400967 11:1.0649764505147195 12:0.059283184635334996 
0.0 0.0 0.0 1.0 0.0 1.0 1.0 1.0 0.0 1:8.598586931585102 2:6.004519145073418 3:-8.504298963435385 4:10.337088546379126 5:-8.78508797323528 6:4.819311681749427 7:-3.67149847861033 8:-0.08527217923367048 9:-1.3529788115266397 10:-0.7404612224926479 11:0.10418090265665908 12:0.38584313283494587 
0.0 0.0 0.0 0.0 0.0 1.0 1.0 1.0 0.0 1:7.169007532587856 2:6.341918652739719 3:-6.436231448497418 4:11.284440805931219 5:-8.09834204348979 6:4.675704025944466 7:-3.405208059714485 8:0.43772307537674526 9:-0.6451442255139954 10:-1.2695960821094503 11:1.419688262423439 12:0.9558538882458961 
0.0 0.0 0.0 0.6101879962183085 0.0 1.0 1.0 1.0 0.0 1:8.161461207491904 2:8.532446180368806 3:-5.4771296268313865 4:8.917478551649241 5:-8.162676703069009 6:6.052966438878654 7:-2.4964597468235064 8:-0.1524095787034367 9:-1.528989348420487 10:-0.21591837622706314 11:1.0106776892895613 12:0.6440763038638039 
0.0 0.0 0.0 0.0 0.0 1.0 1.0 0.0 0.0 1:4.127790145812881 2:3.3647221208902995 3:-7.7658723201559585 4:9.756931596619864 5:-8.2604066454944 6:4.556902260480463 7:-2.9903531801310748 8:0.33831342099574285 9:0.41114804904622987 10:-1.7251128193282428 11:2.1563689595151603 12:0.4199228476043402 
0.0 0.0 0.0 1.0 0.0 0.0 0.0 0.0 0.0 1:7.576760214807798 2:4.713892199160084 3:-7.777750637658409 4:11.835412193328084 5:-8.886329692279064 6:2.2603321132498517 7:-5.583418003080031 8:0.12156166202632857 9:0.040725548076563194 10:-0.4150936725167053 11:2.5915858699384735 12:0.22286520526018525 
0.0 0.0 0.0 0.06377072677717716 1.0 1.0 1.0 1.0 0.0 1:8.198896186469833 2:9.588255059023172 3:-4.7238502139962595 4:9.50545368763175 5:-7.622606927899306 6:5.580758783659013 7:-3.237095560909092 8:0.777557684274405 9:0.2802014470156369 10:-0.503145265299276 11:0.7408875796188733 12:1.769862352046647 
0.0 0.0 0.0 1.0 1.0 1.0 1.0 1.0 0.0 1:8.38267937185384 2:9.797962193095305 3:-4.771899167584742 4:9.167855600557761 5:-7.773904769383302 6:6.073763436046353 7:-2.8894791090652525 8:0.726041694701642 9:0.5540326395329714 10:-0.2232344219401228 11:0.7017749301205183 12:1.720383916015303 
0.0 0.0 0.010039628082419918 0.0 0.0 1.0 1.0 0.0 0.0 1:6.1364614769909585 2:3.4648429504570784 3:-9.65879733825605 4:9.700956338308409 5:-8.025040473905241 6:3.8728707296095384 7:-4.603870130347583 8:0.1460842207150517 9:-0.8848198728257373 10:-1.2562507998841523 11:0.11118993106981134 12:0.032703790254527444 
0.0 0.0 0.0 1.0 1.0 1.0 0.0 1.0 0.0 1:9.080264878641573 2:5.88210191279811 3:-8.39922038625689 4:11.210824234169598 5:-9.107540571994829 6:4.101528483060871 7:-4.51115763458235 8:0.11574092406429175 9:0.6300489796844716 10:0.36685708058662186 11:0.43878447773408175 12:0.3943640652970284 
0.0 0.0 0.0 2.1633396474479298E-4 0.0 1.0 1.0 1.0 0.0 1:6.096335574231908 2:6.252738944401973 3:-6.028173887994185 4:10.146407963853155 5:-8.296913230226714 6:4.859430127507024 7:-3.8289517483170674 8:-0.3877698991575316 9:0.6886564129741277 10:-1.2498073295744403 11:1.2074903579815448 12:0.1776952662148028 
0.0 0.0 0.0 0.0 0.0 1.0 1.0 0.0 0.0 1:6.405685065808544 2:4.773605054380571 3:-8.419195326667966 4:9.726866358540706 5:-8.769426355521903 6:4.677219517748883 7:-4.149708603403264 8:-0.21322166754366267 9:0.1621618919387236 10:-1.4796800563887538 11:-0.044228277220324845 12:1.0118042752004246 
0.0 0.0 0.0 1.0 0.0 1.0 1.0 0.0 0.0 1:4.87200562530036 2:3.8047994903843305 3:-7.7305562869066495 4:8.968194629797349 5:-9.685439900168952 6:5.234217385850305 7:-3.066951004821025 8:-0.7463632206747985 9:1.2607316413284166 10:-2.016085821626204 11:0.8129899355074224 12:-0.8253509700346394 
2.0000054560352216E-5 0.010669328163502087 0.0 0.0 0.0 0.27258535391022576 1.0 0.0 0.0 1:4.571008243030016 2:3.004539084125762 3:-9.44925643437755 4:7.79885253164064 5:-10.990364678935018 6:4.401699838336242 7:-1.9569516662139685 8:0.3313439742269022 9:0.9814927931113391 10:-2.841187924729417 11:1.5045517269409583 12:0.496776656775716 
0.2493384692648943 0.0 0.15906110227578554 1.0 1.0 1.0 1.0 1.0 0.0 1:10.877337874909802 2:9.991174217421456 3:-5.476280208612736 4:10.605896762790806 5:-10.360258098643193 6:5.2420417221811055 7:-2.168787862010748 8:0.963652671543692 9:-1.476179914444217 10:-0.3847364947732708 11:-0.011084440698187446 12:1.1882088632477938 
0.0 0.0 0.0 1.0 0.0 1.0 0.0 1.0 0.0 1:7.354648992193649 2:5.761116202359026 3:-7.804684767737738 4:8.393128468489207 5:-10.36070853068489 6:6.138472816618701 7:-2.5011063211674043 8:-0.46996375913843197 9:0.4816068897809542 10:-1.02589845644138 11:1.4084985983084657 12:0.32148030924736837 
0.0 0.0 0.0 0.0 0.0 1.0 0.0 0.0 0.0 1:5.079956989316802 2:5.089909206682593 3:-6.736641685847923 4:9.012217934992684 5:-10.26816426232318 6:3.6777102125275527 7:-4.659736117702707 8:-1.6109788662348337 9:0.3996659112655873 10:-1.388305632460533 11:1.466900359619564 12:-0.30141459987032715 
0.0 0.0 0.0 0.0 0.0 1.0 1.0 0.0 0.0 1:4.626627387586926 2:4.980869289389223 3:-7.330673000570727 4:8.245469042741778 5:-8.831538693226946 6:5.151990531924681 7:-3.093173580803289 8:-0.17810415013377737 9:0.30489323662133405 10:-1.0502764322606246 11:1.6838594661982915 12:0.9469811350964655 
0.0 0.0 0.0 1.0 1.0 1.0 1.0 1.0 0.0 1:9.141287525007431 2:7.490915604873076 3:-7.4472499598824005 4:9.902866067902782 5:-7.904977683840479 6:4.793183919076673 7:-4.4965640058751015 8:0.00931565003950308 9:-0.6505455961279766 10:-0.5219384656823605 11:0.4340197214464075 12:0.9917032538146449 
0.005328153291479132 0.0 0.0 0.0 0.0 1.0 1.0 0.0 0.0 1:4.791337576134406 2:6.836761266030432 3:-5.292534257419117 4:7.883147897790226 5:-9.676180222544073 6:4.579098439820615 7:-2.160433722656511 8:1.0655389324226532 9:0.8259656869118492 10:-2.5939683142285563 11:1.5595216476883085 12:1.5238568885581327 
0.0 0.0 0.0 0.0 0.0 1.0 1.0 1.0 0.0 1:7.990760034053561 2:6.070714128799636 3:-7.72139715012604 4:10.203385168255688 5:-9.355322760129972 6:4.616414316948187 7:-3.526259029399162 8:-0.24491723662785428 9:-0.8261353498519126 10:-0.34520433199714873 11:1.385581169490194 12:0.5121832274529039 
0.0 0.0 0.0 0.0 0.0 1.0 1.0 0.0 0.0 1:6.511018270274272 2:4.991485070770935 3:-8.023602241693695 4:9.358794568068957 5:-9.900040031211766 6:4.647209848059167 7:-2.3415178958682787 8:1.0236512248216243 9:-0.12315853187594382 10:-1.1527038398766498 11:1.4609996785894628 12:0.46058191507469953 
0.0 0.0 0.0 0.0 0.0 1.0 0.0 0.0 0.0 1:6.369015903971182 2:6.071231714893048 3:-5.598027383532453 4:11.194997708892103 5:-8.188156142326523 6:3.27577075735832 7:-4.404439107783391 8:0.48543741218034664 9:0.25995295621967945 10:-0.4664028204994301 11:1.5865919459483406 12:0.30844954779748973 
0.0 0.0 0.0 0.04533958452329706 0.0 1.0 1.0 1.0 0.0 1:7.550845107528408 2:7.034845469709387 3:-6.547425288109567 4:9.66578222723233 5:-8.824578091865623 6:4.335456654192346 7:-3.382445273621219 8:0.5098567293400574 9:-0.8675012794358069 10:-1.1355689508269846 11:1.037803474396045 12:0.43126971255515656 
0.0 0.0 0.0 0.0 1.0 1.0 0.0 1.0 0.0 1:8.585962107014081 2:8.853210850748518 3:-5.061652458635095 4:10.720999889481682 5:-8.293269642620956 6:5.1394750446121344 7:-3.5626322077758203 8:0.2616244920558606 9:0.1735155386855589 10:-0.2225169320790065 11:0.9323249979894377 12:1.7112435801904642 
0.0 0.0 0.0 0.0 0.0 1.0 1.0 1.0 0.0 1:6.963965798600923 2:5.761440460966449 3:-7.032432732173344 4:10.236090399526184 5:-8.217607676956254 6:4.572753161540235 7:-4.049098591828105 8:-0.24272362821837073 9:0.10958139611032755 10:-0.5308429862201794 11:1.2175876703892057 12:0.23234101782050343 
0.0 0.0 0.0 1.0 1.0 1.0 1.0 1.0 0.0 1:7.388514443038747 2:7.61352988738835 3:-5.660191150938396 4:9.541136098560154 5:-8.923692563980264 6:5.327170289558397 7:-3.465576555184916 8:-0.45613334114345955 9:0.90339451992422 10:-1.0395552207925043 11:0.45228720909348713 12:1.0155303324686467 
0.0 0.0 0.0 1.0 0.0 1.0 1.0 1.0 0.0 1:6.331692018466356 2:3.995213010959026 3:-8.656783478864675 4:10.76767510256513 5:-10.013602812005406 6:3.551439765115271 7:-3.91304398895044 8:-0.782348155259198 9:-0.7125795741664128 10:-2.248315112169834 11:-0.21926272393055407 12:-0.8048466612995893 
0.0 0.0 0.0 0.0 0.0 1.0 1.0 1.0 0.0 1:6.152270008802528 2:8.118648886000768 3:-4.354714376827243 4:9.872534046997863 5:-7.597712648304001 6:5.208669574742558 7:-3.3766695808977127 8:-0.1361178563185069 9:0.036045087419933244 10:-1.33218186246583 11:1.5656564376140516 12:0.8813535052046654 
0.0 0.0 0.0 0.0 0.0 1.0 1.0 0.0 0.0 1:7.494397606807947 2:4.410212628767813 3:-9.807257570518404 4:9.892705779724977 5:-10.260346757073844 6:3.2044465597787988 7:-4.311084079292879 8:0.8780742820823302 9:0.49500708508032115 10:-1.6308139611029078 11:0.71142941401685 12:0.9216728014787301 
0.0 0.0 0.0 1.0 1.0 1.0 1.0 1.0 0.0 1:8.927471098021835 2:9.153868240521922 3:-4.713335687858326 4:10.436168917568969 5:-9.760437048531811 6:5.1010902223067704 7:-2.7719461223313067 8:0.05529024017338906 9:0.3181019155066735 10:-0.7943521797429495 11:-0.31616413545117583 12:1.1310814717524498 
0.0 0.0 0.0 1.0 1.0 1.0 1.0 1.0 0.0 1:9.247980756730941 2:8.992517547539265 3:-5.266659731284496 4:11.604110619078677 5:-7.590175336253128 6:4.756860264359531 7:-3.8640285044682807 8:0.34966105754076937 9:-0.9189156639254183 10:0.20487951581633093 11:0.5431939246068131 12:1.0971213243958815 
0.0 0.02141166994681113 0.0 1.0 1.0 1.0 1.0 1.0 0.0 1:8.54281593390883 2:9.219068302235476 3:-5.17993829913599 4:11.046611879017224 5:-7.032029593166581 6:5.707196983628154 7:-3.3329470923152513 8:0.7053408948165869 9:-0.5279748395620419 10:-0.680095210997829 11:0.6194829723873687 12:1.366182592328757 
0.0 0.0 0.0 0.0 0.0 1.0 1.0 1.0 0.0 1:7.145122204074974 2:5.311715179989915 3:-8.173201213340551 4:9.140329607777815 5:-9.043422370207022 6:5.91316327840502 7:-3.112775768855757 8:-0.08880205524483539 9:0.9070706003140447 10:-0.4295909483654462 11:0.9995224649647826 12:1.1771808189589303 
0.0 0.0 0.0 1.0 1.0 1.0 1.0 1.0 0.0 1:5.386652351382876 2:7.572616495091814 3:-4.045425263866143 4:9.071947553152759 5:-9.5682202982263 6:5.683524272232987 7:-3.0208439962683276 8:-2.367813416002188 9:0.955569769493857 10:-0.6994347365751392 11:0.7257270364791953 12:0.04525572489787695 
0.10779139251221098 0.0 0.0 1.0 1.0 1.0 0.0 1.0 0.0 1:8.843957835447014 2:8.000877733024243 3:-5.585064590735194 4:12.550148077486828 5:-6.639997092417108 6:4.7823045760265135 7:-4.169086550496904 8:0.7671455128920017 9:-0.4658439149778928 10:-0.16400660281981796 11:1.0269714765559765 12:0.8869048854080079 
0.0 0.0 0.0 0.0 0.0 1.0 1.0 1.0 0.0 1:8.013819378700836 2:5.953249669407879 3:-7.5291545316247355 4:11.335555782302214 5:-8.370399283018918 6:4.238743366845846 7:-3.588671182294099 8:0.5081032350148251 9:-1.6021470412968182 10:-1.519259640757487 11:0.8533083286656289 12:0.6736633554625318 
0.0 0.0 0.0 0.0 0.0 1.0 1.0 0.0 0.0 1:7.290211958015586 2:5.340619783342243 3:-8.488812418968362 4:10.388225027175414 5:-9.997211062785563 6:3.3902298132684883 7:-4.8244138148582545 8:-0.6589706499440434 9:-0.4899199682904522 10:-0.5548832269419477 11:-0.36594271524120653 12:0.5053477640440593 
0.5063540038398133 0.0 0.03636338209081469 0.26489435020104807 0.0 1.0 1.0 1.0 0.0 1:7.159779156344053 2:4.640620860136034 3:-8.42500741369875 4:9.562402272305672 5:-7.7091008363724285 6:5.815851262097637 7:-3.3589819164800248 8:-0.11589117923194678 9:-0.08928386847110936 10:-1.8048581056417252 11:0.09507387245162936 12:0.10836447308920549 
0.0 0.0 0.0 0.0 0.0 1.0 1.0 1.0 0.0 1:4.145337486201232 2:6.30547453366591 3:-4.195919658373627 4:10.28436688518397 5:-8.361961987889877 6:5.335117481612651 7:-2.333475153999008 8:-0.391099123052636 9:0.05054794390520321 10:-1.8179368243238156 11:1.3516193781008683 12:0.4412549555651544 
0.0 0.0 0.0 0.0 0.0 1.0 0.3591439416273094 1.0 0.0 1:8.241540126702883 2:7.811918517359337 3:-6.226246937354968 4:9.680761834337517 5:-9.493431554310686 6:5.908211027877013 7:-2.730635170103782 8:-0.07170128844332156 9:-0.2055349094785847 10:-0.7416790084850785 11:1.0940154337591657 12:1.152962733205589 
0.0 0.0 0.0 0.0 0.0 1.0 1.0 1.0 0.0 1:5.892793748588626 2:7.085089038141899 3:-5.029840030287207 4:9.27799633876515 5:-8.002301553585868 6:5.404971912315664 7:-2.846121261625487 8:0.1819289445272753 9:1.2011509597352428 10:-1.4874568257059892 11:1.5538053517856092 12:1.3249068636311936 
0.0 0.0 0.0 0.7922137815559007 1.0 1.0 1.0 1.0 0.0 1:4.121966810557833 2:7.737317512403621 3:-2.2949145027367623 4:11.288366577455108 5:-7.216649808108659 6:5.102245795954912 7:-3.5322778516547575 8:-0.9345732422759871 9:0.5803362733361611 10:-2.0098433407688208 11:0.9187977614073831 12:0.514710135677931 
0.0 0.0 0.0 0.0 1.0 1.0 1.0 1.0 0.0 1:7.358543676137591 2:8.015449014297612 3:-4.8526004614903036 4:10.608339540584447 5:-7.857078591262689 6:5.853638732058181 7:-2.8080192905682626 8:0.30335630842908984 9:0.6185749736153623 10:-0.4500116844947094 11:1.0651317492972123 12:1.4909520508153027 
0.0 0.0 0.0 0.0 0.0 1.0 1.0 1.0 0.0 1:6.871290441547866 2:6.904798762226901 3:-5.351084447040642 4:10.757417323868612 5:-9.392632169102768 6:4.609455136608022 7:-3.030811465140914 8:0.20625490072714867 9:1.3995016970800649 10:-1.2475685453802867 11:1.4014736446120672 12:1.2440831352145478 
0.0 0.0 0.0 0.0 0.0 1.0 1.0 0.0 0.0 1:4.851773758932129 2:5.587491836765602 3:-6.695771151237244 4:9.030943829069685 5:-10.767732961291989 6:3.2662720695602068 7:-3.6716078469710705 8:0.07852958564188356 9:0.13557852926723885 10:-1.6910998094902274 11:0.8341433648712434 12:0.9241168292821392 
0.0 0.0 0.0 0.001102833672669472 0.0 1.0 1.0 1.0 0.0 1:7.40421129741573 2:6.185070542165153 3:-6.863329240973257 4:10.191466240898277 5:-10.1131355277027 6:5.4042919597919585 7:-2.295585144210759 8:-0.2643709840211819 9:-0.05724644504797938 10:-0.06818441997978693 11:1.1573257428118606 12:0.8603399717451193 
0.0 0.0 0.0 0.002072878580023346 0.0 1.0 1.0 1.0 0.0 1:7.546016287825406 2:4.95776226964571 3:-8.165460803271156 4:11.320072827777665 5:-9.616164879206575 6:3.875321092759489 7:-4.044130702709722 8:-0.3708476445779982 9:-0.9363154842108005 10:-0.2629521317907535 11:1.1977773703086632 12:-0.07764920135674183 
2.900324591147836E-4 0.0 0.004951897500729889 1.0 0.0 1.0 1.0 1.0 0.03508058294103362 1:5.157013477129623 2:7.303319566975266 3:-3.6666657067941095 4:10.893050023624715 5:-6.280109026081835 6:4.765940170006692 7:-4.578756035537248 8:-1.1071317572712749 9:0.15915408324053992 10:-1.5254731632652347 11:1.640572989009761 12:0.4853646336975525 
1.399038992694034E-4 0.0 0.0 1.0 1.0 1.0 1.0 1.0 0.0 1:7.13783259270219 2:8.733573411001675 3:-3.9601663438748216 4:10.314205797930159 5:-7.563490752818242 6:5.5280130034837285 7:-3.0496584743662525 8:-0.04259613174299742 9:0.2941760425502333 10:-0.6891503300683087 11:0.6973681821304194 12:1.2689967473740456 
0.0 0.0 0.0 0.12571295711502595 1.0 1.0 1.0 1.0 0.0 1:6.948339086007207 2:8.688908116258897 3:-4.025886436325899 4:9.624073021048106 5:-8.00168757197079 6:5.69961070998756 7:-2.636692417531657 8:0.7724960084292837 9:0.9709806661927723 10:-1.2456685615913896 11:0.9555589221563805 12:1.3188341380387505 
6.059918215397957E-4 0.0 0.0 0.0 1.0 1.0 1.0 1.0 0.0 1:6.626300934632949 2:8.60263939163133 3:-4.159695464423754 4:9.110289056229787 5:-8.265766738271877 6:5.2515701249156646 7:-2.86656785560111 8:0.04324994905837706 9:0.3719699286135698 10:-1.2593345338219095 11:0.7774120953975646 12:1.2711452476334708 
0.0 0.0 0.003985430794261374 1.0 0.0 1.0 0.0 1.0 0.0 1:9.105329333373291 2:6.705653532468339 3:-6.778236971896401 4:12.170230079664137 5:-9.125045733783317 6:4.714273698121512 7:-4.271532485184692 8:-0.5866713562693624 9:-0.8103419190621404 10:0.0269971277009239 11:1.363512581209543 12:0.34811947911192487 
0.0 0.0 0.0 0.0 0.0 1.0 1.0 1.0 0.0 1:6.26816275931575 2:4.57795162884176 3:-7.634711668622729 4:10.769970233002706 5:-10.863565265410411 6:2.8750137392739625 7:-3.743719224502709 8:-0.052793320433827916 9:0.08923508444668567 10:-1.5591560444178234 11:0.09856384914107483 12:-0.18193814788034102 
0.0 0.0 0.0 1.0 1.0 1.0 1.0 1.0 0.0 1:7.041930030377353 2:8.213818942217976 3:-4.761385478222556 4:9.737926471674914 5:-7.489751134218992 6:5.995098605461482 7:-3.162317521961254 8:-0.04021842093079694 9:0.6231818359432779 10:-1.1205005918877087 11:1.0821200295187434 12:1.267268084463057 
0.0 0.0 0.0 1.0 0.0 1.0 1.0 1.0 0.0 1:8.190925378785325 2:6.758379912174852 3:-8.170965678038431 4:7.371364855363743 5:-10.090948950319312 6:6.1184174267401055 7:-1.9489590859735633 8:0.9366782343472011 9:0.2504608056359268 10:-1.4167469481785209 11:0.3051191025693649 12:0.41042385862238595 
0.0 0.0 0.0 1.0 1.0 1.0 1.0 1.0 0.0 1:7.1689918598277185 2:8.70697187360715 3:-4.217368046669056 4:10.008452505390173 5:-7.83399445334817 6:5.202217690378577 7:-3.343027175622367 8:0.18492305754046987 9:0.354011845345359 10:-1.112520366610974 11:0.677904461578675 12:1.2337557244833766 
0.0 0.0 0.0 0.0 0.0 0.0 1.0 0.0 0.0 1:6.051833233227234 2:3.83339954584313 3:-9.346620127665306 4:9.343372821850481 5:-9.22591978132081 6:4.472127065264569 7:-3.78465925398009 8:0.20057693403402405 9:-0.10466255748717501 10:-1.1744278833784776 11:1.4689893979373725 12:0.6296915543984561 
0.0 0.0 0.0 0.0 1.0 1.0 1.0 1.0 0.0 1:7.053401937553848 2:7.492742857154919 3:-5.324165259521723 4:9.996602528751652 5:-8.764755238475034 6:5.057113433605863 7:-2.5446999219906394 8:0.38830509803112767 9:0.10861093011979658 10:-0.25719896603545706 11:0.548369671062973 12:-0.22846804797668988 
0.0 0.0 0.0 1.0 0.34559377844144146 1.0 1.0 1.0 0.0 1:9.378265664081802 2:7.140377439933574 3:-7.561399218762003 4:9.976558438634285 5:-9.660432402373772 6:5.243889069861013 7:-2.8862523561315805 8:0.0507489794959471 9:-0.3968390857187029 10:0.05281168016715345 11:0.8666006108395793 12:1.1540478652023112 
1.0 0.0 0.0 0.0 0.0 0.0 1.0 0.0 0.0 1:0.6357822855754446 2:1.2743263019485371 3:-9.020139772096696 4:7.8685409731008145 5:-11.033498964140978 6:2.3527966758977383 7:-4.500204466518202 8:-1.6626426118780693 9:-0.4155069787749062 10:-2.301797116504188 11:1.390814662636447 12:7.841005066658845E-4 
0.0 0.0 0.0 1.0 0.0 1.0 1.0 1.0 0.0 1:8.181218792978951 2:5.288811071460844 3:-8.931035338034668 4:10.1534864818614 5:-8.972508995314389 6:4.8562145228840015 7:-3.0053401308360397 8:0.31079856177751986 9:-1.2439346295103335 10:-0.9519402726227262 11:0.16683226863399842 12:0.09746965171932828 
0.0 0.0 0.0 1.0 1.0 1.0 1.0 1.0 0.0 1:5.521581557226925 2:8.127082244488694 3:-3.462286144037136 4:10.55961676609276 5:-6.765713533932213 6:5.84830587605881 7:-3.140143524342887 8:-0.19714758265482812 9:0.7366732044932263 10:-0.9253567200605096 11:1.068711245030121 12:0.8321615997413595 
0.0 0.0 0.0 1.0 1.0 1.0 0.0 1.0 0.0 1:9.799719341305916 2:9.676934984348703 3:-5.8267497458389075 4:9.696335982184976 5:-9.169266366667902 6:4.980348380369262 7:-3.079012086453382 8:1.6512035035671377 9:0.8363118072664805 10:0.3070367388170839 11:0.672076852706468 12:1.6636300840525249 
0.0 0.0 0.0 0.0 0.0 1.0 1.0 1.0 0.0 1:5.62205833553908 2:8.690900898514851 3:-3.557497251235399 4:9.22390475295358 5:-8.20503476754905 6:5.294123707252746 7:-2.7442423566384093 8:0.030889937778763855 9:0.07824568865408059 10:-2.163227522779995 11:1.7401908831438633 12:0.9364283124319029 
0.0 0.0 0.0 1.0 0.0 1.0 1.0 1.0 0.0 1:9.78757181106651 2:5.3603599718570045 3:-8.911123619596085 4:12.45207116046725 5:-10.054288505083232 6:4.791428109794699 7:-3.909421953069924 8:-0.727779464446559 9:-0.22571031616169146 10:0.7142838672508057 11:0.4059021414922888 12:0.05500634449296943 
0.0 0.0 0.0 0.0 1.0 1.0 1.0 1.0 0.0 1:7.081281422710351 2:9.412874103164379 3:-3.896459106261604 4:9.123508012222267 5:-8.72335089353897 6:5.21238935406487 7:-2.9490924987140508 8:0.2826667558096718 9:0.2742881764059832 10:-1.2839386442272978 11:0.8265697560350038 12:1.5400804691561456 
0.0 0.0 0.0 1.0 0.0 1.0 0.0 1.0 0.0 1:9.481347063294136 2:7.458857410953046 3:-6.592608531344871 4:11.065837331892567 5:-10.336594860023506 6:4.647112961286056 7:-2.991636107557825 8:0.6743718684729718 9:-0.4446024101413583 10:-0.11126689538345325 11:1.101361069270017 12:0.33578503669507176 
0.25722587909211164 0.0 0.0 1.0 1.0 1.0 1.0 1.0 0.0 1:8.708353528124443 2:10.104172237887745 3:-4.632506936980057 4:8.831674979203902 5:-7.529089812926027 6:5.961420265392804 7:-2.9388422282783746 8:0.7384628283759984 9:-0.10723769680072053 10:-0.7896678859393421 11:0.4674947631847933 12:1.9846012301987617 
0.0 0.0 0.0 0.9792153643233317 0.0 1.0 1.0 1.0 0.0 1:5.435687401418247 2:6.374362755776611 3:-4.970578420825674 4:10.420556878712421 5:-6.589046759962624 6:5.660669872566815 7:-3.4324434266336854 8:-0.11298665762868411 9:1.280065180645365 10:-1.573964393180359 11:1.7017507095881375 12:0.7776295482946675 
0.0 0.0 9.82335271045859E-4 1.0 0.0 1.0 1.0 1.0 0.0 1:7.800711734908672 2:5.5333000136674055 3:-7.658260631084913 4:10.360526509677083 5:-9.946601538316221 6:4.349824047949684 7:-3.582108873999755 8:0.4644539270315583 9:0.6883050034180261 10:-0.3027412415807909 11:-0.10721367472987532 12:-0.05903331427112287 
0.0 0.0 0.0 1.0 1.0 1.0 1.0 1.0 0.0 1:6.7983420828920655 2:6.117714356446532 3:-5.962477173102731 4:10.111908392820618 5:-9.819439553691709 6:5.100053709655173 7:-3.044536139229887 8:-0.1257770729687539 9:2.221383520560374 10:-1.0963202979284397 11:0.8643845325244092 12:0.7602279029238374 
0.0 0.0 0.0 0.0 0.0 1.0 0.0 1.0 0.0 1:6.141240947138306 2:6.103583045713556 3:-5.458179758731172 4:11.484506647629745 5:-8.268847782827288 6:3.674689765723213 7:-4.5071257518029695 8:-0.4507250790339342 9:0.5252949402549112 10:-0.766814136119156 11:1.4095893536396358 12:0.10153619690103298 
0.0 0.0 0.0 0.0 0.0 1.0 1.0 1.0 0.0 1:7.760968022216771 2:8.320628344689933 3:-4.909575110144328 4:10.9488864587995 5:-8.241792637376822 6:5.172817724958155 7:-2.935488948809351 8:0.19223235354735282 9:-1.3601405200124472 10:-1.2044367031290495 11:0.9672675666950104 12:0.8159509695344999 
0.0 0.0 0.0 0.0 0.0 1.0 1.0 0.0 0.0 1:3.82430763897845 2:6.428790981996668 3:-4.188978208155089 4:9.615591657574079 5:-8.83918681355976 6:3.5828991759565962 7:-4.191593315575466 8:-0.35372037190130245 9:0.7065882764215639 10:-2.6412315317642228 11:0.8395887498593172 12:0.6481702191294229 
0.0 0.0 0.0 1.0 0.0 1.0 0.0 1.0 0.0 1:8.516601279672496 2:5.335961774406416 3:-8.782586882574533 4:10.56157984224976 5:-8.611138262040853 6:4.450919220665614 7:-4.608492683543056 8:0.21418321063947432 9:1.0441208082020783 10:0.1533680299877259 11:0.7547243045262962 12:0.5474138989668852 
0.0 0.0 0.0 1.0 0.0 1.0 0.0 1.0 0.0 1:8.140878146226793 2:6.3728173337579435 3:-7.375947796811768 4:9.848040753330757 5:-9.019749854344772 6:5.325265355608416 7:-4.237147198349682 8:-1.2589277998979782 9:-0.229191190066878 10:-0.6745131626824505 11:1.901048637571151 12:1.0150311531930378 
0.0 0.0 0.0 0.34321192438584724 0.0 1.0 0.0 1.0 0.0 1:8.326899090336557 2:6.366857699199236 3:-7.110552175621717 4:10.942470316474143 5:-9.253927257018633 6:4.445685795970982 7:-4.070209564254928 8:-0.312820822865921 9:-0.5383969661211561 10:-0.7596299172416376 11:1.1338256695622517 12:0.4991645988087194 
0.0953385649363162 0.0 0.0 0.0 0.0 0.0 0.0 0.0 0.0 1:7.174290028751297 2:5.10220132617227 3:-9.130720027592528 4:9.106800584796693 5:-9.401939041343544 6:4.028521965383796 7:-2.5943960203341647 8:2.64148705693954 9:0.6249480006512835 10:0.003508282454117149 11:2.051342549256253 12:2.1555877570265687 
0.0 0.0 0.0 1.0 1.0 1.0 1.0 1.0 0.0 1:8.642066134002452 2:8.407945683116676 3:-6.763950615555809 4:8.25269764303194 5:-8.858237846702337 6:6.2644540290340585 7:-2.3511825432218076 8:0.802678350743044 9:0.05451556317750689 10:-0.30252256795962384 11:0.7645184409755993 12:1.6857613576380523 
0.3723365985566913 0.0 0.0 1.0 1.0 1.0 1.0 1.0 0.0 1:10.638348055966011 2:9.31089369232906 3:-6.455620016887801 4:10.412802970511532 5:-8.09301762506598 6:5.062170150808436 7:-3.4240796361001213 8:1.4384255149778866 9:-0.682772415409381 10:0.034982995372621326 11:0.43971896144353056 12:1.6624807165673285 
0.0 0.0 0.0 0.0 0.0 1.0 1.0 0.0 0.0 1:5.920096561191921 2:4.4633262474470135 3:-8.036059191754406 4:9.494078526464811 5:-9.464051954334733 6:4.54098159575679 7:-3.227591670832288 8:0.22746881824795678 9:-0.07621219887745069 10:-2.0413951257289416 11:1.4285656397060302 12:0.4130762262971386 
0.0 0.0 0.10906666053049852 0.6919268939311112 0.0 1.0 1.0 1.0 0.0 1:5.01352397108859 2:7.313391119265044 3:-3.688832932434453 4:9.79470029443741 5:-7.020239596238639 6:6.140038183834238 7:-2.9728733135355805 8:-0.582234279936629 9:1.5759829842289856 10:-1.4581051392837172 11:1.761528134171205 12:1.192816944243034 
0.26321769952112667 0.0 0.0 0.0 0.0 0.0 1.0 0.0 0.0 1:4.645453180929515 2:1.7388268546890204 3:-10.504428128645392 4:9.358707227710498 5:-11.124663610569268 6:2.9506346265421466 7:-5.017002814335218 8:-1.643223088801509 9:-0.49349609153587 10:-0.7333863269135439 11:0.49349424872763636 12:0.35088364224373736 
0.0 0.0 0.0 0.0 0.0 1.0 0.0 0.0 0.0 1:6.970011721677197 2:3.5838553710800314 3:-9.409527657412951 4:9.552466011503533 5:-10.20206429676051 6:4.739650248202809 7:-3.219252488431123 8:-0.27251899377683897 9:-0.09800819330997791 10:-0.7448908070758011 11:1.9761680245567816 12:0.1079580786574906 
0.3297385440525321 0.0 0.0 0.0 0.0 0.0 1.0 0.0 0.0 1:2.4737422745877455 2:2.4631118216202887 3:-7.854401429943951 4:9.80244111622948 5:-10.314873969120056 6:2.330294652685333 7:-5.127710163983109 8:-1.0614034549876408 9:1.460720309938057 10:-1.9915127121141838 11:1.4632353759877308 12:1.1260665189532701 
0.0 0.0 0.0 1.0 1.0 1.0 1.0 1.0 0.0 1:7.011032355135671 2:6.9865182747580254 3:-5.771997244028833 4:9.004657075468689 5:-9.023673589774004 6:5.710582737725872 7:-2.588604827789634 8:0.03962241849530499 9:1.6864590604265086 10:-1.1234658528797978 11:1.3297534768453458 12:1.2471766053989894 
0.0 0.0 0.0 1.0 1.0 1.0 1.0 1.0 0.0 1:8.470537513933385 2:8.596178441284763 3:-5.388557998010772 4:9.841400130649403 5:-7.802399859177399 6:5.530641394161843 7:-2.850906993790713 8:0.8825530140071046 9:0.24644691346075967 10:-0.28823922452548123 11:1.065565489974986 12:1.8105427622304406 
0.0 0.0 0.0 0.0 0.0 1.0 1.0 0.0 0.0 1:6.32390699345376 2:4.622332326277541 3:-8.372062932595394 4:9.5095871573608 5:-10.276475308403505 6:4.612035037405372 7:-3.098742042592204 8:-0.5543900000264442 9:-0.5103429484308901 10:-0.8728569798485125 11:0.6621704692757546 12:-0.33405666727215627 
0.0 0.0 0.0 0.0 0.0 1.0 0.0 1.0 0.0 1:7.336848844232182 2:8.659108048066518 3:-4.601365694658423 4:9.722089395557303 5:-9.811079689735292 6:3.561064836321485 7:-3.7593374506710866 8:0.4633901748959978 9:-0.054448020194620965 10:-1.139287008465576 11:1.297855144737308 12:0.9417708367165246 
0.0 0.0 0.0 1.0 1.0 1.0 1.0 1.0 0.0 1:8.764891748694886 2:9.134221318562734 3:-5.884223876928393 4:8.758201107361169 5:-8.017259126176299 6:6.032011076725122 7:-2.8855686287520217 8:1.0544165499579607 9:0.5914357684514872 10:-1.0721100146484328 11:0.3139736963762865 12:1.5782696353175276 
0.0 0.0 0.014432313702536793 1.0 0.0 1.0 0.0 1.0 0.0 1:8.220270551795425 2:5.774090325165459 3:-6.338919555139876 4:13.053407208507696 5:-8.852987645246849 6:4.628688912710153 7:-4.026644177202097 8:-0.7624231751714875 9:0.24868311496013593 10:0.5289115319848037 11:1.0493224478839271 12:-0.34854250251391145 
0.0 0.0 0.0 0.0 0.0 1.0 1.0 1.0 0.0 1:5.423777504631789 2:5.439230724097045 3:-5.72803847737088 4:10.991890244879317 5:-8.707864928140214 6:4.428508426931516 7:-3.4795593218100973 8:-0.1869259349009011 9:0.4467666026162616 10:-2.209555945157479 11:2.084831685967855 12:0.8464135393526596 
0.0 0.0 0.0 1.0 0.0 1.0 1.0 1.0 0.0 1:7.424154288925537 2:6.418834478693323 3:-7.52436019918923 4:8.720107197909078 5:-9.431510702205975 6:5.191856490805068 7:-4.173058246929783 8:-1.548639388665153 9:-0.3424213312536351 10:-0.8086584006295348 11:0.7516253067150059 12:0.3527527788383614 
1.0 0.0 0.14876147855178354 0.0 0.0 1.0 1.0 0.0 0.0 1:2.562708690772803 2:4.709939330335872 3:-6.7244003792461635 4:5.26312264410143 5:-8.588459454730295 6:5.517992334887597 7:-2.0049584437821686 8:0.18827839773723712 9:1.3735687556549636 10:-2.9524943405926285 11:2.4017904614573045 12:0.6236409766714908 
0.0 0.0 0.0 0.0 0.0 1.0 1.0 0.0 0.0 1:6.275994098193715 2:5.682399919896453 3:-7.5912862816323 4:9.041403949660245 5:-10.537981340973603 6:4.033017742257274 7:-3.025844433103846 8:-0.31353935041590303 9:-0.8229713968306371 10:-1.0329049577379086 11:0.1265073649323104 12:0.34522837761455505 
0.0 0.0 0.0 1.0 1.0 1.0 0.0 1.0 0.0 1:10.331937892873587 2:8.236541028829526 3:-6.879803712236814 4:11.498640926368774 5:-8.211810864874218 6:4.802596154253496 7:-4.3474779469069205 8:0.499391828282888 9:-0.5220691606118505 10:-0.09844629956311429 11:0.5102164702208383 12:0.8727590065363178 
0.0 0.0 0.0 0.0 0.0 1.0 1.0 0.0 0.0 1:7.322040431115368 2:5.481800130526874 3:-9.846069495436982 4:7.283960855396422 5:-9.933339966886384 6:3.8578725108754335 7:-3.1935938158613846 8:1.4358692083055162 9:-1.39857702808433 10:-0.6832877774190491 11:0.34808344055080076 12:0.8065575853955784 
0.31143583260124985 0.0 0.0 0.0 0.0 1.0 1.0 0.0 0.0 1:4.708316644014267 2:7.49521007292578 3:-5.8627198829990075 4:6.954132613986185 5:-7.743614464773894 6:5.551661830241086 7:-3.393325147390797 8:-0.3097631025547585 9:-0.3968105784329858 10:-2.070470099511048 11:0.7397284190424006 12:1.6237454201297048 
0.0 0.0 0.0 0.0 0.0 1.0 1.0 1.0 0.0 1:7.405981411365422 2:7.094941131080647 3:-5.688412743349446 4:10.315465273288247 5:-8.191927175372738 6:5.04396852179461 7:-3.176230493560246 8:0.6153110268610313 9:0.29718373742495424 10:-1.2084606477668554 11:1.5251540062093902 12:0.8914473140872228 
0.0 0.04894311327959461 0.20995889054318753 1.0 1.0 1.0 0.0 1.0 0.0 1:9.689277959014882 2:7.8620836460221595 3:-6.953832855805112 4:10.283258825411526 5:-7.610359285890977 6:5.748738907616597 7:-4.26072211025284 8:0.09149557678264235 9:0.4127794286678076 10:-0.2180916812660691 11:0.7245840683501633 12:1.5670872690989945 
0.0 0.0 0.0 1.0 1.0 1.0 1.0 1.0 0.0 1:9.003963997063408 2:7.739389866376547 3:-6.267049008692652 4:10.671424609961168 5:-10.892019372583551 6:4.448340608649454 7:-3.1255011451305212 8:-0.4033890011958977 9:-0.51000366991338 10:-0.46010738770038306 11:0.22463217034057137 12:0.4052424313879473 
0.0 0.0 0.0 0.0 0.0 1.0 1.0 1.0 0.0 1:7.600491560599922 2:6.033388457761313 3:-7.978844825319562 4:9.28259329710128 5:-10.558500386023743 6:3.6273999894006788 7:-3.883923631734809 8:-0.16640287528260123 9:-0.9672363794999086 10:-1.1219527603082255 11:0.3398732898497524 12:0.1375985317949317 
0.18877866125783907 0.0 0.0 1.0 1.0 1.0 1.0 1.0 0.0 1:6.274026256295567 2:9.044376168023037 3:-2.6738667192469623 4:10.463316840484644 5:-7.5943942626032515 6:5.949131785133104 7:-2.605734554122445 8:-0.026546300798592756 9:1.2008185205308535 10:-1.4307765529853225 11:0.957199713827775 12:1.2051425353096765 
0.0 0.0 0.0 0.0 0.0 1.0 1.0 1.0 0.0 1:6.354456679376337 2:4.309255937194082 3:-8.212701504800043 4:10.25236276839738 5:-10.27980773267122 6:3.82317018217461 7:-3.850528883524006 8:-0.7379363375042122 9:-0.0855714951497024 10:-1.9075839997485629 11:0.4176948374918681 12:0.24897421052795393 
0.0 0.0 0.0 0.6452740846261344 1.0 1.0 1.0 1.0 0.0 1:6.548414153941261 2:8.945565920021282 3:-4.199650376310112 4:8.60763048566043 5:-7.354242641710621 6:5.517673016290335 7:-3.4873306432519064 8:-0.05429017608695262 9:0.9287128932728625 10:-1.2683808911674368 11:0.7218084930052069 12:1.535252187563774 
0.0 0.0 0.0 0.0 0.0 1.0 1.0 0.0 0.0 1:5.782212975710915 2:5.739705665210635 3:-6.338779439323995 4:9.970471808159443 5:-8.74990814140678 6:4.968346564857348 7:-3.160833555277179 8:-0.43168612105307663 9:-0.13271330932711373 10:-0.5182056741019428 11:1.4202170261023044 12:0.17373780006957995 
0.0 0.0 0.0 3.006596767043292E-4 0.0 1.0 1.0 1.0 0.0 1:6.417356828327351 2:7.983266009274673 3:-4.330911624235441 4:10.019036568990256 5:-8.908499603437345 6:4.3645135756667655 7:-3.0250134743515043 8:0.6012783513080222 9:0.7950665206879951 10:-0.9248641355846058 11:1.4517478836400957 12:1.196116025218595 
0.0 0.0 0.0 0.0 0.0 1.0 1.0 1.0 0.0 1:8.197312414931863 2:6.264375702338537 3:-8.13866315640387 4:9.895002951256558 5:-8.62692150547887 6:4.153258805893639 7:-4.799856850008636 8:-0.4176319683899012 9:-0.7485999560230452 10:0.20632006763302363 11:0.7693164729450376 12:1.1473300297580575 
0.2839387991549127 0.0 0.7606394044643162 1.0 0.0 1.0 1.0 1.0 0.07598992472487767 1:10.434920680888874 2:4.42807456844207 3:-9.853875934950743 4:13.937893342667996 5:-9.207473976848304 6:4.663233180636824 7:-4.281405465619518 8:-0.5644712842267263 9:-0.7056329959058493 10:1.2473114634472342 11:0.33911801308200634 12:-0.45626015572893813 
0.0 0.0 0.0 1.0 1.0 1.0 1.0 1.0 0.0 1:9.757409791723596 2:7.411944504136577 3:-7.9572499797985214 4:9.681854152734942 5:-8.711797020338464 6:5.3088288249304085 7:-3.5530373492076 8:0.38367576493377736 9:-0.2977404130260513 10:-0.631960497891936 11:0.3934318063117394 12:1.0271947570473146 
0.0 0.0 0.0 0.0 0.0 1.0 1.0 1.0 0.0 1:7.721509614618004 2:7.85519765857557 3:-5.954904845548349 4:9.649869179869425 5:-9.504750121558706 6:4.044045397675888 7:-2.539672119148479 8:1.4894894212659986 9:-0.8849808808325169 10:-1.2461071614439043 11:1.097632345638077 12:1.0298572209405752 
0.0 0.0 0.0 0.9612036138063421 0.0 1.0 1.0 1.0 0.0 1:7.81622389538733 2:7.308789447648995 3:-4.745689857128254 4:12.452732101148639 5:-10.531833176772006 6:2.9860864551371975 7:-3.6911327622039503 8:-0.05007591285939396 9:0.5781927446060534 10:-1.6392866380293196 11:0.5893564193452796 12:0.09794811455940612 
0.0 0.0 0.0 0.0 0.0 1.0 1.0 0.0 0.0 1:5.516651463874668 2:3.2375261153051227 3:-9.522568211108906 4:9.066036144289223 5:-10.205131988572436 6:3.981531878620936 7:-3.677820577103363 8:-0.7494411614462619 9:-0.5327857448941314 10:-1.1645078923950616 11:0.962720381049843 12:-0.14185385688041405 
0.001479184682007894 0.0 0.0056611898179097205 1.0 1.0 1.0 1.0 1.0 0.0 1:10.081347998013259 2:7.765805843125182 3:-6.026347333548965 4:13.06125458541945 5:-8.919857870402696 6:3.791014985374874 7:-4.4305921888683155 8:-0.005153787433272182 9:-0.5330216101067005 10:0.3190766495062683 11:0.5231540634836926 12:0.9645262376166104 
0.0 0.0 0.0 1.0 1.0 1.0 1.0 1.0 0.0 1:8.683246532903818 2:9.050878921588128 3:-5.238837391091191 4:9.688307622299437 5:-9.861232413991242 6:3.579066291754299 7:-4.543124134844657 8:-0.7039261695579815 9:-1.3010564133302402 10:-1.396448525566534 11:-0.2832996932444393 12:0.29721664689362015 
0.0 0.0 0.0 0.0 0.0 1.0 1.0 1.0 0.0 1:7.122098076900181 2:4.9543167775217585 3:-8.136464837215271 4:10.47634330721443 5:-9.532981088330576 6:4.278530927911633 7:-3.8036185405764917 8:-0.749202422105324 9:-0.8478443987585504 10:-1.1492079480614537 11:0.2769567473018998 12:0.11897541647427456 
0.7264276767162166 0.0 0.0 1.0 1.0 1.0 0.8815605103169883 1.0 0.0 1:8.797992793129952 2:8.757795980502857 3:-6.098125135405918 4:9.151567740609382 5:-7.359805864557734 6:6.5595547229197155 7:-2.8830967770292024 8:0.3965338345044473 9:-0.2263945695092645 10:0.37846254685254854 11:1.10605144957629 12:2.5400474750752227 
0.0 0.0 0.0 1.0 1.0 1.0 1.0 1.0 0.0 1:8.200356069276667 2:9.950750166050495 3:-4.278889369941007 4:9.62144506624434 5:-8.244923066931584 6:5.707256062115189 7:-3.0707570669813236 8:-0.1002880018683452 9:-0.8211546269114242 10:-0.8213950393699068 11:0.8788405826193025 12:1.209324627491446 
0.0 0.0 0.0 0.0 0.0 1.0 1.0 1.0 0.0 1:5.369692304123159 2:8.199211472755684 3:-3.4449352368757507 4:9.787369369071033 5:-7.848422643048164 6:5.657407346619515 7:-2.529709876557074 8:-0.18708831735470538 9:0.19545194528474139 10:-2.091494394445879 11:1.4100174805772083 12:1.0238136975975545 
0.0 0.0 0.0 0.0 0.0 1.0 1.0 0.0 0.0 1:4.208358409665894 2:4.40591599462366 3:-7.366092176959151 4:8.88913350829224 5:-8.650541439938369 6:5.018944066328141 7:-3.2532799400726327 8:-0.39936120146782794 9:0.25424080726811144 10:-1.8850360789726925 11:1.8552982513954863 12:0.9090181809787694 
0.07764078858625637 0.0 2.5637299757909376E-4 0.0 0.0 1.0 1.0 0.0 0.0 1:4.36752510907282 2:4.429323321989154 3:-4.869845256761732 4:12.870976308031896 5:-9.899467788144285 6:2.8451894787928107 7:-4.197065909724494 8:-0.5487936868637845 9:0.9325201498640712 10:-2.0144516908311276 11:1.3116282388264313 12:-0.17431348581221803 
0.0 0.0 0.0 1.0 0.0 1.0 1.0 1.0 0.0 1:7.629621902086988 2:3.823918314560054 3:-8.978241358672681 4:10.140291562194895 5:-11.407154779029689 6:5.291722105765483 7:-2.476612274691427 8:-0.43720959728491626 9:0.5005601221203315 10:-1.878480914480949 11:1.696226773973785 12:0.21545195532380462 
0.2827440463018214 0.0 0.0 1.0 1.0 1.0 1.0 1.0 0.0 1:7.598726443078519 2:10.523739925242694 3:-3.7343259566342666 4:8.234357422803125 5:-8.63366357325973 6:5.667257288672162 7:-2.853161971372375 8:0.16563378907533577 9:0.31454485377163793 10:-0.7265650342242389 11:0.8358097432459974 12:1.4846633728994019 
0.0 0.0 0.0 0.5707198779143325 0.0 1.0 0.0 1.0 0.0 1:6.12179234601425 2:7.5653649861251075 3:-4.630615925470672 4:9.795220316322995 5:-8.182339158870182 6:5.953636426638325 7:-2.4665819041006967 8:0.3224975723152661 9:1.4128169253225515 10:-0.7889577592685384 11:1.642364968393604 12:1.2438852853086055 
0.24537131386871744 0.0633125909606642 0.604919038446651 1.0 0.0 1.0 0.057015113346375476 1.0 0.0 1:5.27555301679319 2:5.075781452917569 3:-5.627589476922066 4:11.068503293458537 5:-7.199543628714197 6:6.430942452344902 7:-3.1961712115123566 8:-0.4946631502295255 9:2.55004630261802 10:-0.8630560316586637 11:1.3539469506255322 12:-0.10452783725194899 
0.0 0.0 0.0 0.0 0.0 1.0 1.0 0.0 0.0 1:6.271617014796192 2:6.99305517339425 3:-6.581123479470246 4:8.138318831671032 5:-10.00003643983954 6:4.522347742989496 7:-3.855258854344638 8:-0.5516759440976777 9:0.36161065013402854 10:-1.1931727271077643 11:0.29633751151509874 12:0.39641782951520277 
0.0028026311875963645 0.0 0.0 0.0 0.0 1.0 1.0 0.0 0.0 1:5.91166908489005 2:3.951896943316313 3:-9.673260821784613 4:8.032166692382114 5:-9.021779442149327 6:3.773529510056908 7:-4.748500595244862 8:-0.4695855811190137 9:0.6816086015577105 10:-0.7098613586932158 11:0.5178955864783916 12:0.2977406059471914 
0.0 0.0017437545555060458 0.0 1.0 1.0 1.0 1.0 1.0 0.0 1:6.256370244931462 2:7.0784561071927525 3:-4.866926223785264 4:10.149741337430498 5:-6.915401456409806 6:6.2127221343246015 7:-3.5264517545269234 8:-0.6080442609697206 9:1.4213229858832563 10:-1.5829107610446416 11:1.2999601603466706 12:0.7908994968952675 
0.1257028782348727 0.0 0.11086582203497905 0.0 0.0 1.0 1.0 0.0 0.0 1:4.111654124206057 2:4.549086726985821 3:-6.288683522808662 4:8.79612336647902 5:-9.589018933722036 6:3.2075793215626742 7:-4.2051344784315425 8:-0.4566997637462798 9:0.6855399015057899 10:-3.781756566387751 11:0.4704791240844747 12:0.43996139112039256 
0.0 0.0 0.0 0.0 0.0 1.0 1.0 1.0 0.0 1:6.819362476726729 2:7.383330796612077 3:-4.987298857969322 4:10.754270503350927 5:-8.04773515441102 6:3.837104021751912 7:-3.7849880725367933 8:0.6001436727830523 9:0.2293637505786462 10:-1.3108817716665226 11:1.108187976151612 12:0.6070420554392432 
0.0 0.0 0.0 0.8847253862502589 0.0 1.0 1.0 1.0 0.0 1:7.537866967945445 2:4.181891286170442 3:-9.152415182252767 4:10.188281924583537 5:-12.271793088144543 6:4.291078226750892 7:-2.551260151308916 8:-0.5154941934868064 9:-0.6075388003482264 10:-1.8191316845563088 11:0.6949627132579583 12:0.04544840072672515 
0.0 0.0 0.0 1.0 1.0 1.0 1.0 1.0 0.0 1:9.005045144852255 2:8.790976269254553 3:-5.1748325706651155 4:10.816892962140699 5:-10.411723076991853 6:4.508517624517253 7:-2.9767101636144004 8:-0.1071591451370304 9:-0.7860355284678452 10:-0.5041878782303801 11:0.07612687458988174 12:0.10983929105900159 
0.0 0.0 0.0 0.0 0.0 1.0 1.0 0.0 0.0 1:5.506627407435802 2:2.89785427211196 3:-10.345561318740137 4:9.210101512605117 5:-8.883809257668416 6:4.606148281330661 7:-3.7373277415056054 8:-0.10619535802988635 9:-0.7957458838079348 10:-1.241123766332029 11:0.7147161388450989 12:0.07063884140297871 
0.0 0.0 0.0 0.0 0.0 1.0 1.0 1.0 0.0 1:7.53836731535318 2:7.754950443116938 3:-5.015537713529712 4:11.572251725017566 5:-8.422853564947427 6:4.212256681906184 7:-3.5200893128529405 8:0.18710899601764747 9:-1.3388564766216946 10:-0.9412892305238013 11:1.3018481166994411 12:0.6179737689755296 
0.0 0.0 0.0 0.6706015463612027 0.0 1.0 1.0 0.0 0.0 1:5.35090947441747 2:4.735642360973626 3:-6.296649827017987 4:11.645582958709738 5:-9.277772071724355 6:3.361429778634161 7:-4.322266253136814 8:-0.4527326505581554 9:0.9737528651709918 10:-1.239207752907247 11:1.0359421119516725 12:-0.15566185752293368 
